#ifndef W_H
#define W_H

#define in_n 300
#define l1_n 64
#define l2_n 40
#define l3_n 20
#define l4_n 10

#define out_n 9

float w1[in_n][l1_n] = {{-0.14553954, -0.04980257, 0.09345528, 0.024515036, -0.12338161, -0.027194804, -0.037537776, -0.04831883, 0.08338858, -0.015651869, -0.035826076, 0.11989783, -0.023221593, -0.11305251, 0.11569879, 0.0375717, -0.1068618, -0.025771886, -0.011558869, 0.053817853, -0.052393857, 0.0035035966, -0.064152166, -0.06765384, -0.057259757, 0.15742967, -0.088512756, -0.07412825, -0.07457722, -0.0074171885, 0.13623787, -0.05274498, 0.025783438, -0.14558196, -0.06536251, -0.067675926, -0.01499562, -0.019056648, 0.11909614, 0.014088389, 0.024254829, -0.09896153, 0.07281278, 0.04019033, -0.09492026, -0.006557544, 0.105982274, -0.013413336, 0.093347825, 0.053806867, 0.10578395, 0.10892906, -0.08019587, -0.13869673, -0.08014611, 0.12825496, 0.12403721, 0.07160231, -0.12045037, -0.08237088, 0.07238504, -0.09104945, 0.06480519, -0.06523864},
{-0.017153233, -0.05346979, -0.105430976, -0.09310641, 0.12275927, 0.04750974, 0.15151581, -0.0074534947, -0.031113202, -0.03744431, -0.11274045, 0.13761741, -0.019608498, 0.10943632, -0.019304292, -0.054096073, -0.07584649, -0.08862291, -0.13364649, 0.0021647972, -0.06724812, -0.12111586, 0.04762634, -0.05990964, 0.116484866, -0.111837514, 0.13074364, -0.035034653, 0.0055767703, 0.1377789, -0.11563548, 0.122662336, 0.04967409, 0.017272992, 0.029212374, -0.13617264, -0.07263591, 0.0051323767, 0.020979557, 0.030968564, 0.042347547, -0.06812957, 0.11396625, -0.07271623, 0.041933257, 0.05408181, -0.14088777, -0.06699013, 0.0030487718, 0.024484199, 0.017948844, 0.08700041, 0.12166306, -0.017968431, -0.12331692, 0.0040781246, 0.089946434, 0.026381012, 0.10969542, 0.03517769, 0.11011136, -0.10184029, -0.13037796, -0.0065241973},
{-0.004938799, -0.090405695, 0.057166964, 0.016630458, -0.13129748, 0.007586923, 0.010039783, -0.038433187, -0.05202463, 0.049245406, -0.024452472, 0.0377516, -0.09913908, 0.12918003, 0.03611293, -0.032706838, -0.095765576, 0.068100214, -0.11193748, 0.019727327, 0.075212784, -0.028634991, 0.06865748, -0.020882094, -0.08118405, -0.029257733, -0.07515283, 0.08868847, -0.08705598, 0.013681234, 0.07197388, 0.11074873, 0.031150788, 0.058916938, 0.03937082, 0.04586308, -0.02320729, 0.13430773, -0.0088278, 0.028820207, -0.15618676, -0.03737405, -0.09087415, 0.10197738, 0.115404345, 0.15249743, 0.076253295, 0.072297044, -0.07399689, 0.022872292, 0.08115573, 0.088693015, -0.008649907, -0.061349142, -0.010473262, -0.11299918, -0.009838075, 0.16252555, -0.08480395, 0.18026327, 0.049855437, 0.057275757, 0.020367987, -0.11097898},
{0.047126304, 0.057185758, -0.045408204, -0.03525105, -0.073860146, -0.08310269, -0.009118257, -0.021725547, -0.06426924, -0.12667261, 0.048097137, -0.05784894, -0.011962805, -0.04774677, 0.06545632, -0.18401477, -0.12948188, -0.05558616, -0.01955753, 0.13040346, -0.0547553, 0.122638695, 0.10633246, 0.007338049, 0.0573033, 0.032016814, -0.06881938, -0.12724759, -0.08841025, 0.08732104, -0.046781115, -0.06426098, -0.16530575, -0.0009736095, -0.05685788, -0.12149547, -0.11454298, 0.035255298, 0.027426988, -0.042638812, -0.04167691, 0.057983693, 0.02665237, -0.09478221, 0.11438632, -0.0035834569, 0.05143594, 0.017126292, -0.0642402, 0.03073407, 0.11794909, 0.11347603, -0.07269805, 0.088612676, 0.060220707, 0.090613954, 0.06065084, 0.06198078, 0.08387575, 0.11843701, 0.15137915, 0.059466567, 0.096535765, -0.078958556},
{0.06132323, 0.015684221, 0.04617639, -0.07474306, -0.060293756, 0.101376444, -0.10006815, -0.10860536, 0.10803438, -0.106981896, 0.055539507, 0.0697876, 0.0040094163, 0.06494408, -0.07652582, -0.046381667, -0.12242309, 0.08775859, -0.15671356, 0.10754711, 0.09293969, 0.08548981, -0.019342192, -0.07231009, -0.0013590492, 0.031147726, -0.035099298, -0.038840074, -0.1346783, 0.14183807, 0.03427661, -0.15381493, 0.058217146, -0.055188965, -0.07972355, -0.10553799, -0.11114165, 0.010481557, 0.10859728, 0.008964239, 0.046857912, 0.033677526, 0.05653236, -0.04394259, 0.045718618, -0.138197, 0.041541956, 0.026335929, 0.15622224, -0.03426646, -0.0028884497, 0.012970815, 0.10253337, 0.026149068, -0.02897376, -0.05253262, -0.032117717, -0.021036824, 0.0004957915, -0.0076663615, -0.10517055, -0.09706245, 0.041845005, 0.029076194},
{-0.09548293, 0.026847515, -0.09028474, 0.060103517, -0.03461916, -0.14625402, 0.036576077, 0.0070553487, 0.07790193, 0.10576543, 0.08304302, -0.18864523, 0.049325522, 0.1473863, -0.043486565, -0.011228886, -0.08583907, -0.023171667, -0.07690003, 0.07970154, 0.035416964, 0.03873102, -0.02494263, 0.026973745, 0.037541647, 0.057477955, 0.013321143, -0.13429794, -0.099196, 0.022975594, 0.06800142, -0.09484997, 0.08280624, 0.08368303, -0.047932908, -0.010829716, -0.10805297, 0.11837467, 0.019402357, 0.1560809, -0.036244024, 0.029309714, 0.048464704, 0.1279259, 0.056935888, -0.022830104, -0.042195555, 0.01530976, 0.06946395, 0.051216017, -0.12890662, 0.045993276, -0.10340246, -0.0061217924, 0.1552932, -0.043497883, 0.021394406, -0.10682671, -0.08145337, 0.07295258, -0.08454203, 0.07013529, 0.08965217, 0.095901504},
{-0.045195214, -0.088544674, 0.036638338, -0.0026311858, -0.029346893, -0.16008109, 0.025464619, 0.044235777, 0.106661625, 0.009697169, -0.080803715, 0.050438486, 0.0071201925, -0.055932287, -0.044993736, 0.086116284, -0.06417382, 0.019896165, 0.0972627, -0.003566277, 0.0031946201, 0.058086, 0.053580023, -0.12301079, -0.040413287, -0.049982272, -0.09336721, 0.050505605, -0.122111484, 0.10718159, 0.088517845, 0.045294758, -0.106208645, -0.06815942, -0.05623518, -0.06353593, 0.08444357, -0.09468498, 0.09398626, -0.0834772, 0.007985061, -0.048295565, 0.007914078, -0.11835072, 0.09521106, 0.094170585, 0.05613325, 0.052065875, 0.036749315, 0.002254243, 0.07808781, 0.094532214, -0.09656971, 0.032320593, 0.10734029, 0.053729825, -0.0432647, 0.025468262, -0.05987671, 0.016496358, -0.018396111, -0.005154567, -0.067500986, 0.05530586},
{0.09747289, 0.09237297, -0.045348663, 0.055299092, -0.012893697, 0.0052629565, 0.061686374, -0.049351677, -0.042658653, 0.0996829, 0.08996635, 0.061975986, 0.07598236, 0.06411969, -0.11451358, -0.11663507, -0.009181221, -0.09658443, -0.131643, 0.1150897, 0.06325886, -0.10729733, 0.009078764, 0.035109367, -0.026735328, -0.13321157, -0.09864483, 0.10347247, -0.063183874, -0.045016102, -0.05770002, -0.07167008, 0.094090536, 0.12353722, 0.053754583, -0.11630017, 0.05075232, 0.004971055, 0.005285746, 0.06269919, 0.030469067, -0.0075291498, 0.06332786, 0.05435645, -0.07255997, -0.05489015, -0.13453206, -0.09427414, -0.06469837, 0.002324038, 0.15368873, 0.082278535, 0.069332436, -0.070072405, 0.019606639, -0.092285156, 0.11628219, 0.054461993, 0.06594883, -0.05082115, -0.09464417, -0.109727755, -0.002924936, -0.00057355035},
{0.15022296, 0.062139515, 0.04948224, -0.08196031, 0.09084167, -0.11891443, -0.07207657, -0.047444746, 0.04807256, -0.0023183268, 0.038254112, 0.046847574, 0.13976347, 0.13502167, -0.013065206, 0.13251598, -0.03174414, -0.054960895, -0.14622669, 0.09836897, -0.0899703, -0.060061343, -0.030892314, 0.1307522, -0.0014054899, -0.011537025, -0.09455265, -0.075358406, 0.024939734, 0.070952766, -0.015836412, -0.001121303, 0.09026682, -0.08150724, 0.056146953, -0.0611461, -0.05543113, 0.114749484, -0.06034468, -0.084123075, -0.14215899, 0.01740318, 0.079715, -0.095663086, -0.094146095, -0.04710022, 0.076362565, 0.102150545, 0.09971846, 0.052038174, -0.12859663, -0.105037086, -0.03845594, -0.054495525, -0.08084111, -0.101213366, 0.047316086, 0.10750809, -0.04798076, -0.00746661, -0.009173041, -0.10216452, -0.05985475, 0.008955978},
{-0.05043204, -0.12887557, 0.121851616, -0.16663603, -0.03833061, -0.12106257, -0.12090114, -0.096168794, -0.008768616, -0.11492043, 0.120423555, 0.029732205, -0.025660433, -0.017306974, 0.04605823, -0.06150732, -0.09435513, 0.072838694, 0.06310417, 0.079540506, 0.07380429, 0.11295413, -0.051247574, -0.06640373, 0.1327964, -0.06220813, -0.058414128, -0.107113525, -0.1783233, 0.15949082, -0.080701746, -0.19719325, -0.12035965, 0.09201565, 0.0015068523, -0.0036526239, 0.009722489, 0.10224601, -0.029491335, 0.07958978, -0.040938437, -0.092166014, 0.16991146, 0.04786793, -0.023337467, -0.13325953, -0.102323614, -0.022355232, 0.01698514, -0.13361993, 0.032892033, -0.14908369, -0.06304692, 0.13722256, -0.042410485, 0.0308036, -0.07752753, 0.08916472, -0.049539763, 0.0075447136, 0.0794086, -0.020570954, -0.061583772, 0.1049585},
{-0.05213914, -0.10830825, -0.012255029, 0.047970407, 0.067236006, 0.17108443, -0.02723538, 0.123446964, 0.112960696, -0.02269271, -0.014146597, -0.085424036, -0.03868636, -0.13109902, 0.060446423, -0.15446232, -0.10851955, 0.092055775, 0.0029318244, 0.09482581, 0.03847047, -0.012505015, 0.027999096, 0.014587489, -0.008982596, -0.032375257, -0.07668897, 0.09713224, -0.103809066, 0.13231063, -0.124446586, -0.0915933, -0.11153544, 0.019100098, 0.057188746, -0.084603906, 0.06618273, -0.035034552, 0.052088145, 0.13335647, -0.12569733, 0.023061987, -0.007739862, -0.040094998, -0.12406677, -0.17003448, 0.033024017, 0.078108236, 0.084671676, -0.002726322, -0.10984047, 0.015523588, -0.06878512, 0.1022877, 0.08034875, -0.08655353, -0.12521856, 0.10393633, -0.045365337, 0.13098496, 0.035514098, -0.04606635, -0.00031577394, -0.06804377},
{0.060475666, -0.14500831, 0.014888255, -0.11241285, 0.05770475, -0.048215102, -0.075568154, 0.005333062, -0.029669106, 0.09636515, 0.106716074, -0.002578686, -0.026416078, -0.050282475, 0.076412834, -0.13517882, 0.0020686528, -0.0095529985, 0.08711111, -0.027035084, 0.15333296, -0.10358229, 0.077414736, 0.09014275, 0.04576412, -0.14766264, -0.0002549781, -0.035638183, -0.14624652, -0.008492897, 0.11788558, -0.03136139, 0.04698494, 0.13049497, 0.14986494, -0.07523802, -0.07196505, 0.034650147, 0.05526333, 0.13667867, 0.017191332, 0.09740265, -0.11945777, -0.008145697, -0.09365799, -0.09820378, -0.064766586, -0.12208304, 0.0828415, -0.10124711, -0.0902589, 0.058093283, 0.044654362, -0.00538631, 0.11645176, -0.044873893, -0.07075024, 0.082273886, 0.13021517, 0.085654974, 0.102230944, -0.05856728, -0.01977576, -0.12204731},
{-0.11800114, -0.076678276, 0.09176059, 0.0855907, -0.056698747, 0.041038297, 0.15702467, -0.119701535, 0.071883634, 0.01608445, -0.023494113, 0.14478777, 0.09419415, 0.051598, -0.029318105, 0.0849347, 0.03220766, -0.099413194, 0.009008154, -0.031743083, 0.1206755, 0.041789334, 0.022850297, -0.13070488, 0.075698406, 0.05503902, -0.13096736, 0.055015713, 0.061221663, 0.05036244, 0.07860988, -0.01663706, -0.009616533, 0.0379461, 0.08120226, -0.08210341, 0.073188506, -0.07362069, 0.016856818, -0.066263326, -0.03420068, 0.047139224, -0.09664851, -0.072472475, 0.07342253, -0.08088125, -0.07826146, -0.035944294, 0.053238112, 0.13683361, -0.078969486, 0.07600955, -0.17581192, 0.024323242, -0.11477688, 0.16593572, -0.011506646, -0.0148254605, 0.08292639, -0.090851285, -0.04223016, 0.102687985, 0.09197612, -0.020111743},
{0.021081751, 0.0420968, 0.067755945, -0.058973115, 0.067626685, -0.019044226, 0.09551636, 0.034146376, -0.077535495, -0.115251236, 0.054737926, -0.05198078, 0.08694105, -0.07437351, 0.019137682, -0.059932508, -0.049395863, -0.055444278, -0.15130486, 0.04875722, 0.109508425, -0.041938156, -0.03915674, 0.09556318, 0.025415614, 0.024890155, 0.03477071, 0.11377348, -0.009939668, 0.09568381, 0.07499278, 0.08202212, -0.09356959, 0.17131989, 0.07067664, -0.009617294, -0.038549542, -0.057213295, 0.021029256, -0.10965271, -0.07165002, 0.11114714, 0.008966457, -0.1308716, -0.061946627, -0.0781611, -0.14320332, 0.013005514, 0.028974222, -0.0014313227, -0.04372299, 0.12204592, 0.0934827, 0.13953346, -0.024986375, 0.032311432, 0.015118777, -0.0005913925, 0.06536147, 0.13608733, -0.02351737, -0.13106258, -0.034475215, -0.07880626},
{-0.037935417, 0.08116842, -0.050320357, 0.0029635772, 0.1080843, 0.009082952, -0.05455412, -0.11417662, -0.021546217, -0.124490045, 0.07276478, 0.018450988, 0.072307065, -0.015795246, 0.03173376, 0.12876843, 0.079236895, -0.06206824, -0.008865061, -0.05976705, -0.09125903, 0.14699903, 0.038424212, 0.14209335, -0.080197975, 0.0013708975, 0.04678454, 0.086624995, 0.026292656, 0.06679354, 0.10437931, 0.12739514, -0.09151044, 0.07061443, 0.06751072, 0.07098168, -0.061372854, -0.0010941181, -0.10398608, 0.020982115, -0.10874735, -0.02551684, -0.04842402, -0.005287346, 0.020524383, 0.08443444, 0.017489702, 0.015458474, 0.08277495, 0.007069885, -0.02588298, -0.12745948, -0.06368812, 0.15769765, -0.028307192, -0.07925373, 0.096680984, -0.006446721, 0.06893914, 0.032392617, -0.1260862, 0.09648787, 0.113033116, -0.10561757},
{0.061499566, -0.07588529, 0.12777063, 0.079642475, 0.014219033, -0.10088188, -0.04994037, -0.025759008, 0.11260518, -0.04840698, 0.14730637, -0.043175872, -0.080091655, -0.07254836, 0.0001125362, -0.14203052, 0.08679199, -0.035840593, -0.0068320185, -0.0401106, -0.08840414, 0.14306097, 0.078004554, -0.09547011, 0.020737857, -0.025652662, -0.019138202, 0.0044220276, 0.054151624, 0.122537434, 0.004840283, -0.18260913, -0.06989981, 0.09935709, -0.067263834, 0.05929016, -0.09538232, -0.0044775456, -0.08686499, -0.0995138, -0.13883145, 0.021878084, 0.08006188, 0.036149032, 0.0764314, 0.05099716, 0.013541424, -0.10773114, -0.13496162, 0.07306739, 0.056656092, -0.060657978, 0.05298593, 0.013618128, -0.09247262, 0.07828301, -0.0789537, 0.15374777, -0.0026122357, -0.115916036, -0.082623385, -0.021547364, -0.0005099997, 0.03701894},
{0.03519082, 0.11156002, 0.073258035, 0.09278598, 0.050932087, 0.10489365, 0.080691196, 0.058257863, 0.023846181, -0.055114076, 0.07444839, 0.10856357, -0.01690165, -0.08985879, 0.00069930364, 0.061602104, -0.06303924, 0.1111853, -0.0228822, -0.03924078, 0.09576423, 0.022002008, -0.1353509, 0.016587963, 0.025512617, 0.042251777, 0.109693326, 0.11805398, 0.03074582, 0.13417828, -0.012288271, 0.102367125, 0.062205493, -0.011732117, 0.06965, 0.017793816, -0.04458796, 0.0026297586, 0.14305428, 0.0035650176, 0.07929052, 0.075299874, -0.016533663, -0.09772234, -0.09290208, 0.027451964, -0.08286676, 0.052935455, 0.12413636, -0.0064810226, 0.02464647, 0.052414987, -0.08523505, 0.04062574, 0.027283212, 0.012698435, 0.12256647, 0.049391333, -0.024471398, 0.14895202, -0.1018204, 0.08575026, 0.041425847, 0.05071031},
{-0.061421324, -0.12623578, 0.10454207, -0.03749506, -0.091649786, -0.06503571, 0.082074516, -0.09153328, 0.014107456, -0.074464716, -0.07070288, 0.034832507, 0.086898014, 0.16437127, 0.023080803, 0.02110836, 0.042266883, 0.045065843, -0.08214647, -0.062879905, 0.058164816, -0.03599445, -0.07560435, -0.030428339, 0.04573314, -0.13158008, 0.100610934, -0.09961215, -0.100675754, 0.106604666, -0.0785097, -0.108101614, 0.13149503, -0.033334017, 0.094158106, -0.07922198, -0.08467106, 0.15987347, 0.034395285, 0.10563973, -0.0025807705, 0.07024648, -0.033391554, -0.018683448, -0.022507332, -0.09227114, -0.14983441, 0.12894942, 0.01985237, 0.029517572, -0.062372424, -0.011792544, -0.04799665, -0.031245226, -0.062401045, -0.10527379, 0.057581548, 0.006869213, 0.117166065, -0.08070823, -0.12590863, 0.012871957, 0.05060543, -0.032908376},
{0.07749159, 0.050351124, 0.13109611, -0.054409124, -0.07399922, -0.060156915, 0.06966465, 0.051775806, 0.12382408, 0.020120764, 0.13940407, -0.06558203, -0.016772227, 0.07129526, -0.07787616, -0.118382975, 0.03519274, 0.11445774, 4.3149576e-06, -0.16851006, 0.039574366, 0.113840275, 0.07397055, -0.07235333, -0.04923186, 0.10372416, -0.06830617, 0.05455426, 0.058972202, -0.045419246, -0.03704875, 0.10408832, 0.097252764, 0.065431006, -0.09345451, -0.01334181, 0.0050620334, -0.031457912, -0.088024125, 0.111927055, -0.008882781, -0.016029682, 0.011652993, -0.025140276, 0.13308002, 0.0073218253, 0.05711759, -0.03508492, 0.07345016, -0.01615594, -0.14316075, -0.0355648, -0.090168044, -0.0073461332, 0.048693586, 0.16949202, -0.060049403, 0.07800397, 0.04800116, -0.009053596, 0.08338742, -0.09560759, 0.024625175, -0.09572923},
{0.03914172, 0.04995659, 0.07075319, 0.021025913, -0.059252765, 0.056800943, -0.0018009804, -0.021977173, -0.11234779, -0.069057874, -0.022831572, 0.0032324232, 0.059938088, 0.093573585, -0.13805117, 0.051595964, 0.09105457, -0.099277094, 0.059796643, 0.044904236, 0.03223885, 0.04125435, -0.015034122, -0.04526681, -0.01471326, 0.018967424, 0.05273731, -0.06606801, 0.112791225, -0.022019688, -0.017051443, -0.012781251, 0.01897086, 0.0368974, 0.10766333, -0.11480615, -0.0769452, 0.10755589, -0.037192527, -0.01821162, 0.06265256, 0.058100488, -0.005522657, -0.030360324, 0.064136066, -0.117719, -0.09530628, -0.011205791, -0.09708675, -0.010896154, -0.057273995, -0.07755428, -0.043061364, 0.14031051, -0.07343088, 0.118645914, 0.028170703, 0.038450852, -0.11811201, 0.07346701, 0.12087131, -0.09346791, 0.079729326, 0.04741395},
{0.04481155, -0.07288702, -0.008317426, -0.037613377, 0.105166234, -0.03433626, 0.0282971, -0.07072441, -0.040908236, 0.046014335, 0.039020076, 0.11900415, -0.036799446, 0.053464998, 0.059014823, -0.014534537, -0.079053596, 0.09553785, 0.0040086946, -0.09573919, 0.07343142, 0.106891446, -0.12314007, -0.08486567, 0.0037013895, -0.054572005, 0.08204824, -0.035436857, -0.026184171, 0.07919923, 0.08720722, 0.02984535, 0.114150204, 0.06444066, 0.039411373, 0.017500104, -0.07621261, 0.011645725, -0.00019531231, 0.04101973, -0.16931124, 0.037312187, -0.008681894, 0.030051872, -0.04405788, 0.114467636, -0.09250775, -0.019094992, 0.08459638, 0.056377143, -0.008539416, -0.14849058, 0.08013076, -0.047360793, -0.14443196, -0.12358988, -0.06764184, 0.06901232, -0.14724754, -0.01197957, -0.025213411, 0.1449048, -0.004389013, -0.10629964},
{-0.11095098, 0.07711916, -0.03764914, -0.121756695, -0.02364371, -0.04886691, -0.055590965, 0.10365173, -0.01237446, -0.044454746, 0.14216523, -0.077902496, -0.04386183, 0.13958047, 0.10897169, -0.16440645, -0.10080967, 0.08304721, -0.1088436, -0.0032673324, 0.015927965, 0.03675199, -0.08694138, -0.061751734, 0.0039672297, 0.06199681, 0.019503733, -0.17402479, -0.1345725, -0.09017541, 0.097645566, 0.02243189, 0.074893184, 0.16284744, 0.11989469, 0.02961928, 0.002224843, 0.031067748, 0.08315816, -0.017204663, -0.15638155, -0.12001374, 0.1504614, 0.039365694, -0.01349448, -0.035746712, -0.1143229, 0.011771162, -0.09299845, 0.012637406, -0.051315673, 0.038015425, -0.08379935, -0.032257717, 0.015627861, 0.11225692, 0.014790138, 0.013024486, -0.03502164, -0.1117305, -0.084489375, 0.07011953, 0.1141653, -0.11492613},
{0.045847584, -0.013517126, 0.04138028, 0.11776379, 0.00055691745, -0.03219894, 0.055930655, 0.06811872, -0.034300715, 0.03815561, 0.04364214, 0.0066646445, 0.05560585, -0.13597792, 0.03169005, 0.06937594, -0.0063996646, 0.10357601, 0.008280594, 0.070361316, -0.05147434, 0.0879878, 0.05100191, 0.030388242, 0.0063143894, 0.0032628071, 0.06315768, -0.0023627842, -0.08031151, 0.092810065, 0.0313732, -0.027020194, 0.012542583, 0.02737795, -0.14512667, 0.06766629, 0.11336349, 0.015709119, 0.048494413, 0.081309244, -0.08885048, 0.09349546, 0.017675173, -0.043915056, -0.08037023, -0.20006067, -0.01157683, -0.04146747, 0.093116656, 0.08669775, -0.09333208, -0.13180788, 0.023358345, 0.035662644, -0.040704504, 0.06883864, -0.062281214, 0.053631976, 0.117239445, -0.04871042, 0.07610647, 0.0037023006, -0.06935932, 0.022496507},
{0.12963842, -0.03433055, -0.0019553052, -0.08510447, -0.09896098, 0.09589287, 0.09873657, 0.013245957, 0.032537546, 0.10678087, -0.07611305, -0.013802362, 0.00048123245, 0.09883514, -0.102692835, -0.056731712, 0.057630636, 0.00051080895, 0.10214485, 0.01585212, 0.14871845, 0.1353889, -0.15050787, -0.00851387, 0.102658965, -0.12124376, -0.009677924, 0.030898297, -0.120126925, 0.07840102, 0.041807882, -0.027948383, 0.10251428, 0.00038125992, 0.06386808, 0.022237273, 0.037803814, 0.050746832, 0.06485238, -0.02570853, -0.05962279, 0.064037904, -0.011264811, 0.00452628, 0.035665676, -0.12738107, 0.101082094, 0.061981484, 0.018986696, 0.10539002, -0.1640249, 0.11904603, 0.1299321, 0.016240012, 0.123304114, -0.03217925, 0.10579084, 0.053061962, 0.07895322, -0.08097478, 0.066074595, 0.07885254, 0.06740858, 0.041668307},
{-0.071727745, 0.0058139125, 0.032421317, -0.013041435, 0.009359225, -0.06297066, -0.039263323, -0.053296063, 0.109627336, 0.042891044, 0.057106383, 0.12220166, 0.11119151, 0.07718194, -0.047426946, -0.015931955, -0.012068183, 0.044969864, -0.041089784, -0.14153773, -0.04383459, -0.010916259, -0.10942777, 0.079228476, -0.03407391, 0.07444961, -0.147029, 0.025788477, 0.021402797, -0.0047112275, -0.014887892, -0.020791892, 0.10670192, -0.048661094, 0.0012136883, -0.02760346, 0.051648047, -0.008630035, 0.08990939, 0.13831493, 0.019477535, -0.11896144, 0.10324627, 0.11660847, -0.038035356, -0.06265009, -0.02340731, -0.006263584, -0.0037502425, -0.01603871, -0.1561379, -0.123966426, 0.043004774, 0.07982882, -0.04174808, -0.0034198475, -0.018536823, -0.050357856, 0.19678003, 0.13101456, 0.013734347, 0.05977082, -0.07564075, 0.034618475},
{0.039743133, 0.06379427, 0.04261212, -0.0716802, -0.023993796, 0.12933254, -0.037889462, 0.050350904, -0.1101184, 0.01618089, 0.09624564, -0.06728958, 0.103179015, 0.00081639533, 0.015815683, -0.0155771235, -0.0844355, -0.076858975, -0.003012926, 0.14102843, 0.063064605, -0.12579474, -0.096512, -0.09286231, 0.048001964, -0.098431505, 0.14178497, 0.014407796, 0.074130625, 0.06498652, -0.09817459, -0.12426051, 0.103208825, 0.10326655, -0.07733118, 0.10699805, 0.047770746, 0.14542808, -0.08811205, 0.030553618, -0.09567051, -0.08418114, -0.08351799, 0.041697696, -0.011632823, -0.131606, -0.13309677, -0.10518318, -0.06533847, -0.082357585, 0.0458997, -0.04026736, 0.08172804, -0.103465356, -0.15241295, -0.04778769, -0.08542449, 0.06717169, 0.095082775, 0.12334853, -0.0011451694, -0.024538292, -0.08225666, 0.0841355},
{-0.05361933, 0.1255008, -0.13039227, 0.02024411, 0.098531805, 0.044048864, -0.07699454, -0.15181355, 0.05371372, -0.09445502, -0.11110557, -0.040978517, 0.0778758, -0.05303145, 0.0331868, 0.09304646, 0.12740538, -0.102980115, 0.068355896, -0.09521564, -0.015609712, 0.116657, -0.07759547, -0.03815662, -0.0015546657, 0.09262278, 0.055437025, 0.066314965, -0.05310042, 0.067922, 0.05897736, -0.028097875, 0.1201576, 0.0549217, 0.013407259, 0.12847452, 0.0051401905, 0.17636865, -0.051371012, 0.017358305, -0.088022046, -0.12324811, 0.014512219, 0.03416307, -0.08563367, -0.070569344, -0.088413745, -0.088012956, 0.0385686, 0.057270523, 0.098812506, 0.021969082, -0.15392716, -0.024735628, -0.08805815, 0.013634002, -0.054730754, -0.03203383, 0.0363824, 0.16005912, -0.06699262, 0.039343048, -0.041104745, -0.07239877},
{-0.09853764, -0.083746575, 0.10620419, 0.08222722, 0.009354221, -0.13873076, -0.1386049, 0.11650668, -0.026209636, 0.115968324, -0.011767732, 0.02998592, 0.04124829, 0.108719796, 0.026967919, -0.0775614, 0.03535994, -0.0052765757, -0.018258914, 0.05036634, 0.15120931, 0.09923269, -0.06604419, -0.04386814, 0.041323356, -0.17956075, 0.1234405, -0.080743946, -0.11411074, -0.003906922, -0.018100945, 0.007416821, 0.0061769835, 0.00025852708, 0.08846494, -0.036672, 0.024313197, 0.043674413, 0.08258206, -0.019654859, -0.1573046, -0.1473911, 0.067630984, 0.12330135, -0.04787343, -0.02041703, 0.035231095, -0.08471801, -0.008569432, 0.09764352, -0.07229679, -0.001284869, 0.092060424, 0.04197355, -0.06625602, -0.052105818, -0.0767096, 0.061682247, 0.037641913, 0.087895915, -0.06769345, -0.024098597, 0.08541863, -0.08553916},
{0.0028616386, -0.029744023, 0.0035762563, 0.07854729, 0.04390528, -0.022304831, 0.0061975457, 0.093681775, -0.04454549, -0.10095811, 0.041916363, 0.05815707, -0.084208556, -0.079160295, 0.10380601, -0.035543453, -0.026347985, 0.07624377, -0.049907338, 0.02556288, -0.044130586, -0.12632406, 0.030726623, -0.08996231, -0.017501803, -0.119234934, -0.075405486, 0.10003156, 0.007066633, 0.09985007, -0.06409803, -0.042466544, -0.11886862, -0.14536785, -0.07162063, 0.036673594, 0.024909081, -0.041478787, 0.14120376, 0.15158477, -0.06738814, -0.050985977, 0.022823976, 0.114428125, -0.03472526, -0.1677757, -0.086951256, -0.054325823, -0.05743808, -0.024657283, 0.024281377, 0.053685952, -0.08840442, -0.052301813, -0.12019048, -0.12861092, 0.06924888, 0.09784917, 0.08549694, -0.016900815, 0.08973502, -0.09300736, 0.09059509, 0.10892766},
{0.12702626, -0.06923231, -0.045951515, -0.16204135, -0.066689655, 0.080182336, -0.11078455, 0.016008021, 0.15694998, -0.019905683, -0.058385737, 0.026859857, -0.058388684, -0.035504654, 0.05579362, -0.0015427055, -0.09511881, 0.08727025, -0.08936778, -0.08423736, 0.017333915, 0.00061142567, 0.05071249, 0.041389905, 0.009238052, -0.16180971, 0.05043282, 0.045995597, -0.11980816, 0.13445553, 0.0867711, -0.05319916, -0.060757466, -0.08406672, -0.004495457, 0.019687423, -0.038929928, 0.10303618, 0.14099309, 0.081912026, -0.030996943, -0.12283549, -0.031894088, -0.11710433, 0.046898894, -0.10098739, -0.039477013, -0.03961407, -0.057205804, -0.010729952, -0.12403895, 0.03988488, -0.077007286, 0.03959661, 0.029218595, 0.060625084, 0.088520296, 0.060630854, -0.030861618, 0.0983812, -0.08259915, 0.11691521, -0.056990415, -0.07735028},
{0.01766533, 0.0021573743, 0.10897002, -0.022766339, -0.09293448, 0.0813033, -0.08947208, 0.037513454, 0.114941254, -0.092573375, 0.110679485, 0.11377737, 0.03823834, 0.041582845, 0.013460482, 0.080858774, 0.06729515, 0.08007989, 0.096131906, -0.026565073, 0.025250347, -0.058092304, 0.08477708, -0.039466202, 0.09910911, -0.03027478, -0.022909937, -0.04577503, 0.03360866, 0.051732976, -0.08662443, 0.0971003, -0.07154551, 0.065402925, 0.06864574, 0.046590343, -0.021755246, 0.01671962, -0.04303218, 0.0018402297, -0.14613411, -0.022121778, -0.04013327, 0.022900544, -0.002382168, 0.0684106, 0.0021774278, -0.10978132, 0.15660231, -0.0028892609, -0.14060105, 0.081821755, 0.12489073, -0.11617815, -0.05174225, 0.0046119797, 0.035615105, -0.06743703, 0.09552288, 0.01088211, -0.100344725, 0.03455874, -0.07429302, 0.057210498},
{0.1050949, -0.047840424, 0.0012607176, 0.12934208, -0.09913185, 0.043024942, 0.026457287, -0.041453425, -0.0026831643, 0.056889787, 0.04284446, 0.029028479, 0.0028306472, -0.014764837, -0.12656617, 0.087791845, 0.09386784, 0.027761562, -0.14867397, 0.10693379, 0.07026843, 0.01967156, 0.0036725833, -0.054660145, 0.061471023, -0.018818332, 0.09299746, -0.1270568, -0.06588389, -0.09611858, -0.04209495, 0.055063505, 0.0073375, 0.09369634, 0.07651825, 0.008735609, -0.095625706, 0.044367023, -0.085125364, -0.056817982, 0.13571599, -0.02645864, 0.062563896, 0.091883235, 0.019758612, 0.025267428, -0.058076397, -0.031328354, 0.079497054, 0.004151013, 0.09939014, 0.077966, -0.04777226, 0.05405752, -0.035748314, 0.015271014, 0.12325037, 0.10097521, 0.0746943, -0.07920583, 0.0074814903, -0.019114325, -0.027491301, -0.053996313},
{0.11184002, 0.07160646, 0.060523815, 0.07159601, 0.10201191, 0.045720283, -0.037534647, 0.04083364, -0.0063823885, 0.057119064, -0.031185435, -0.08426996, 0.09072504, -0.089719824, -0.12997139, 0.047019895, 0.056883946, -0.07026285, -0.06867069, -0.12626463, 0.027726801, 0.120677665, -0.010207819, -0.0143120615, -0.059810344, 0.06751896, 0.09561506, -0.05015, 0.04760545, -0.037945025, 0.05204052, -0.11604528, -0.0025415071, -0.13940103, 0.13288929, -0.08755459, 0.00040884223, -0.07157728, 0.034699325, 0.066943124, 0.05191086, -0.13068388, -0.04778326, -0.050913777, -0.002413665, 0.055137094, -0.01287569, 0.022234125, -0.08328537, 0.038800027, 0.07764064, -0.042437084, 0.04259992, 0.026884021, -0.0046796827, -0.018667074, -0.08039906, 0.08866743, 0.047614224, 0.13095404, -0.07416351, -0.021678874, 0.1582631, 0.095649734},
{-0.16009061, -0.1301219, 0.06906549, -0.004167429, -0.104772076, -0.13056871, 0.0651117, -0.087079905, 0.09354737, -0.10017769, 0.16504952, -0.056466375, -0.08492273, -0.10618565, 0.09876928, 0.062777035, 0.00986859, -0.017474582, -0.11007517, 0.04559529, 0.06964429, 0.09097081, 0.09287883, -0.14852771, 0.01584956, 0.045210436, 0.015549181, 0.07668971, -0.07311341, 0.11513301, -0.057906993, -0.017411163, 0.063326366, 0.15617158, 0.11002606, -0.029428285, 0.05358665, -0.007988901, -0.09063913, 0.108591676, -0.15363494, 0.08645855, -0.0816937, -0.0030940694, -0.053543273, -0.078362145, -0.08360882, -0.004940021, -0.07488691, 0.07274235, -0.14081182, -0.05706055, 0.005835334, -0.031599957, -0.0007578423, 0.072299786, -0.07478294, 0.1460484, -0.14194012, -0.026301757, -0.05906262, 0.0879899, 0.18119225, -0.025073014},
{-0.09197401, -0.08742213, -0.050687663, 0.08415195, 0.039113175, 0.08027334, 0.054486115, 0.026768774, 0.10915055, -0.11266712, -0.0010786706, -0.04672975, -0.13805667, 0.011352865, -0.018295784, -0.059268013, -0.024285717, 0.0973289, -0.0552057, -0.03324813, -0.04625548, 0.010837657, -0.08837348, -0.014707436, 0.039108474, 0.046337508, 0.046131544, 0.028881773, 0.06501334, -0.0005261433, -0.06324305, 0.06304721, -0.014982513, -0.05802296, -0.040517215, -0.110599115, 0.059846766, 0.17005332, 0.0032247517, 0.09127113, 0.116641566, 0.042895608, -0.121389784, -0.011615979, 0.09652645, -0.095875226, 0.064558126, -0.16029137, -0.018415937, -0.16683862, 0.089534454, 0.037102435, 0.03773007, -0.048486903, 0.0430226, 0.05577062, -0.064123765, 0.013475347, 0.1220958, -0.09715595, 0.065574676, 0.0841052, 0.10793554, 0.05189541},
{-0.05357504, -0.14667319, -0.06003093, -0.028565787, 0.020081433, -0.123434804, 0.0903875, -0.089351766, 0.13119508, -0.09807958, -0.108796485, 0.04138464, -0.06281059, -0.0020915682, -0.14513496, -0.02960241, 0.14662096, 0.0036356428, -0.055530157, -0.0030681943, -0.07039242, -0.045073032, 0.11827483, -0.055405185, 0.092571914, -0.09440158, -0.08559126, 0.11728318, -0.030518457, -0.061668586, 0.033004355, -0.15281838, 0.15121377, 0.07589957, -0.104874805, -0.02555377, -0.054194093, 0.15310988, 0.012303067, 0.12904797, 0.020352893, 0.043737944, 0.013690885, 0.12443104, -0.032687683, 0.00038766355, 0.028803378, -0.05974176, -0.06249641, 0.06787978, -0.10039707, 0.053089224, -0.013345539, 0.1675913, -0.11385663, -0.07641852, -0.02990073, -0.020733217, -0.04018775, -0.03142823, 0.057952974, 0.0397248, 0.03876173, 0.14407723},
{-0.07435476, -0.10550461, 0.034559786, 0.02329851, 0.1097221, -0.071897596, 0.08732384, -0.08080726, -0.021551121, -0.0018938932, -0.011595506, -0.04758657, 0.007855666, -0.041365806, 0.09837958, -0.053212367, 0.0031177278, 0.0787169, 0.115888156, -0.03279209, -0.10752714, -0.04461561, 0.0360809, -0.09305452, -0.06369759, 0.047480732, -0.06460143, -0.022886712, -0.017293675, -0.13007301, 0.108984366, 0.08460422, -0.078035265, 0.025709907, -0.029084252, -0.0014129039, -0.030791234, -0.03776139, 0.01954253, -0.011820521, -0.06944743, -0.118927635, -0.09422307, 0.05138878, -0.07695178, 0.0047870185, -0.15532972, -0.065750994, -0.059002236, -0.10647184, -0.09679556, -0.040190544, -0.08814252, 0.059890755, -0.01551954, 0.012367295, -0.19246109, -0.1137721, 0.021875208, -0.057649825, -0.054650296, 0.03548384, 0.02823469, 0.10194752},
{0.058512677, 0.071096115, 0.0020592355, -0.09919476, -0.1234797, -0.085627824, 0.015214091, 0.026813366, 0.039052114, -0.02037502, -0.015610284, -0.053606067, 0.082318254, -0.12572414, -0.0072654192, -0.13375984, -0.12451303, 0.11207606, -0.07117934, 0.019008968, -0.058784653, 0.019334441, 0.03819579, 0.017656637, 0.032539144, 0.009585458, -0.09902942, -0.06344957, 0.09715464, -0.0027751278, -0.12136252, -0.024879957, -0.056247037, 0.10492766, -0.095268644, 0.10154774, -0.08033544, 0.05759161, -0.044927534, 0.046515718, 0.03148447, -0.033989303, -0.050367687, -0.04357965, 0.047757316, 0.055786647, -0.111818485, -0.126547, 0.09045322, 0.10639898, -0.1031628, 0.046489194, 0.11136481, 0.107063115, -0.032498606, 0.16345988, -0.09473021, 0.022446245, 0.07871883, -0.09920924, 0.0627345, -0.06886951, 0.11084295, 0.033120293},
{-0.00027853216, 0.010536843, -0.009087621, 0.13617228, 0.07776332, 0.15769537, 0.08857588, -0.10139789, 0.1190782, -0.020798972, -0.044092003, -0.104667895, -0.05827182, -0.07240129, -0.063557304, 0.054210022, 0.0073814793, -0.028935386, 0.019176044, -0.117400415, 0.06674443, 0.040294405, 0.015372241, -0.04919555, -0.05233322, 0.09298198, -0.13957556, 0.08675464, 0.04740715, 0.15654211, -0.11103487, 0.088949576, 0.012062034, -0.05674064, 0.12483437, 0.018648481, -0.08575329, -0.05672437, -0.09897819, 0.13034436, -0.1533894, -0.0077910135, 0.09016311, 0.14201902, -0.079299994, -0.10131037, -0.004263641, -0.04682793, -0.06300966, 0.07077591, 0.056770988, -0.09657557, -0.00068384083, 0.07426315, -0.11374367, 0.012402615, -0.0072358106, 0.17383751, -0.08997681, -0.019945715, -0.03177668, -0.038444616, 0.07168893, 0.072217666},
{-0.084392644, -0.03990448, 0.060884137, 0.038085096, 0.090186894, -0.16204141, 0.024871528, -0.02681551, 0.082753204, -0.10215824, -0.053653438, -0.07331442, -0.052362684, -0.0053768065, 0.007903879, 0.025723781, -0.037124816, 0.16170111, -0.005717569, 0.055735834, -0.05742989, 0.04734945, 0.06407766, -0.06709065, -0.0055704312, -0.10582945, 0.090352304, -0.003913872, -0.1345966, 0.10268899, -0.06060299, -0.12602904, 0.023915226, -0.04258625, 0.007272615, -0.06291375, 0.08765418, 0.05853733, 0.06442736, -0.09898566, -0.034686964, 0.07861711, -0.051196065, -0.12890574, -0.028407004, -0.111126095, 0.04926122, -0.066442765, -0.039975815, -0.034655493, 0.05047351, 0.086849906, -0.017917566, 0.034529224, -0.13021286, 0.109674804, -0.037258305, 0.15365559, 0.061287295, 0.012996078, 0.10944469, -0.046820693, 0.009834594, 0.08280682},
{-0.1433139, -0.08066781, -0.054713905, 0.0136709465, 0.07563063, -0.10510231, -0.08033656, -0.07539392, 0.08371334, 0.069521956, -0.01463595, 0.06768005, -0.05799775, -0.08105128, -0.047301687, -0.14667794, 0.11544353, 0.13605377, -0.04824948, -0.0674917, -0.024090413, 0.009163669, 0.054912362, 0.099095166, 0.105714045, 0.117192276, 0.02675331, -0.09622158, 0.020582752, -0.1050432, -0.061568987, 0.00695106, 0.016427752, -0.13414814, -0.090646766, -0.0031236887, -0.14937817, 0.008211, 0.11670815, 0.041555382, -0.053407107, 0.092412494, -0.08650767, 0.06437334, -0.05770661, -0.040777363, -0.07163652, -0.12357528, -0.041143153, -0.06389274, 0.049158312, 0.061701853, -0.0053564594, 0.044272676, 0.038865056, -0.020447174, -0.008698955, 0.0042103296, -0.06118548, 0.031928964, 0.046288367, 0.07514136, -0.00035234538, -0.051153332},
{0.009163696, -0.103875674, 0.10676675, -0.118823044, 0.13588464, 0.039863646, -0.10682087, -0.028523179, 0.054119397, -0.068945885, -0.105038926, -0.12726215, -0.11168854, 0.10392274, -0.07003277, -0.07615052, -0.107788354, 0.0905077, 0.018093575, 0.043434788, 0.08745371, 0.07136586, -0.07674524, -0.0048588873, 0.048276786, -0.06750606, -0.07984705, 0.057300005, -0.022922175, -0.12547427, -0.043898664, -0.15144356, -0.09780639, -0.07163925, -0.03016226, -0.08324929, 0.09277467, 0.12008187, 0.152408, -0.022628782, 0.03312959, 0.11111433, -0.098183826, 0.037489615, -0.027726093, -7.4172574e-05, -0.029149877, 0.107458584, 0.056080736, -0.106715955, -0.12984295, 0.035131674, -0.018633975, 0.15127051, 0.026985971, -0.123045996, 0.11534816, 0.0041269385, -0.11812847, -0.07559411, -0.084917314, 0.02017087, 0.081595026, 0.0521112},
{0.016985515, 0.06467099, 0.058484845, 0.0013765449, 0.024806663, 0.04213989, -0.011519947, -0.0646726, 0.12697192, -0.004542073, -0.08153054, -0.06954987, 0.16489515, -0.08524417, 0.11503152, 0.055277806, -0.013844379, 0.08331137, 0.0031622201, 0.050265428, -0.0019325321, -0.105571166, -0.0028083404, -0.14823617, -0.030454367, 0.11183961, -0.09493565, 0.13032076, -0.09524736, -0.028524777, -0.07852226, 0.04583769, -0.12421504, -0.007532453, -0.00313729, 0.1006601, -0.052010264, 0.0058383173, -0.0894556, 0.14766821, 0.021903265, -0.021635622, 0.058921013, 0.0051744534, 0.13752908, 0.043329366, -0.112594455, -0.095759064, -0.04526053, -0.108829305, -0.13893671, 0.020234821, 0.101864524, -0.05109068, -0.062060013, 0.03121836, 0.01254346, 0.09404374, 0.06585929, 0.044302225, -0.06528768, -0.054881964, 0.14625716, 0.07601499},
{-0.043250438, 0.056398258, 0.0639342, 0.015702661, -0.092976145, -0.08611832, -0.06463432, -0.048981015, -0.003108105, -0.0013432227, 0.12034888, -0.05877309, 0.06403663, 0.072796166, -0.06647797, -0.1086116, 0.0061051943, -0.08863111, 0.08154382, 0.022373518, -0.040030275, -0.0038729555, 0.027648088, -0.037888538, 0.004109737, 0.017620826, 0.05283174, 0.00980699, -0.04189021, 0.051950388, 0.019659435, 0.06393622, -0.13472454, 0.13079402, -0.05538347, 0.071953066, 0.118503846, -0.035887375, 0.045456614, 0.072671905, -0.0851404, 0.00679358, -0.09294395, 0.0029434501, -0.103265904, -0.08580712, 0.14425428, -0.029090682, -0.12987873, -0.08222554, 0.019798698, 0.0029005802, 0.032552183, -0.08082305, -0.047016885, -0.058204062, 0.074917, 0.10392808, -0.1292976, -0.006387202, -0.10784479, -0.05257438, -0.047451045, -0.09862219},
{-0.098527595, -0.007620696, 0.04236653, -0.0947223, -0.04495613, 0.072372496, -0.0015213705, 0.08753791, 0.025624298, -0.14194512, -0.056861207, -0.12149201, -0.079742074, -0.073116176, -0.1225002, -0.0965413, 0.08597142, 0.019794013, -0.08518855, 0.008841052, 0.06669884, 0.19029723, -0.111917384, -0.105772786, -0.09835666, -0.03239447, 0.08155537, 0.11787594, -0.020291438, 0.016505245, 0.0001188488, 0.041951567, -0.03762559, 0.10002892, 0.10533604, 0.03213611, -0.039969977, 0.1266183, -0.018433252, 0.10796451, -0.14518495, -0.1393653, 0.015428395, 0.04482803, 0.10751571, -0.033194527, -0.021708073, -0.11209249, -0.07861348, -0.11095758, -0.09413601, -0.08453328, 0.086622775, 0.018421572, -0.11261573, 0.030484322, -0.019904643, -0.040073626, 0.045716897, 0.17358916, -0.052189074, -0.0869567, 0.11900865, -0.02690256},
{-0.024663353, -0.10516786, -0.068948075, -0.13934909, -0.022417814, -0.122273736, -0.0153062595, -0.04860086, 0.016098548, 0.03624455, 0.085482776, 0.04644056, -0.12924407, -0.06529362, 0.04572025, -0.13782229, 0.085992336, -0.065579645, -0.08422283, 0.123838164, 0.1465173, -0.058996547, -0.05590038, 0.11369743, 0.08493395, -0.11323862, 0.17628108, 0.05620923, 0.032627266, 0.05490465, 0.0427505, -0.075709544, -0.07541045, 0.020333327, -0.041842196, -0.020929694, -0.080548026, 0.004770052, 0.07906394, 0.12654565, 0.052300546, 0.030521516, 0.124861665, -0.091837525, -0.043031074, -0.056860395, 0.063143335, 0.09312058, -0.07203393, -0.039958045, -0.011478655, 0.11013147, 0.024952348, 0.13954408, 0.053418044, 0.02135256, 0.07357945, -0.07324771, 0.025747465, -0.039173473, -0.03003993, 0.13993362, -0.05390089, -0.0686191},
{0.052212086, -0.057519738, 0.13702321, 0.062295496, -0.09381121, -0.14230254, -0.12126705, -0.1263231, -0.015599873, 0.10361786, 0.011285727, -0.1260593, 0.07386291, -0.0775582, 0.035317786, 0.0054671555, -0.03204285, 0.13115121, -0.038079333, 0.109017186, 0.04999795, -0.0021730964, 0.016099785, 0.059692707, -0.075268395, 0.010538201, -0.12588339, 0.09506469, 0.060659476, -0.07104902, 0.03899353, -0.06799134, -0.04452891, 0.058869805, 0.08067911, 0.00078114745, -0.025165735, 0.1444418, -0.089081876, -0.071754985, 0.05347843, -0.06122298, 0.041319054, -0.10010316, -0.037505805, 0.012488803, 0.041873563, -0.041610986, 0.06533673, 0.10751114, -0.011086387, 0.073242314, 0.08122653, -0.027876949, -0.020836411, -0.06179696, 0.053397674, 0.11817084, -0.03352306, -0.120018564, 0.048837952, -0.07086065, -0.13154931, 0.023244908},
{0.040337473, -0.0769073, 0.113337725, -0.113752715, -0.016079364, -0.03896763, -0.0374929, -0.0826234, -0.1135983, 0.07381138, -0.023354398, -0.04967567, 0.10011526, 0.13730714, -0.09508517, 0.027196832, 0.018120335, -0.09101233, -0.14203788, 0.06255405, 0.0638493, -0.10764348, -0.11793609, -0.054432582, 0.064455986, 0.011255214, -0.071344934, -0.009905924, 0.15360856, -0.05794345, 0.024428776, -0.11346855, 0.033718012, -0.07641303, -0.021949254, 0.052889828, 0.11543262, 0.13420296, 0.11748967, 0.04112421, 0.05722677, -0.050708633, -0.015619662, -0.040165223, 0.021312514, 0.019902261, -0.012463405, -0.0653407, -0.047491282, 0.10880262, 0.109742455, -0.04185802, -0.02871332, -0.031595077, -0.11614483, 0.024385035, -0.10552205, -0.025241265, 0.124721095, -0.070734516, 0.087993145, -0.10020369, 0.060294982, 0.0048383},
{-0.043692436, -0.06345794, -0.044144936, -0.01720446, -0.13099684, 0.00011185174, -0.09266037, -0.10285205, 0.041292768, -0.09189359, -0.123128615, 0.05709116, 0.05731795, -0.02721607, 0.07828776, -0.08762634, 0.08112734, -0.022165094, -0.016938118, -0.0968275, 0.05865559, -0.05800124, -0.020639565, -0.10268394, 0.0135929, -0.042531285, -0.06290223, -0.07067001, -0.110133626, 0.030497164, 0.03139112, -0.04224666, -0.018883023, 0.05812003, 0.029254517, 0.114709355, 0.06569803, -0.1524865, -0.038212527, 0.06801229, -0.03054488, -0.07430276, 0.039365113, 0.07816842, 0.014310449, -0.0060700323, -0.08094573, 0.10271474, -0.05039832, -0.08359494, -0.09439521, 0.0032934435, -0.10240011, 0.10955265, -0.025969725, 0.11959842, 0.04023809, 0.094429076, 0.09469138, 0.17631845, 0.007103795, -0.030310266, 0.0010062479, -0.09059764},
{-0.13674219, 0.029436352, 0.14195533, -0.05608193, 0.06020485, 0.081301056, 0.09142305, 0.09839804, -0.07230716, 0.107740305, 0.103108846, -0.059480123, -0.022611609, -0.05720018, 0.059876975, -0.027703535, 0.09451018, 0.01360647, -0.0059466395, 0.037146065, 0.02670557, -0.06494433, -0.033360355, -0.08112584, -0.0083255395, -0.030116586, -0.006636042, -0.009986255, 0.05795483, -0.034389418, 0.007317831, 0.024971915, -0.06370565, 0.17358762, 0.050537832, -0.09276638, -0.08263488, -0.041392583, 0.06838582, -0.049128428, 0.08096418, 0.013308358, 0.049595416, 0.07876209, 0.033923507, 0.05835061, -0.05882573, -0.033964816, -0.12842484, -0.10021789, -6.052653e-05, -0.082682654, -0.09991633, 0.037353102, -0.12368538, 0.055372875, 0.10883584, -0.006068681, 0.038909525, -0.056617275, 0.03218771, 0.036469273, 0.11136398, -0.11383686},
{-0.10615418, -0.04623096, -0.067120045, -0.013940311, -0.03453938, -0.069903664, -0.08091011, -0.10874339, 0.12571183, -0.020066064, -0.114032425, 0.0026842551, 0.13005604, 0.14344911, 0.005266285, 0.020989597, 0.124556184, -0.06366695, -0.19451892, -0.0438198, -0.0047978526, 0.02292629, -0.025124593, 0.0031373505, 0.08372623, 0.00928208, -0.10855818, -0.04765086, -0.07593893, -0.024384823, -0.08592504, 0.1031415, 0.012471233, -0.06449304, 0.1558356, -0.0006645497, -0.027251087, 0.081320114, -0.0036832823, 0.09191193, 0.07120601, -0.112229995, -0.075809136, 0.14723732, -0.102144696, -0.026504217, -0.13126929, -0.14166366, 0.046106543, -0.051075567, 0.09636853, 0.09842721, 0.07641829, -0.008934005, 0.046102375, 0.05255031, 0.02066689, 0.12988247, -0.108309455, 0.064631626, 0.06108715, -0.0753219, -0.11371503, 0.061364297},
{0.032776132, 0.07375275, -0.049579516, 0.0061214687, 0.050441306, 0.082003005, -0.01938041, -0.056436934, -0.114083104, -0.01341456, 0.12705426, -0.04227001, -0.02516288, -0.06970822, 0.042640574, -0.08276202, 0.060484186, -0.00695818, 0.0889328, -0.07843016, -0.042208478, 0.089588344, -0.0695116, 0.112895325, 0.09850378, -0.04746126, 0.14162749, -0.08069724, -0.09398113, -0.07994603, -0.0052743563, 0.0012121893, 0.13137697, -0.04357631, 0.061818667, 0.06229987, 0.07352685, 0.1006636, 0.04578203, 0.07041196, -0.16411355, 0.092516586, 0.054293558, -0.11413044, 0.09825272, 0.10085907, 0.030612001, -0.063342005, -0.03753097, -0.10189671, -0.1483235, -0.13325292, -0.055068024, 0.10520593, -0.09521455, -0.056030825, -0.03232437, 0.12053965, -0.10507019, -0.12538417, 0.13858055, 0.0042682425, 0.11490917, -0.04519599},
{-0.1740262, 0.08355244, 0.044013835, 0.063794516, 0.075974554, 0.016554201, 0.06355238, -0.062116295, -0.010760828, -0.00687633, 0.042261362, -0.13388065, 0.075719126, 0.05341475, -0.006418443, -0.13521965, 0.079031415, -0.007223494, 0.07106175, -0.036963344, 0.111579545, 0.08165974, 0.0627988, 0.09887769, -0.078160584, -0.053415734, -0.04236332, 0.11858185, -0.040464845, 0.056503743, 0.13737364, -0.11391165, -0.17426422, -0.058567423, -0.012557269, 0.06526727, -0.059913862, 0.12775531, 0.13653761, 0.054841448, 0.05955281, -0.052115228, -0.069272116, 0.04568884, -0.05662555, 0.12059455, -0.077958755, 0.08112276, -0.027563773, 0.07450539, -0.10152026, 0.09582015, -0.04353876, -0.10646289, 0.14052047, -0.08758083, -0.043213878, -0.039994493, -0.020917673, -0.06552397, -0.051853336, -0.062555894, 0.053461384, -0.099459395},
{-0.08621818, -0.054181956, 0.13440722, -0.02311781, -0.036375035, -0.1045933, -0.055008452, 0.1306758, -0.149071, 0.14213148, -0.04096095, -0.11286402, -0.09935696, 0.06855953, 0.008047027, 0.015702376, -0.019531885, -0.01641261, -0.1558487, 0.17632766, -0.088312104, -0.09250246, 0.031200472, -0.0009643049, 0.04768128, -0.12420735, 0.12863661, 0.10803325, -0.00092621293, -0.00955886, -0.034615837, -0.13462223, 0.013430377, 0.11438734, -0.076743014, -0.02690375, 0.07701173, 0.16127916, 0.12820365, 0.122537576, 0.06848934, 0.09935759, 0.011846531, -0.008775207, -0.098163866, -0.1629996, 0.05172999, -0.04797479, -0.06766588, 0.038045052, 0.065154366, 0.033049002, 0.065043755, 0.07938695, 0.0989396, 0.11094383, 0.108558856, 0.039816394, 0.06121075, 0.052589163, -0.13718373, 0.014985436, 0.0076284646, 0.06131335},
{-0.053336978, 0.03309313, -0.018319255, 0.023077842, -0.11194103, 0.036391523, 0.11884865, 0.03191246, 0.05291493, 0.08422058, -0.052835595, -0.09043133, 0.1622722, 0.008060399, -0.0073384885, -0.08847947, 0.097923405, -0.01991629, 0.0643528, -0.054258622, -0.11944044, -0.0697807, 0.02527503, 0.08625212, 0.07910388, -0.008389476, -0.059282783, 0.08375627, -0.09214146, 0.06648186, 0.0070068357, -0.08884869, 0.092025414, -0.012607378, -0.017302262, -0.05147569, 0.022947187, -0.03505067, 0.120697215, -0.0077657555, -0.016926792, -0.11064956, -0.038442545, 0.00039909236, -0.06917306, -0.040578358, -0.050636623, 0.023022702, 0.10788195, 0.081270196, -0.13208991, -0.041939106, -0.020517599, 0.117866434, 0.07246161, 0.06326823, -0.09269643, -0.10068887, 0.13288662, 0.046360474, 0.00519855, 0.109477326, 0.015052828, -0.0016481975},
{-0.03664534, 0.03800051, 0.007257346, -0.06291808, -0.12121186, -0.06367207, -0.057012442, -0.11150069, -0.030899653, -0.050227467, -0.06403375, -0.010430186, -0.12196281, 0.098172255, 0.042416357, -0.036891736, -0.039253127, -0.0046838326, 0.0062078373, 0.092707, 0.11826429, -0.1116836, -0.024521708, 0.046398032, 0.101916134, 0.11534963, -0.031752534, -0.11341572, 0.07405213, -0.11657843, -0.018476982, 0.073072866, -0.040865134, 0.02618832, -0.016342277, -0.09754914, 0.02500849, 0.09114011, -0.0768919, 0.006565503, 0.05886144, -0.08438122, -0.006485002, 0.018942814, -0.16863072, 0.027206864, 0.05040582, 0.07143764, -0.094486594, -0.06622009, 0.04234221, -0.006400652, 0.07163768, -0.0024605126, -0.10908834, -0.06057804, 0.075923406, 0.018024951, -0.09617067, -0.10618737, 0.07278367, 0.054059856, 0.10491629, -0.0033011804},
{0.08843292, 0.094012536, 0.10323394, 0.0026484143, 0.07059204, -0.03623951, -0.11631025, 0.0840867, 0.011824632, 0.014152208, -0.070548356, -0.004579738, -0.091628045, 0.0056765773, 0.07068471, -0.09674069, -0.09260156, 0.010676218, -0.025260162, 0.07785702, 0.019030876, 0.15126798, -0.0756186, 0.0442821, 0.10392821, 0.0965655, 0.059058823, -0.036414303, 0.053683285, 0.1601414, -0.13808307, -0.06269349, 0.012150124, -0.08519785, -0.0370391, 0.019261172, -0.021549061, 0.04343449, -0.1067825, -0.071955144, -0.12454374, -0.10292743, -0.043284055, -0.032750625, -0.09718395, 0.021891147, 0.09626912, -0.012954897, 0.05161125, -0.13200088, 0.1049015, 0.049660705, 0.03191472, -0.07957345, -0.11582065, -0.043676063, -0.0393925, 0.053460144, -0.11728711, 0.1040475, -0.15886714, 0.02024232, -0.13382131, 0.034856837},
{0.024092609, 0.0005486212, -0.14548138, -0.005160877, -0.05834887, 0.022579044, 0.079971, -0.036704607, 0.009990173, -0.11596375, 0.116744466, -0.10212684, 0.011840814, -0.028111685, 0.042635113, -0.1995192, 0.040466126, 0.08981867, 0.060665138, -0.05967344, -0.034567982, 0.03187374, 0.019100634, -0.0120073715, -0.06505907, 0.026924005, 0.0023601372, 0.0054173986, -0.14907855, 0.14049552, 0.01477779, -0.06957536, -0.02958202, 0.09952823, 0.037261277, 0.04509513, -0.05240944, 0.101368725, -0.024775608, -0.11908041, -0.02143199, -0.11448161, -0.02276658, -0.062475182, 0.040521063, -0.03831276, 0.00032791425, 0.0787481, -0.0013906151, 0.07921704, -0.1180242, 0.0792096, -0.062406007, 0.04764534, -0.11479825, -0.1132547, 0.09947056, 0.02392191, -0.042759914, 0.0029252577, -0.04531162, -0.014623852, 0.15232581, -0.08284032},
{0.030383402, -0.11169662, 0.13226952, 0.09745767, 0.12306217, -0.08870163, 0.00025736724, -0.14200497, 0.06750586, 0.05091897, -0.07897465, -0.057249285, -0.10885108, -0.11556973, 0.004127499, -0.041427467, -0.07059585, -0.032707382, -0.049176145, -0.049395267, -0.052959993, 0.10786582, -0.079459615, 0.087560885, -0.0567818, -0.10876695, 0.024036614, -0.012154542, -0.01077035, -0.040685493, 0.035151206, -0.09336145, -0.17584072, -0.05790889, -0.03830169, -0.088712744, 0.048470814, 0.14173864, -0.03873406, -0.03308628, 0.12045341, 0.031542588, -0.13590516, -0.017761445, 0.057824347, 0.11108967, 0.0065225856, -0.0876287, -0.002347599, -0.058646303, 0.089334615, 0.055337723, 0.12572713, -0.065405965, -0.052989274, 0.08008357, -0.047647722, 0.0064710565, -0.025595512, 0.026737576, 0.0045988047, -0.023856374, 0.04613402, -0.011564669},
{-0.036059607, -0.11366536, 0.10956564, 0.010219317, -0.05129756, 0.017262867, 0.03813017, -0.08073556, 0.03792428, -0.054252625, -0.048108127, -0.0795828, -0.0010229516, -0.0729247, 0.068773545, -0.105413996, -0.08246592, -0.084909536, -0.047045376, 0.099961184, -0.107216045, -0.10144704, -0.09497836, -0.07838549, 0.08677213, 0.08455124, 0.12081112, -0.035167962, 0.15647325, 0.06116668, -0.16553327, -0.049428795, 0.014748789, -0.05070248, -0.049671087, 0.0737571, 0.017530655, 0.050479393, 0.1744883, -0.031263318, -0.013361486, 0.10769631, 0.021075353, 0.12935445, 0.0149123715, -0.14867367, -0.10380499, 0.027984021, 0.07436538, -0.051133487, 0.04094163, 0.01099071, -0.034197357, -0.020241586, 0.057159916, 0.076883346, 0.042085167, -0.08226844, 0.0064749657, 0.061194412, -0.08725808, -0.010822902, 0.06947663, -0.07683881},
{0.004783805, 0.057042405, 0.10884736, -0.17957866, -0.058406346, 0.045053456, 0.014677613, -0.030738799, -0.0038204514, -0.04151269, -0.14848599, -0.07906347, 0.019486943, -0.036430776, -0.078545414, -0.119789034, 0.15417941, -0.04320864, -0.005104173, 0.04852055, 0.078791685, -0.008256291, -0.03631406, -0.13151006, 0.011748413, -0.012512051, -0.036323804, -0.111417234, -0.1562979, -0.07096876, -0.041931253, 0.065236844, -0.091134965, 0.044755023, -0.06284011, 0.045714553, -0.007803361, -0.048056893, 0.1231096, 0.12725213, -0.057987433, -0.034443177, 0.13119313, 0.046048354, -0.08287628, -0.12749618, -0.016722023, -0.03435897, 0.07903967, -0.07559371, 0.05271695, -0.037338514, 0.016248614, 0.04850995, -0.028692054, 0.10240717, 0.06659808, 0.025647461, 0.075150006, 0.15012829, -0.12568115, 0.031276602, 0.01907104, -0.01641398},
{-0.12608849, 0.10408367, -0.101104625, -0.04851626, -0.116810754, -0.08049599, 0.01070019, -0.13471812, 0.01592325, -0.034796093, 0.11624005, 0.12839487, 0.09568612, -0.06431787, 0.1011888, 0.10560761, 0.03164996, 0.06676495, 0.12425088, 0.13027643, 0.007197127, 0.11862241, 0.09036333, 0.054493424, -0.052301202, 0.030195106, 0.039012823, -0.09498156, -0.05402484, 0.09680791, 0.048956294, 0.065830216, -0.07488675, 0.08526441, -0.07551945, -0.08004243, 0.06008466, 0.018157136, 0.005429265, 0.016989158, 0.05162479, 0.04824523, 0.016755646, 0.09531819, -0.04715229, -0.12201592, -0.0095885955, 0.057325814, 0.073682405, -0.011023361, -0.06672016, -0.045943897, -0.075339146, 0.045124233, -0.07043929, -0.0048788185, 0.057856817, 0.10122082, 0.027980598, -0.09672978, 0.03725124, -0.07476893, 0.039942324, -0.05013685},
{-0.11298329, -0.10067366, -0.011197371, 0.12536773, 0.049140964, -0.019907085, 0.09101477, 0.007945157, 0.008842598, 0.04111151, -0.011960683, 0.009946268, 0.0123047335, 0.13626175, 0.060981408, 0.12512524, 0.10560743, -0.059537794, 0.004750944, -0.036521774, -0.110263795, 0.18341604, 0.045070432, 0.010486073, 0.04459822, 0.0061559617, -0.019679474, -0.08872508, 0.06504491, 0.026333265, 0.08805168, 0.05124639, -0.07185358, -0.023358503, 0.09467281, -0.07212499, 0.011286622, 0.0023523907, -0.055182595, -0.008669548, -0.06271097, -0.13190794, 0.04622037, -0.010695377, -0.0629926, -0.06720122, 0.047560822, -0.15307981, -0.09042523, -0.0808567, 0.010774971, -0.000122069054, -0.14919944, -0.01451612, -0.007934833, 0.03858129, -0.12609942, 0.14723137, 0.036486823, 0.05242659, -0.1034076, -0.1251151, -0.063395835, 0.019107025},
{0.087771565, -0.118018374, -0.13419084, 0.051766735, 0.0130389985, 0.12571637, -0.13604045, 0.007948895, -0.010558924, 0.021052321, 0.07899574, -0.13360584, -0.06912329, 0.019419676, -0.1220484, 0.04400521, -0.028803078, -0.029946972, -0.072342426, -0.046204936, 0.09839326, -0.03019113, 0.130626, 0.0967991, 0.059514746, -0.111618705, 0.14867191, -0.067218006, -0.07215949, 0.0010928188, -0.108151175, 0.0023818696, 0.004126566, 0.1485541, -0.036237236, 0.12199346, -0.013485966, 0.09428386, -0.02802027, -0.018333238, 0.037736215, 0.088079, 0.017509066, -0.015170515, -0.07424581, -0.007296235, -0.062060658, 0.13952048, 0.04344611, -0.09346699, 0.0061389008, -0.07274651, -0.0416333, 0.027573949, -0.087273195, 0.08745873, 0.115395576, 0.114061475, 0.05017908, 0.0070195803, 0.046214305, 0.12862346, -0.039151303, -0.120029256},
{0.06315599, -0.014728514, -0.0030241944, -0.057633463, 0.048587102, -0.028455416, 0.061186492, 0.11769145, -0.10427729, -0.07582147, 0.0059657865, 0.11740557, -0.14081408, -0.06682658, -0.0881871, -0.018123075, 0.082902096, -0.102865, -0.01804522, 0.07730496, 0.14969146, -0.030494794, -0.11087516, -0.086370386, -0.13208856, 0.035651825, -0.01899542, -0.08836246, 0.14502802, 0.022092566, -0.045252584, 0.0095741, -0.011625082, 0.06875466, 0.02403288, -0.0142764775, 0.07832446, -0.00027619489, 0.010880783, 0.12158522, 0.11779128, -0.076017484, -0.15599906, -0.07169234, 0.037218362, 0.09792702, 0.13184944, 0.06459047, 0.0009587706, -0.07171091, -0.10360031, -0.038029406, 0.066226624, -0.015821524, -0.07937077, 0.03652034, 0.12035891, 0.089766085, -0.084535286, -0.05082104, 0.009531169, -0.06011484, -0.043195594, 0.032524556},
{0.12840955, 0.012655708, -0.03514359, -0.06003112, -0.05414823, 0.03330682, -0.03135406, -0.040940538, -0.022665232, 0.1433173, 0.018493233, -0.011318668, -0.004173931, -0.014637726, -0.08439187, -0.07957904, 0.06968666, 0.1002266, -0.13350646, -0.02004536, 0.099644884, -0.034343354, -0.06286766, -0.07179644, -0.041405722, 0.03271749, -0.0390991, 0.010888115, 0.12799887, 0.01736447, 0.023988597, -0.028956315, 0.0728025, 0.043739863, -0.08720907, -0.098737255, 0.008169836, 0.100606576, 0.13574445, 0.17500764, -0.09721996, 0.075007044, -0.037112247, 0.08921763, 0.0424918, -0.026110953, 0.03423437, 0.045469638, 0.014663047, 0.11720123, -0.054489497, -0.0085492125, 0.008504893, -0.014569728, -0.090631664, -0.012329163, 0.15245152, 0.00047742072, -0.041747514, -0.15022165, -0.024654105, -0.08716693, 0.120558105, -0.1314753},
{0.056822482, -0.035976145, -0.10118646, -0.19001183, -0.092788376, -0.07626958, 0.13572666, 0.10969751, 0.11448714, 0.07841202, 0.09982404, 0.12693527, -0.052125964, 0.097992666, 0.11554246, -0.13193803, 0.15349738, -0.10299328, -0.0005843156, -0.085529424, -0.11347876, -0.05565649, -0.04856368, -0.05776179, -0.030182349, 0.14995581, -0.1043439, -0.014189439, 0.025770085, -0.03932383, -0.14665252, -0.13470933, -0.053824797, -0.015167725, 0.016372096, -0.010327419, -0.03948305, 0.037899625, -0.104602896, 0.08005935, -0.11463528, 0.04581351, -0.011599961, -0.08391324, 0.008417216, -0.05919612, 0.110432036, 0.060496736, 0.049668465, -0.03841948, -0.11481613, -0.116638295, 0.04808007, 0.069715634, 0.06797256, 0.13504575, -0.13837522, 0.094686404, -0.030886443, 0.084085524, 0.07390252, -0.059899163, 0.1653998, -0.07545982},
{0.0133027015, -0.1376458, 0.032727543, 0.10663171, -0.06782568, 0.07470927, -0.031583663, -0.049089707, -0.10279028, -0.019679517, -0.031257324, 0.032722548, 0.052364204, -0.08646247, -0.08998585, 0.059955962, 0.09039546, -0.10103729, -0.020316938, 0.06064635, 0.12008633, 0.09826767, -0.05947601, -0.037353616, 0.055349454, -0.1400375, 0.02198142, -0.011742932, -0.16665727, -0.008448032, -0.0073914146, 0.045718204, -0.089910604, 0.16772276, 0.1189617, -0.07732072, -0.117402874, 0.09255002, -0.020694207, 0.032862127, 0.09758757, 0.034432042, -0.022576898, 0.054286987, -0.09490802, -0.0722222, 0.01981279, -0.036019582, 0.10031618, 0.07658371, -0.060726374, 0.10309389, 0.020252192, 0.03938676, 0.11314075, 0.16149727, -0.0117060365, -0.08461884, -0.050479665, 0.064892314, -0.042650305, -0.05885525, 0.028574042, -0.020324662},
{-0.016326435, -0.0817987, -0.030068304, -0.081564054, -0.0152344, -0.11812662, -0.092305034, -0.029170277, -0.006302937, -0.039897706, 0.06700757, -0.035549525, -0.07735021, 0.10219839, -0.026982017, 0.033050545, -0.08372731, 0.0011027587, -0.0747613, 0.038639262, 0.066483356, 0.106269985, 0.017415375, 0.051719166, 0.08566919, 0.082732655, -0.044365842, -0.048634816, 0.10982238, 0.1680561, -0.095530994, -0.019854827, -0.1482323, -0.11135764, 0.17626755, 0.030209702, -0.1116967, 0.19464771, -0.031925704, -0.044837154, -0.0844105, -0.018424803, 0.046298835, 0.13030441, 0.034214273, 0.04209184, 0.056689788, -0.08630898, -0.03471329, -0.010744561, -0.03831063, 0.096615985, 0.03496972, -0.0060429494, -0.048844937, 0.15681733, 0.07262672, 0.1585538, -0.031328112, 0.15766682, -0.044362128, -0.0064170947, -0.13467678, -0.08408186},
{-0.054956455, -0.1476964, -0.15093148, -0.04754775, -0.07730641, 0.13173155, -0.15035675, 0.08275201, 0.08267581, -0.024773765, 0.061731353, -0.11109626, 0.13008027, -0.07223154, 0.0013363386, 0.08806368, 0.009781778, -0.07118618, -0.046031754, 0.058956813, -0.03644283, -0.043211676, 0.03924604, 0.10913894, -0.023302713, -0.13624282, 0.11007894, -0.018380523, 0.028534124, 0.07722306, -0.010699836, -0.014544236, 0.10331313, -0.043893807, 0.036333892, 0.022079851, 0.0038580894, 0.019057613, -0.06524644, 0.081317015, -0.1341683, -0.10906325, -0.08980115, -0.13684031, -0.044851467, -0.060349893, -0.007512032, 0.1359188, -0.061366905, -0.09942459, 0.07445566, -0.0937123, -0.14753693, 0.0028612106, -0.09051055, -0.04254054, -0.02877665, 0.14526254, 0.04687842, 0.019986205, 0.02382825, -0.06644516, 0.08004959, -0.114940204},
{-0.08017451, 0.010148339, -0.06202328, -0.09634364, -0.067699686, -0.059361096, -0.040514138, -0.06966847, -0.12432881, -0.10374132, -0.02211004, 0.087533236, -0.11451192, -0.14905187, -0.119609304, 0.09802364, -0.08568437, -0.050450962, -0.07159453, -0.027581157, 0.098108806, 0.10044447, -0.045175362, 0.029045602, 0.044563998, 0.019448696, -0.06278213, 0.09199372, 0.19290227, -0.12914595, -0.08572411, -0.05841685, 0.02291882, -0.093950145, -0.010571534, 0.053014126, 0.05119548, 0.0117492825, -0.011971575, -0.010129826, 0.060681187, -0.0964263, -0.16728905, 0.06455824, 0.046537615, 0.08177327, -0.015602114, 0.09030312, 0.0985437, -0.04539739, -0.027141234, -0.002808904, -0.014964535, -0.02769283, -0.03885457, 0.054303028, -0.1283969, -0.115422204, -0.028408691, 0.077739514, -0.061369423, 0.1219115, 0.07379734, 0.08937768},
{-0.027560636, -0.018792426, 0.13935637, 0.1275315, 0.12194784, -0.046979528, 0.049629875, -0.06554788, -0.1283084, 0.12259808, 0.12689325, 0.047693845, -0.047169607, 0.028069347, -0.021201719, -0.10609506, 0.011461225, -0.108897, -0.15137288, 0.06189071, 0.11719953, -0.0252109, -0.021224365, 0.10644711, -0.07255443, -0.010605583, 0.061732817, -0.015498754, 0.00723698, 0.038852923, -0.080323085, 0.07107808, 0.041849595, -0.07793247, 0.09211022, -0.06870095, 0.10120146, -0.06551557, -0.07648704, 0.16956678, -0.017051836, 0.0114665385, -0.019288316, 0.054606304, -0.024008125, 0.07885818, 0.045830578, -0.028242188, 0.020423485, 0.035689376, 0.029302932, 0.14497441, 0.090939276, 0.057170782, -0.102556966, 0.10508773, 0.005408707, -0.04353602, 0.044075612, -0.019602235, -0.06419441, -0.11924712, 0.10806651, 0.00563772},
{0.07928672, 0.07969241, -0.039994214, -0.14195018, 0.06310515, 0.14857127, -0.06717271, -0.0025802087, 0.116276346, 0.08003068, -0.0016158464, 0.04396364, -0.011606252, -0.009794453, -0.07591456, 0.07851849, 0.10676336, -0.04203938, -0.045163367, -0.053599596, 0.09912595, 0.05431977, -0.036900505, -0.023573149, 0.08442664, -0.02825762, -0.036483537, -0.04180855, -0.1292977, -0.15533996, -0.14602345, 0.002574023, -0.012258294, -0.0016245855, 0.1004423, -0.121792585, 0.102480344, -0.015274214, 0.05504515, -0.07160604, 0.0669205, 0.010247729, -0.068384744, -0.013937674, 0.15329017, -0.18771833, 0.048090532, -0.0739712, 0.011725974, 0.131329, 0.09743141, 0.09704215, 0.0073144226, -0.082583606, -0.028085772, 0.042605437, 0.09173118, 0.022243934, 0.04049853, -0.058150385, 0.08329764, -0.13612902, 0.035376187, 0.084159926},
{-0.055364046, -0.018523851, 0.028986504, 0.018747218, -0.09433239, 0.11007615, -0.008533998, -0.05873561, 0.037251282, -0.11498907, 0.09886081, 0.13297027, -0.008785967, 0.05366142, -0.016107682, 0.10905857, 0.045214184, -0.09750281, 0.07086903, 0.05078947, 0.16819826, -0.031580675, 0.07258269, 0.060618896, 0.073865876, -0.07220926, 6.0203252e-05, 0.12571816, -0.14284413, 0.08806548, 0.008622423, -0.10722365, -0.12176354, 0.14176458, -0.11147807, 0.090091184, 0.01899309, -0.033138175, -0.09786181, -0.11715115, -0.013007115, -0.04469753, -0.053877283, -0.026465258, -0.09834865, -0.04163166, 0.11729482, -0.09181134, 0.076632604, -0.14043711, 0.019325681, 0.08249434, -0.01404261, 0.038106248, -0.087093174, 0.054916553, -0.006149479, -0.032129932, 0.06757127, -0.11536844, 0.05367858, -0.10957075, 0.040657837, -0.11857139},
{0.029473046, 0.062317703, -0.018285608, 0.09828454, 0.05611133, -0.08107087, -0.08345517, 0.08967955, -0.04352105, 0.0068782484, -0.059725564, -0.08502519, -0.06748122, 0.07551204, -0.09514904, 0.09351275, 0.0022972901, 0.058531087, 0.010191125, -0.033409618, -0.05343272, 0.03240593, -0.010928124, 0.011604574, -0.0927794, -0.04913374, -0.0948608, -0.055888895, -0.09016537, -0.043464694, 0.03918246, -0.009065822, -0.09831928, 0.031341683, -0.041322667, 0.0050113765, -0.10869249, 0.04019286, 0.0024602215, 0.063923195, 0.023756856, -0.11123415, 0.0002298897, -0.055868525, -0.12511815, 0.029726941, -0.056960072, -0.066988125, 0.15078357, 0.037870448, 0.028479947, 0.107701935, -0.08775588, -0.059155367, 0.011085042, 0.141607, 0.10259964, 0.12690756, 0.06366978, 0.14253232, -0.040645808, 0.031855438, 0.07663098, -0.054352716},
{0.047589354, -0.046632845, -0.14357445, -0.053547706, -0.11204458, 0.06890613, -0.10089176, -0.07066314, 0.009895315, -0.010235617, 0.039336286, -0.10276041, 0.0036953562, 0.10161079, -0.02604605, -0.064318754, -0.023047447, -0.019394156, -0.026263587, -0.085069664, -0.044938177, -0.0014182803, 0.006448755, 0.07887188, 0.09785022, -0.037851706, -0.08103319, 0.0399145, -0.027086984, 0.035037126, -0.012126359, 0.030404752, 0.07747577, -0.009633962, -0.026755134, -0.061662234, 0.008161391, 0.08818749, 0.05158408, 0.0034923614, 0.015890086, -0.13853385, 0.06269993, -0.14944251, 0.0061073103, -0.042675134, -0.10898307, 0.04535913, 0.074656755, -0.18570337, 0.09491485, -0.008269994, -0.011304982, 0.030464826, 0.030632498, -0.11668629, -0.07938264, -0.058925647, 0.05799285, 0.16685438, 0.038229953, 0.06391583, 0.09694697, 0.10057435},
{-0.015857907, 0.0012059704, 0.056380924, -0.05929308, -0.060424067, -0.07903324, -0.050900783, 0.10601571, -0.038982168, -0.12116682, -0.06932101, -0.080296025, -0.12794761, 0.010253489, 0.094063774, -0.07958167, -0.048585553, -0.06333901, 0.08053416, -0.033148177, 0.094062515, -0.006432775, -0.077487655, 0.0499543, 0.014321758, -0.024953723, 0.025585758, -0.002129068, -0.018724054, -0.122411065, 0.010195562, -0.10653327, 0.011592772, 0.054365154, -0.1772597, 0.09360779, 0.032846417, -0.05861566, -0.0022085647, 0.05298592, 0.08072015, 0.04184046, -0.005418196, -0.04949303, 0.08052405, 0.014732681, 0.0507958, 0.08021465, -0.11558848, -0.0117401555, -0.03409474, -0.09091276, -0.08204934, 0.028206721, 0.008988229, 0.019533541, -0.024520015, 0.030749245, -0.061888445, 0.0019641472, -0.06361839, 0.094101325, 0.07708665, -0.07944935},
{0.0775038, 0.09570731, 0.028741634, -0.103114635, 0.111583695, -0.12230117, 0.12507729, -0.019455943, -0.12929605, -0.10825481, -0.025568293, 0.12964857, 0.097977735, -0.026146555, -0.05517462, -0.065229334, -0.114283524, -0.097650096, -0.1324913, -0.07448614, 0.019306904, -0.09112185, 0.09714354, 0.12529235, 0.08449056, -0.07649357, 0.08713484, -0.07475396, 0.040851295, -0.111246854, 0.07347057, -0.06498964, -0.05707461, 0.1169492, -0.031265818, 0.058146216, -0.060895547, 0.026266214, 0.064810365, 0.08917387, -0.039748438, 0.08425595, 0.07270008, 0.014277035, -0.051323675, 0.026059104, 0.063570775, -0.006092687, -0.09900689, -0.0071543907, 0.1347288, 0.08677677, -0.072753996, 0.0958568, -0.085227065, -0.111258194, 0.08248193, -0.0843006, 0.074149445, -0.1689593, -0.06664877, 0.0051703798, 0.027908662, -0.044326138},
{0.13166615, 0.04845707, 0.017073698, -0.008281338, -0.022447206, 0.055983666, -0.030694567, -0.06708866, 0.10038268, -0.06681925, 0.11676582, 0.1727087, -0.04764849, 0.027283572, 0.033651, 0.0076142275, 0.12673724, -0.081044346, -0.050081186, 0.10956759, -0.054246586, -0.10383762, -0.09396816, -0.095615365, 0.08000715, -0.02126608, 0.08210113, 0.045199372, -0.03263274, 0.07961382, 0.07140363, 0.003919834, 0.09808903, -0.034914628, 0.031883202, 0.1293677, 0.0334862, 0.07819148, -0.07315726, 0.12015216, -0.14113934, -0.089431584, -0.050537914, -0.07188386, 0.0068462305, -0.11323599, 0.056184914, 0.05494601, 0.017265055, 0.027568666, 0.047383405, 0.065172896, 0.056181002, 0.0177334, 0.05901043, 0.0040397705, 0.015670232, 0.0065118256, -0.06629193, 0.08561506, 0.006758199, -0.11082335, -0.010153696, 0.081139565},
{-0.017326253, -0.12819023, 0.017398596, -0.047095884, -0.015731115, 0.026780017, -0.06870654, 0.070030786, -0.07311843, -0.13075034, 0.05653927, -0.017438367, 0.1121592, -0.061041046, 0.041111108, 0.0012546893, 0.015546208, -0.13453436, 0.13948053, 0.05588965, 0.06508363, -0.10282755, -0.08311538, -0.11493325, 0.09525373, 0.033909883, -0.10458089, 0.035882063, 0.088114485, 0.09397362, -0.07060337, -0.028360257, -0.0019048577, 0.19159426, 0.09730166, 0.083527304, 0.07819111, -0.0663513, 0.11217415, -0.068568684, -0.02753835, -0.0725835, 0.12519453, 0.030412374, -0.036923133, -0.032621384, 0.08558525, 0.03849856, 0.03490042, -0.13650522, -0.077719525, -0.079079285, 0.0014857934, 0.055770334, 0.036944482, 0.053021397, -0.022759363, 0.07501825, -0.022774544, 0.0015412275, -0.06882367, 0.104727186, 0.093243256, -0.116029486},
{0.028673539, 0.14587493, -0.07516816, -0.07498103, 0.07882073, -0.115873866, 0.08335713, -0.13149215, 0.09735621, 0.035234824, 0.10115141, -0.017025081, -0.14316913, -0.072958566, 0.11359543, 0.050592177, 0.06367412, -0.08078082, -0.066871606, -0.11817161, 0.06777505, 0.072243184, 0.055591952, 0.10041992, -0.043492485, -0.015177524, 0.008753169, 0.02940924, 0.024316214, 0.05237089, 0.1059279, 0.011203372, -0.16207351, 0.06237293, -0.022364207, -0.04167981, -0.057444863, 0.14421251, -0.0033795561, 0.12374747, 0.15453598, 0.014558149, 0.05969473, 0.005201202, 0.11576268, 0.13449048, 0.032345723, -0.14894398, -0.09274126, -0.1036385, 0.1310016, 0.08259799, -0.0024882546, -0.006617877, -0.019974036, -0.056980446, -0.084662184, 0.12043156, -0.16359358, 0.00954894, 0.06584811, -0.038886286, 0.024176024, 0.07762949},
{0.05197847, -0.14449155, 0.038571354, 0.03839219, -0.052028425, 0.10641048, 0.07935789, -0.006705808, -0.14713347, 0.009861183, -0.04252949, -0.13988523, -0.07819552, 0.0846275, -0.101395726, 0.023895396, 0.12768565, -7.621052e-05, 0.029763617, -0.018892672, 0.054236814, -0.023446212, -0.0959054, 0.11560499, -0.02676855, 0.06503889, 0.08494904, 0.08697994, 0.11158093, 0.05390493, -0.123653464, -0.12595125, 0.09284842, 0.086867996, 0.05953931, -0.094862536, 0.09580921, -0.1145135, 0.084031194, -0.044150285, 0.057339113, -0.12688403, 0.10143455, 0.0410339, -0.022747004, -0.1051298, 0.03633422, 0.101152465, 0.05996401, -0.03476324, -0.05181936, -0.04374676, -0.016553687, 0.057845987, -0.008991593, -0.13237369, -0.06523871, -0.13834494, -0.05735767, 0.03411445, 0.064396545, -0.07014229, 0.06175378, 0.005468032},
{-0.10796168, 0.060930636, -0.08960553, -0.05925893, 0.074603274, -0.07566177, -0.112455145, 0.06399234, -0.023192719, -0.0045223837, 0.10168679, -0.0071587116, 0.024447413, 0.10693337, 0.110073805, 0.0018669381, -0.017552657, 0.030303225, 0.0018969949, 0.02894347, -0.0027172437, 0.020119635, 0.09064233, -0.01745298, -0.07038785, -0.0917168, -0.003160568, 0.06215113, 0.08328172, -0.06421066, -0.03384222, 0.02326548, 0.15028377, 0.0792766, -0.016218418, 0.10634631, 0.0811022, -0.09141027, -0.026750399, -0.05807047, 0.13713244, -0.0004308523, -0.047041688, -0.023195177, 0.033864077, 0.12162088, 0.03742459, 0.00015695412, -0.0874321, -0.040526345, -0.116802394, -0.07377273, 0.1217205, -0.12072953, 0.079758584, -0.041471228, 0.092057064, -0.0909923, 0.02802571, 0.12652448, 0.041986667, 0.06694356, -0.06845173, 0.0053480836},
{0.052028254, -0.024716064, 0.14576054, -0.027756229, -0.13238311, -0.08880866, -0.006434526, -0.077951364, 0.021155369, -0.005314859, 0.118344545, 0.06758056, 0.08816126, 0.13352461, -0.09230865, 0.010182523, -0.021505294, 0.023399785, -0.12909268, 0.032495923, -0.041021135, 0.06714359, 0.13483286, 0.1310766, -0.04390989, -0.057489853, 0.039518017, 0.016338928, -0.12532587, -0.0325208, -0.11747328, 0.009363528, 0.028752366, 0.15436472, -0.057376295, 0.10288291, 0.10620876, -0.10003087, -0.009508286, -0.08286409, -0.08275115, 0.057989813, -0.07137242, 0.0031422446, 0.036548715, -0.008049648, -0.047334436, -0.12360283, -0.07026625, 0.11928758, -0.010919087, 0.0344404, 0.035364963, 0.11643331, 0.042364422, 0.06109915, 0.05770874, 0.039203037, 0.021482678, -0.06917885, 0.107564986, 0.020687673, 0.08861546, -0.15313333},
{0.07090446, -0.071472205, 0.009978049, -0.17551532, 0.004304817, 0.020597404, -0.03149153, 0.017907973, -0.091152966, -0.053616937, 0.0005789778, 0.0660039, -0.022695895, -0.014432227, -0.06730634, -0.032417946, -0.07255425, -0.010066734, 0.11718924, 0.029524831, -0.06632822, -0.09264741, 0.082508944, -0.026392732, 0.0865647, -0.13471662, -0.14024945, -0.10322897, -0.12411117, -0.1369052, -0.107284315, 0.080261715, 0.033287074, -0.086652964, -0.07682667, 0.044215396, 0.1174231, -0.073046386, 0.109477624, -0.030655302, 0.012362881, 0.057616375, 0.07456337, -0.1364853, -0.016965784, 0.01411488, 0.053112786, 0.0072476813, 0.099399306, 0.1392519, 0.15999283, -0.07857939, -0.08725021, -0.016345285, 0.0384024, 0.1743565, -0.027258208, -0.018385246, 0.09902355, -0.028527925, 0.05196643, 0.11304812, 0.038714904, 0.07119206},
{-0.08117122, 0.06872402, -0.096932024, 0.097342744, 0.039228767, 0.054619588, 0.017035892, 0.04557623, -0.07504679, -0.06376173, 0.014095198, 0.016039096, -0.10919025, -0.11348816, 0.053266976, -0.03617418, 0.08473739, 0.0037781608, -0.06300325, -0.026386667, 0.15362053, -0.01912313, 0.013032616, 0.07509762, 0.06396463, 0.11550305, 0.11036808, -0.005576164, 0.05071288, -0.09150182, -0.0214072, 0.030728476, 0.061831, 0.12878191, 0.10244276, 0.05545769, -0.1267634, 0.0485525, 0.0884657, -0.0021641578, 0.02327585, 0.14075725, 0.033590104, -0.02859249, -0.028746039, -0.1383516, 0.13161479, -0.096426785, 0.019210828, -0.114804454, -0.12271148, 0.09527607, 0.013021524, 0.06531544, -0.1079824, 0.095456466, -0.08165407, 0.090320304, -0.06258615, -0.026653651, 0.14276798, 0.08596944, -0.043498795, 0.0009867501},
{0.03019513, 0.12708482, -0.017874425, -0.07004486, -0.005287206, -0.072129175, -0.094555326, 0.015898246, 0.14760908, 0.06113891, -0.07420695, 0.0067412294, -0.14485808, 0.030031342, -0.040332954, 0.03894745, 0.038193557, 0.06210579, -0.09194984, -0.0601992, 0.119730406, 0.1282927, -0.03398332, -0.09733528, 0.076611, 0.0930478, 0.078059204, -0.09174402, 0.04403347, -0.10761768, -0.08880276, -0.07921592, 0.04926036, 0.04965959, 0.112648696, -0.0050256834, -0.12071689, -0.004275614, -0.07265203, 0.0842911, -0.06082211, -0.10210129, -0.12372947, -0.028815707, -0.015460508, 0.014635642, -0.055980798, -0.16886675, 0.014507664, 0.03380358, -0.02759684, -0.07220413, -0.0853334, 0.08226875, -0.05597406, 0.053449765, -0.060470834, 0.1391608, -0.13211492, -0.017450912, 0.040447813, 0.015605212, 0.015987473, -0.017074231},
{0.04254964, -0.023367457, -0.09424137, -0.08135013, 0.039215516, -0.00083428365, -0.049108513, 0.017445272, -0.07175249, 0.107908115, 0.075835735, -0.11342606, 0.0074631628, 0.07687342, 0.048711404, 0.02678577, 0.040810563, 0.04791891, -0.038109798, 0.113041505, -0.04733455, -0.057230864, -0.027558547, 0.12725222, -0.06381378, -0.082438976, 0.036630984, -0.092298, 0.054538578, 0.1518139, 0.09862449, 0.02968449, -0.08311944, 0.0116425, 0.03167189, -0.08938364, -0.14047234, -0.09918535, 0.0029737793, 0.15850621, -0.095120095, -0.08022817, 0.06734888, -0.03941319, 0.010231043, 0.04369019, -0.064624265, 0.12858352, 0.006550886, -0.01933518, -0.029107463, 0.123897634, 0.07202681, -0.04532409, -0.070958056, 0.08869452, 0.029019231, -0.13376366, 0.0022230085, 0.09150901, -0.110053524, 0.03233638, 0.07940405, 0.04746103},
{0.08305917, -0.017362643, 0.057380546, -0.059904948, -0.032249305, -0.013972933, -0.021043308, -0.10268508, -0.087362304, -0.07215228, -0.10401305, 0.112383634, -0.04113112, 0.12305654, -0.0441061, 0.077754855, -0.05985771, -0.10486411, -0.12408041, 0.096321486, -0.063957475, 0.03933314, 0.033911496, -0.005851878, 0.058712088, 0.08410505, 0.010935889, 0.08238233, 0.15291943, -0.05594217, 0.11834458, -0.06111065, 0.03562126, -0.059076604, 0.07058883, -0.00048724774, -0.09235259, -0.09935787, 0.09183707, -0.082623206, 0.103235126, 0.14630766, 0.031612936, 0.09132122, 0.09571794, -0.04477997, 0.13362142, 0.040642697, -0.15003781, -0.008820761, 0.107481204, -0.0033015877, 0.11355918, -0.028849535, -0.10303484, 0.0043258048, 0.061443165, -0.12932874, 0.052668344, 0.07140531, 0.05107053, -0.015227131, -0.10497602, 0.036588278},
{-0.08708612, -0.109604634, 0.120672904, -0.056278255, 0.008186548, -0.018307116, 0.008572569, -0.057423476, -0.15389282, 0.047593623, 0.028994652, -0.07365278, 0.03816591, 0.07719947, -0.01059337, -0.041010015, -0.013638616, 0.025321707, 0.025403176, -0.09009429, -0.014482266, -0.044238035, 0.08000237, 0.11282914, 0.13119, -0.082344875, 0.031295788, 0.08707102, -0.14783812, -0.07359817, -0.064838074, 0.07180364, 0.011721719, 0.084090225, -0.07014024, -0.04175419, -0.09100681, 0.08505053, 0.11897369, 0.039534412, 0.058633003, -0.052019686, -0.079787575, -0.029883396, -0.10774699, -0.021554984, 0.14377256, -0.03410665, 0.17387731, -0.07810451, 0.054505643, 0.0009904308, -0.14746034, -0.039452307, -0.049697243, -0.0020391347, 0.012592274, 0.06588249, 0.12099084, -0.009959108, -0.080831066, -0.019064011, -0.040113136, 0.00079747057},
{0.09141578, -0.12432013, -0.07794538, -0.076764174, 0.11460312, -0.038766477, 0.030601904, 0.07132604, 0.075951345, 0.031093765, -0.00015618598, 0.18585876, 0.016479421, 0.10705138, 0.11705732, -0.06350152, 0.11148138, 0.020374589, 0.054584038, -0.087066896, -0.13695493, -0.04448189, 0.033030566, 0.110583276, -0.12282344, -0.14111671, -0.1289133, 0.08746779, -0.12772556, -0.11337253, -0.04475814, -0.07724298, 0.102248095, 0.0018598962, 0.14933996, 0.07343305, -0.10959098, 0.0458093, -0.03634202, 0.04086432, -0.011610993, -0.12345389, 0.005457101, -0.0997998, 0.033514068, 0.016999967, -0.037137795, -0.07822816, -0.024729172, -0.014920692, 0.076942734, -0.009477608, 0.111700475, -0.09681509, -0.009357214, 0.072159864, 0.080711044, 0.024112927, 0.10068587, 0.084078334, -0.03707036, 0.07231592, 0.08215891, -0.0481893},
{-0.12312789, -0.13014491, 0.10661805, 0.08107686, -0.0023623672, 0.09388393, -0.034010656, 0.0018669708, -0.008953479, 0.08583707, -0.042291936, 0.04809179, 0.031256057, 0.032395594, 0.05165984, 0.035500795, -0.04145045, 0.03110332, -0.115298405, -0.023416402, 0.09693067, 0.003016646, -0.06586239, -0.06566665, 0.10148035, 0.12654103, -0.02598724, -0.10253162, 0.108078636, -0.0033490416, -0.078396134, -0.049676977, -0.04819781, 0.1314935, -0.07602648, -0.08008091, -0.004231272, 0.12961431, 0.12326954, -0.010118814, 0.025790209, 0.045364525, -0.07341935, 0.08849602, -0.13264589, -0.001911269, 0.12755767, 0.069672994, 0.09357271, -0.10727067, 0.09437019, -0.12219818, 0.10855593, -0.07050962, 0.06589525, 0.11213047, 0.09253485, 0.056574486, -0.046767324, 0.05833875, 0.053009473, -0.01304008, -0.0820862, 0.12628733},
{-0.050131537, 0.077274024, 0.08783997, 0.11081304, -0.10887274, 0.053228132, -0.14591888, -0.045934126, -0.011809219, 0.086436495, 0.036129963, 0.12507129, 0.0025833328, 0.09710185, -0.0974573, 0.14424285, 0.102391064, -0.11404245, -0.06570073, -0.1285817, -0.090595886, -0.05175053, -0.0864987, -0.0209662, -0.09975971, 0.06835888, 0.100537926, 0.07115931, -0.08188379, 0.033289716, 0.06426836, 0.005395037, -0.016857611, -0.036366597, 0.013129451, -0.057232246, -0.00604351, 0.014724452, -0.124260336, 0.13483357, -0.083789386, -0.048088107, -0.04371223, -0.011601268, -0.09269421, 0.112069935, 0.034298606, -0.15486427, -0.038382154, -0.12503172, -0.005291739, -0.12886164, -0.06757798, 0.002986766, -0.10854494, 0.13863388, 0.036468435, 0.06699071, -0.010417675, -0.09231785, -0.093681015, -0.044718765, 0.11705567, -0.037700467},
{0.04000065, -0.06757039, -0.019122377, 0.07506021, -0.09754062, 0.07009295, 0.101765245, -0.030863853, -0.010480407, 0.04583684, -0.13079241, 0.04693351, 0.09322529, 0.094736524, -0.119640164, -0.011076245, 0.14949131, -0.038352545, -0.12695818, 0.12322232, 0.157686, 0.066585034, 0.00070957583, -0.061647244, -0.055938177, -0.07645218, -0.0006538089, 0.124763384, -0.025687588, 0.039056644, -0.03654877, 0.062159315, 0.022957074, 0.10627725, 0.034264367, 0.07348765, 0.057224378, 0.08508749, 0.14762574, -0.004872498, 0.013759818, 0.021674315, -0.0671633, -0.087699145, -0.044281177, 0.11496436, -0.09290592, -0.026349906, -0.07166362, 0.047128554, 0.1556147, 0.10583196, 0.0071942406, -0.104829066, -0.15558435, -0.032505874, -0.055030152, -0.122517794, -0.081881545, 0.016912071, -0.045968365, -0.069919884, -0.080510385, 0.066132136},
{0.010454441, 0.029207734, 0.14257139, -0.0907749, 0.06663032, 0.11107051, -0.08426469, -0.09312077, 0.07891066, -0.081847206, 0.033841044, -0.0006951467, -0.040156346, 0.072040595, -0.007853618, 0.07745075, 0.05935437, 0.074506395, -0.06024207, -0.087707974, 0.13643934, -0.0089420015, 0.039021086, 0.13443565, 0.07182289, 0.03186812, 0.09034355, -0.0137127, 0.1721464, 0.032193374, 0.08160433, 0.017355436, -0.080455914, -0.03562623, -0.070542745, 0.07720725, 0.09432275, 0.005930837, 0.09868867, -0.106540225, -0.012533696, 0.054650158, -0.045077454, 0.05441875, 0.09115111, 0.03098853, -0.105740204, 0.022310173, 0.05678723, -0.04632989, -0.10945327, -0.07043892, -0.017061513, 0.059701275, 0.07380764, -0.11851306, -0.08842879, 0.018668748, 0.015187856, 0.011437194, 0.10207964, 0.019860364, 0.015564683, 0.054259688},
{-0.030465266, -0.10847029, 0.0710784, -0.09129672, -0.046453845, -0.06957763, 0.019641096, -0.023713699, -0.16992734, -0.038185455, 0.110794015, 0.037116367, -0.11000769, -0.06360449, 0.021066826, 0.16267954, -0.0044667926, -0.013817627, -0.08114186, 0.041416965, -0.015777333, -0.040942248, -0.07072269, -0.07484481, -0.07497181, 0.051517334, 0.02786899, 0.06911672, -0.13763735, 0.11810098, 0.04387897, 0.15111357, -0.14060153, 0.08568432, 0.09428746, 0.11972158, -0.09655999, -0.004730028, 0.17230895, 0.022494119, -0.08139693, -0.08832343, -0.0260376, -0.05894696, 0.03035899, 0.058494344, -0.09979403, 0.083649166, 0.12008047, -0.11350142, -0.00019543119, -0.0867589, 0.0669415, 0.07208424, -0.048029967, 0.036212724, -0.07947838, 0.01637964, 0.011188239, 0.028266724, 0.04109335, 0.11573956, -0.0020280748, 0.08488432},
{0.063603565, 0.070637695, 0.045715574, -0.042355906, -0.028843358, -0.08502054, -0.030450135, -0.043233573, -0.039395444, 0.050056636, 0.0987564, 0.09640044, 0.040452093, -0.06929811, 0.09992416, -0.14691158, 0.070078805, -0.06894517, 0.036182053, -0.038702663, -0.0026080562, -0.0055076336, -0.07282692, -0.028557824, 0.058701072, -0.03603638, 0.003402025, -0.0074171633, -0.16530634, 0.033628657, -0.08346806, 0.11592697, -0.13732187, 0.053408436, -0.07850556, -0.07653068, 0.023878377, -0.10374043, 0.06381258, 0.013765095, -0.14035073, 0.09002404, -0.006509194, -0.03214728, -0.05105735, 0.018482145, -0.023999862, 0.047616404, 0.12351488, 0.025539532, 0.1651139, 0.08982301, 0.09285533, 0.034863524, 0.024109652, 0.18552262, -0.14373511, 0.05871644, 0.060225923, 0.026910625, -0.09298711, -0.09485209, 0.041300908, 0.06653012},
{0.02146014, -0.072514735, 0.06328428, -0.023919703, 0.087543115, 0.021378605, 0.14378785, -0.010168301, -0.03833962, -0.011311261, -0.12045587, -0.010343589, -0.08224162, 0.0750182, 0.03324267, 0.048983827, 0.10181339, 0.1284751, -0.06598672, -0.022041876, 0.034437116, 0.1364714, -0.12600459, -0.07854033, -0.05787908, 0.121411085, 0.13859777, -0.021333447, 0.047703862, -0.104107164, -0.07285761, 0.09847381, 0.057812802, -0.019059738, 0.03647631, -0.009291059, 0.006496594, -0.111214496, -0.029494978, -0.11543855, 0.005827394, 0.069245495, 0.11374364, 0.0012234822, -0.092716396, -0.10944657, -0.028658887, -0.008402364, 0.10244263, 0.02645956, 0.03877512, 0.095897116, -0.05187397, 0.06307811, 0.007961824, -0.033288877, -0.105334096, 0.08082318, 0.025653629, -0.01711657, -0.061182123, 0.11083264, -0.09778594, 0.082453154},
{0.03711731, 0.035258055, -0.024451878, 0.060810782, 0.11058914, -0.12680219, -0.02364758, 0.08886305, -0.035796802, -0.047800228, 0.0074242926, 0.06486123, -0.031652194, 0.11323679, 0.11924681, 0.13219519, -0.042772714, 0.112907544, 0.05128501, 0.06030508, -0.07371321, -0.034765195, -0.07802387, -0.08972941, -0.123790376, 0.04997234, -0.026516056, -0.019353796, -0.014019114, -0.047757823, 0.047071915, -0.050371878, -0.09316469, 0.0010282818, -0.026384547, -0.10857357, 0.10616488, -0.076686464, 0.003104558, 0.052783333, 0.06254968, -0.05425969, 0.06581801, 0.08862805, 0.034325402, -0.03799321, -0.11383367, 0.038920425, 0.085785955, 0.082711756, -0.0410108, 0.05680887, 0.07994882, 0.06195127, 0.09510687, -0.10704715, -0.087384, 0.15880898, -0.014840899, 0.027718127, -0.13210374, -0.048429456, 0.025906548, 0.0034331381},
{-0.042242564, -0.058325835, 0.024559025, 0.08382752, 0.14062873, -0.15222111, -0.03286132, -0.020426683, -0.074371114, 0.13552928, -0.014987111, -0.082938574, 0.1244774, 0.038931467, -0.11385328, 0.10321446, -0.07579378, -0.037076917, 0.04429313, -0.09467281, 0.16094953, -0.03725679, -0.054693524, -0.07559858, -0.028990963, -0.10269052, 0.112343855, -0.0007683342, 0.05665834, -0.021881541, -0.041019905, -0.053965177, -0.0695248, -0.16156049, 0.07629913, 0.11225016, -0.082142554, 0.047935545, -0.015266013, 0.094137, 0.036022075, 0.05894007, -0.06045217, -0.00043230064, 0.068988636, -0.09686665, -0.044508703, -0.13944776, -0.08955707, -0.0812255, 0.16517168, 0.14780824, -0.083287664, -0.044312213, 0.010563215, -0.067507, 0.15203187, -0.16765106, -0.05845017, -0.019929064, 0.035485853, -0.06594891, -0.076184, 0.003315562},
{-0.0035414107, -0.020050408, 0.063422285, -0.07680671, 0.057983056, -0.039859742, -0.055420607, -0.05973424, -0.14489432, -0.06747352, 0.074274585, 0.060849927, 0.012674957, 0.09441522, 0.059790764, -0.11856861, -0.0645496, -0.020439977, -0.031703703, 0.12719478, 0.16274025, 0.101142295, -0.05113519, 0.07558015, -0.023854543, 0.09050462, -0.07622494, 0.058188893, 0.11451608, -0.120198846, 0.054545995, -0.069319725, 0.052052412, -0.08532815, -0.060505446, -0.08416707, -0.056845002, 0.0551974, -0.07671562, 0.03225539, -0.014335909, -0.013573783, -0.07743786, 0.08831701, -0.09953021, -0.106066644, 0.09322465, -0.0771635, -0.048214283, -0.0422983, 0.07764743, 0.09362701, 0.025151039, -0.095985435, 0.015287123, -0.018946776, -0.13002448, 0.04330234, 0.09397985, -0.13789132, 0.09888012, 0.089343324, 0.0058443393, -0.09930209},
{-0.012924673, 0.0026626128, 0.008113151, 0.029966285, -0.10644601, -0.061398104, -0.1383159, -0.03820441, -0.17722115, -0.08148955, 0.109898075, 0.02895877, -0.030158529, 0.060138535, -0.029361792, -0.016179197, -0.020132802, 0.11185953, -0.08026473, 0.12302059, -0.16812795, 0.103637025, 0.027921071, 0.056269117, -0.07074948, -0.025236992, 0.1354401, 0.06049406, 0.051495712, -0.015563035, 0.005510987, 0.04188583, -0.09168718, -0.009225224, 0.06895141, 0.09216362, 0.13091724, -0.0887295, 0.028964002, -0.010089465, 0.058228172, -0.027974633, -0.0089309355, -0.14800365, 0.103863865, -0.101705514, 0.09637223, 0.05946558, 0.059658553, -0.017122773, 0.04997163, -0.09694588, -0.16843903, -0.065433964, -0.06842887, -0.009959132, 0.0017104823, -0.047946285, -0.08522537, 0.03679903, -0.048831105, -0.09187784, -0.07258946, -0.08647979},
{0.09912718, -0.117904216, -0.016767405, -0.009255234, -0.12057193, 0.0325912, 0.07902487, -0.0019866105, 0.12663935, -0.04568524, -0.04005155, 0.16058171, -0.018732958, 0.019254452, -0.06280105, -0.073021404, -0.076461054, 0.046066273, -0.04503727, -0.03294881, -0.096259326, -0.03955679, -0.08903531, -0.05406041, 0.08927096, -0.058913108, 0.09326843, 0.019537754, 0.03760614, -0.0536402, -0.021618783, -0.0049868706, -0.056895927, -0.10931606, 0.07769596, -0.020937921, 0.12718694, 0.100695714, 0.007940879, -0.05639169, -0.1344117, 0.013210676, 0.12390662, -0.09847206, -0.055825487, -0.093454435, -0.1097346, 0.018209402, 0.19231589, -0.11048044, 0.08571095, 0.08801527, -0.10450728, 0.016246695, -0.045928646, 0.22139892, 0.022187084, 0.107339166, 0.046272445, 0.00049081387, -0.07190391, 0.102352306, 0.042820785, 0.06292755},
{0.010859633, 0.015778316, -0.09951594, -0.08760531, 0.010681848, -0.037353814, -0.049298737, -0.07967423, 0.04693791, 0.124440126, 0.012952817, 0.020694703, -0.1385839, -0.1566139, 0.011045457, 0.017467057, 0.036451075, -0.023235632, -0.009393315, 0.10347596, -0.07288149, 0.063938454, 0.029284671, -0.08500054, -0.025010955, -0.05119024, 0.039640192, 0.11244314, -0.032598384, 0.10626759, 0.11155591, 0.11448521, -0.082884595, 0.054579124, -0.017639406, -0.09197599, 0.05253202, -0.005509205, -0.09029466, 0.0032071813, 0.13462497, 0.10493983, 0.07053327, 0.07615552, 0.00063248194, -0.021974519, -0.10985697, 0.09380387, -0.048704553, 0.010904651, -0.118411995, -0.010085549, 0.004931766, 0.036637273, -0.028710768, -0.005169198, -0.071948156, 0.047353286, -0.074067354, 0.10353659, 0.027914947, 0.01958298, -0.043528408, 0.021444142},
{0.018407427, 0.021989988, 0.12588012, -0.0030687577, -0.13355318, 0.10104616, -0.050673623, -0.08642905, 0.17688543, -0.044490885, 0.026945451, -0.09981944, -0.053423792, -0.05354935, -0.03886013, -0.054342497, -0.1233578, -0.11292342, 0.071956694, 0.070527, 0.054233797, -0.09435079, -0.14310345, 0.10124454, 0.11632771, 0.038283747, -0.07659289, -0.00047384034, 0.09656133, -0.14028476, 0.05720901, 0.07122385, 0.003460475, -0.0037044685, 0.16548161, 0.060153317, -0.08687366, -0.05027204, -0.031766042, 0.12691396, 0.012217021, -0.15171687, 0.11110822, -0.015193471, -0.09442357, 0.08264468, 0.02724771, -0.007582713, -0.061730508, -0.14765087, 0.09433798, -0.093791306, 0.052043404, 0.13472372, 0.016910093, 0.045002624, -0.083423495, 0.08778918, 0.15339792, -0.024422746, 0.015143544, -0.030837644, -0.055260066, -0.0744208},
{-0.09031024, 0.077788465, -0.18544573, -0.0025426315, 0.07018589, 0.014912477, 0.039364494, -0.05478437, -0.0005761755, -0.026223129, -0.036027897, 0.1052844, 0.07934173, 0.07713832, -0.020772088, 0.046842385, 0.08620137, -0.0059026517, -0.034231573, 0.11806997, 0.027091758, -0.016389746, -0.06409398, -0.0546432, 0.023366766, -0.12981246, 0.073968016, -0.083421394, -0.06556865, 0.024565337, 0.029872805, -0.014516606, -0.08216885, 0.06556565, 0.01455322, 0.07348031, -0.121498644, -0.13825892, 0.038915392, 0.0207368, 0.031731375, 0.070225015, -0.028454013, 0.06776907, 0.049365386, 0.05033426, -0.013957635, 0.050421435, 0.021388603, 0.062956095, 0.0022171962, 0.050558403, 0.12818973, -0.014243215, -0.03770655, 0.017424494, -0.024083652, -0.055303175, -0.16358778, -0.10917482, -0.014280921, 0.021296859, -0.07249337, 0.01454743},
{-0.0662189, -0.051357374, -0.07315211, 0.095351756, -0.05897699, -0.013080568, 0.04694173, -0.14304177, -0.005223961, 0.12152845, -0.079010464, 0.07545776, -0.14665361, -0.09567612, -0.08283787, -0.03155942, -0.060647193, -0.08355295, -0.043930013, 0.00688033, -0.012094666, 0.014614961, -0.047696613, 0.021992201, -0.11676365, 0.08803487, 0.105055235, 0.02844679, 0.035108916, -0.14786728, 0.0053810766, 0.05333889, 0.008856875, 0.01900595, -0.0355279, -0.06382415, 0.07288461, -0.103446506, 0.031010289, 0.082396485, 0.15459304, 0.11410065, -0.02997579, -0.016040428, 0.019754969, -0.094512716, 0.07029293, -0.021977002, -0.167965, 0.03905011, 0.017779846, -0.009293544, -0.05542887, -0.09511202, -0.022004742, 0.057694472, -0.080113545, -0.07392994, -0.09753629, -0.01689393, 0.09205115, 0.08642819, -0.06885473, -0.080286756},
{0.102556586, -0.029643105, 0.14801875, 0.0933098, -0.024549345, -0.018947981, -0.0873135, -0.043867417, 0.057766687, -0.139366, 0.12273163, -0.11023079, 0.10576837, 0.111738384, 0.08624218, 0.045282386, 0.07379243, -0.0981008, -0.1611668, 0.12894243, -0.09470592, -0.043362033, 0.10459619, 0.036402665, 0.034582715, 0.045596752, -0.025221312, 0.008118799, 0.12136173, 0.017777525, -0.09934767, -0.07006192, -0.06946004, 0.0729469, -0.082128495, -0.023776537, 0.08198321, -0.05074848, 0.1689126, -0.045926753, 0.097707786, 0.121391974, 0.13359438, 0.045575075, 0.076036826, 0.14254864, -0.011296713, 0.047214616, -0.020038456, 0.049919322, 0.1031385, 0.034141894, -0.07023516, 0.051194318, -0.05497495, 0.12269454, -0.061714023, 0.0969142, 0.01385766, 0.102849774, -0.070415504, -0.019127574, 0.10756689, 0.084367074},
{0.10594136, -0.005368696, 0.073217586, -0.051259838, 0.04141126, -0.070271365, 0.050379455, 0.11753367, -0.015654368, -0.09237846, -0.023279844, 0.031854052, 0.095539734, 0.08306881, 0.04062905, 0.04097312, 0.083789, -0.086800836, -0.080760814, -0.0035575216, -0.007059425, -0.115145616, 0.0051708147, -0.05779585, 0.08652285, 0.05672823, -0.03367314, -0.0068238894, -0.09316856, 0.04740724, -0.031643998, 0.020074418, 0.018330086, -0.058892157, -0.01947305, -0.01976636, 0.020892901, -0.12334031, 0.028878402, -0.024345294, -0.04444212, -0.05584813, -0.08519804, 0.029129952, 0.09276174, 0.051514234, -0.13230726, 0.057084285, 0.15521394, -0.08342222, 0.13346207, 0.16571364, 0.07728051, -0.0480809, -0.089009956, 0.01129215, -0.08791019, -0.057554662, 0.038640693, -0.02897888, -0.009232915, -0.0024945962, 0.04978256, 0.13386649},
{0.033827014, -0.04413368, -0.037321854, 0.041711275, -0.0111604985, -0.09010485, 0.11957211, 0.094270654, -0.072306834, -0.12217038, -0.05755877, 0.018230438, 0.023849318, 0.012854849, 0.098851204, 0.028058752, -0.0101624485, 0.06584635, 0.14396864, 0.05935023, 0.15136667, 0.03226438, -0.10058918, 0.014508139, 0.032175902, 0.081221715, 0.0312943, -0.033780485, -0.10233271, 0.11609239, -0.021696266, -0.07742131, -0.12649895, -0.037827116, 0.06574599, -0.095867634, -0.0023674497, -0.08759033, 0.023225047, -0.046949096, 0.040841244, -0.06589477, 0.062271543, 0.11701403, -0.0866773, -0.017924432, 0.05537331, -0.06733222, -0.04401101, 0.011914312, 0.04431185, -0.027574655, 0.101826355, -0.07513109, -0.09935152, 0.07740128, 0.0319841, -0.033328075, -0.051364016, -0.00061739696, -0.061313406, 0.04189317, -0.041023314, -0.0650061},
{-0.09589476, 0.06781565, 0.13912536, 0.060149923, -0.04040948, -0.037612166, -0.10498661, -0.14155734, 0.08184071, -0.10015886, 0.12400696, 0.03214483, 0.07400914, 0.07828664, 0.06297694, -0.020796116, -0.10414372, 0.0859173, 0.0749168, 0.07705811, 0.11594696, 0.058836415, -0.1454952, -0.10510022, 0.07796617, 0.13199484, 0.058445133, -0.0636158, -0.06783978, 0.01710458, -0.095682144, 0.026328735, -0.07671314, -0.048058823, 0.08450372, -0.10052394, 0.1025896, 0.16216333, -0.07441316, 0.048972405, 0.028775327, -0.06392922, 0.05533454, -0.0709789, 0.0082444, 0.020025266, -0.03482093, -0.018745497, 0.117899366, 0.0433929, 0.036944084, -0.045053747, -0.05720951, 0.10018276, -0.07053159, 0.08403407, 0.014765051, -0.023856614, 0.17347191, -0.05476022, -0.16053447, -0.003232414, 0.0076554655, -0.113908246},
{-0.0049385685, -0.091161415, 0.08212101, 0.13912386, -0.048901316, -0.13018812, -0.007316543, -0.060832594, -0.025500761, -0.022465803, 0.06141104, -0.067571126, -0.073919006, 0.11612656, 0.049795367, -0.04199186, 0.042474274, 0.06453735, -0.14167966, -0.08159486, 0.09695373, 0.040762167, -0.13765012, 0.1702709, 0.038532678, -0.046615593, 0.14414857, -0.072524026, -0.008061858, 0.17646027, 0.0412768, 0.044201955, -0.11311543, -0.10781608, 0.06622913, -0.079825275, -0.06297121, -0.09232492, -0.06925591, 0.029051904, 0.06371602, -0.028368201, -0.0983636, 0.06945939, 0.14675319, 0.1259775, -0.118645124, -0.08684283, -0.013941197, 0.12820409, 0.16434376, 0.0028162608, 0.09221368, -0.16244048, -0.009494295, 0.083162494, 0.074424446, -0.13720168, -0.1997754, -0.1162851, 0.0959869, -0.027109992, -0.025200935, 0.061027974},
{-0.0964754, -0.111982696, -0.0784762, -0.043948893, -0.008948699, 0.075895235, -0.07771988, -0.039529495, 0.035651762, -0.01917662, 0.05363035, -0.0048551164, -0.012629672, -0.011790935, -0.0146651855, 0.13068138, -0.013076096, 0.056004733, 0.10305848, -0.08712528, -0.0085756555, 0.032168277, -0.0932936, 0.0059055216, 0.09643969, -0.035942636, 0.106473155, 0.029611241, -0.0645305, -0.10524081, -0.036589213, -0.09589523, 0.07740989, -0.0056604994, 0.029460758, -0.009138289, 0.090212226, -0.099464275, -0.049343184, -0.0925819, 0.115251616, 0.08732106, 0.029220723, -0.12056144, -0.07926305, 0.057390053, 0.046559025, 0.004498018, -0.05189784, 0.13773818, -0.06706927, 0.0792529, -0.05364501, -0.07860034, 0.12331761, -0.0033349441, -0.13726485, 0.022500753, -0.08405563, 0.06529364, -0.027872546, 0.026620857, 0.11530343, 0.076079346},
{-0.026886668, 0.05265126, -0.033644345, -0.098579444, -0.064470895, -0.0055188374, -0.16067831, 0.027738975, -0.18241297, 0.044233214, 0.047221422, -0.11685817, 0.01949325, -0.06738252, 0.04214771, 0.11115549, 0.015055859, 0.1075309, -0.10534464, 0.08699826, 0.09395621, 0.03032803, 0.044212397, 0.0033552796, 0.023640394, 0.006271559, -0.007280188, -0.08451429, -0.009607126, 0.08341176, -0.11151435, 0.069434024, -0.061656866, -0.026225533, 0.015399796, 0.00097289, -0.025127955, 0.09265036, -0.039974574, 0.051779937, 0.07438367, -0.049739797, -0.08900301, -0.030531969, -0.033336606, 0.020944007, 0.121305816, -0.034461673, -0.028638866, -0.13077234, -0.079449624, -0.0900639, -0.12599093, -0.0958539, 0.03714034, -0.06637849, -0.08516734, -0.04550535, -0.07165152, 0.033816, 0.0093256645, 0.05389102, -0.031670354, 0.15269054},
{0.024048854, 0.022017922, 0.12891644, -0.02939029, -0.0704672, -0.04197199, -0.047271885, 0.0012099661, 0.06944093, -0.045103457, -0.019315176, 0.14382674, 0.009451311, -0.002206409, 0.042707406, -0.03207869, 0.13431506, -0.081256315, 0.09620198, -0.09509799, -0.0005676645, -0.049437307, 0.044777613, 0.0031427694, 0.078083724, 0.13577734, -0.075102784, 0.042192705, 0.028053224, 0.09417851, 0.060265362, 0.057969794, -0.05574071, 0.09420382, 0.09136972, -0.088845715, 0.03705717, -0.05715979, 0.092416115, -0.024874572, -0.16200837, -0.037479542, 0.046853494, 0.042615093, -0.01978207, -0.025898134, 0.044194706, 0.02927421, -0.007147733, -0.11894412, 0.14659642, 0.022978112, 0.0006973056, 0.028681615, 0.06425234, 0.095044486, 0.08993287, 0.14714217, 0.1786472, 0.040819146, 0.0724533, 0.09105522, -0.052444562, -0.07013113},
{-0.0025401, 0.110116296, -0.0017783613, 0.041074738, -0.047557596, 0.076887906, 0.1348443, -0.07352272, -0.09842731, 0.028764209, -0.12478261, 0.058805533, 0.030690433, 0.019835306, 0.025357272, 0.026793065, -0.04501531, -0.053661652, 0.07702782, -0.002430627, 0.14673746, -0.08574718, 0.015944825, -0.066680826, -0.08221786, -0.082002796, -0.07118048, -0.04801857, 0.10970267, -0.024446577, 9.57672e-05, 0.09427913, -0.070533544, 0.0379282, 0.012131186, -0.082982376, -0.062538326, -0.09451141, 0.0032155656, -0.12245577, -0.05050008, 0.11573472, 0.102948934, -0.050676227, -0.11377499, -0.067370504, -0.10239186, -0.045898724, -0.028838709, -0.057093594, 0.10008968, 0.10162559, 0.09574855, -0.071341634, 0.07363314, -0.029567564, -0.022320472, -0.051143084, -0.16100167, -0.026583461, 0.08085692, -0.11022175, 0.07246366, -0.12630413},
{0.0081207575, -0.108375, -0.016516643, -0.07233446, 0.01925522, 0.044578478, -0.08610734, 0.0034746954, 0.15087567, -0.10022534, -0.12120011, 0.1153277, 0.03329214, 0.12412605, 0.09389233, -0.0058676186, -0.1085707, 0.028078698, -0.025708083, 0.014937101, 0.056529656, -0.032010935, 0.06769622, 0.09805089, -0.10787077, 0.084825166, 0.088016085, 0.0040478804, -0.06619575, 0.036578666, 0.006220867, 0.09042435, -0.01682627, -0.03531683, 0.1162034, 0.071415916, 0.083379105, 0.15449037, 0.06734362, 0.02507509, -0.020428767, -0.0121787945, 0.110439315, 0.049611863, -0.08220832, -0.06283884, -0.10455684, -0.02586698, 0.021474743, 0.06836514, 0.07954871, -0.032748777, 0.08919517, 0.1714338, -0.014987094, 0.0008915549, 0.037468005, 0.13411401, 0.008486339, 0.06648691, -0.00051915494, -0.061248783, 0.017515542, -0.07320058},
{0.0133681465, -0.002476171, -0.14320381, 0.08356426, -0.10027444, 0.017571848, -0.101041265, -0.08655934, 0.040585943, 0.0985768, -0.030401183, -0.060659174, 0.092269875, -0.012763378, -0.10157676, 0.15016113, 0.07114932, -0.0031590115, -0.0010384088, 0.059408464, -0.005155957, 0.14962637, 0.02699863, 0.10277928, -0.069410905, -0.009462492, 0.07369017, -0.11736883, 0.053576864, 0.08136437, 0.09275912, -0.14184164, -0.020037612, -0.14145027, 0.15680173, -0.0664245, -0.06464324, -0.0597332, 0.11504057, -0.044186715, 0.044572134, -0.1438035, -0.09852145, 0.0074736336, -0.03544632, 0.081829876, -0.055822384, -0.09771016, 0.006751226, -0.046418507, -0.04095367, 0.033427007, -0.08639922, -0.004735893, 0.013609167, -0.033458367, 0.15434195, -0.13332097, -0.04662999, -0.16530357, -0.13530736, -0.069145426, -0.014057385, -0.15748616},
{0.08559799, 0.041081186, 0.031486247, 0.03617337, 0.08652463, -0.12808183, -0.021637794, -0.075683266, -0.13699438, 0.0054494375, -0.06363254, 0.1055607, 0.049298666, -0.03935961, 0.14298855, -0.074210286, 0.04472273, 0.12296727, -0.07779118, 0.03727267, 0.002004175, 0.07157042, 0.09110118, 0.05426122, -0.083446965, 0.06959734, 0.110461645, -0.105960555, -0.010073536, -0.10621215, 0.037375692, 0.084610514, 0.108701415, 0.045133345, 0.09230625, -0.09221705, -0.11577326, 0.0036969804, -0.0030619162, -0.0059210234, 0.11923765, -0.0662527, 0.049830962, 0.002265387, -0.012891384, -0.1082713, -0.036274146, 0.00091931195, -0.049420986, 0.018029813, 0.15623392, 0.0017271155, -0.062368955, -0.13618225, 0.15251227, 0.051508684, -0.009471355, 0.07511977, 0.044901956, -0.013823774, 0.09290875, 0.036447477, -0.07807304, 0.07107481},
{0.033612408, 0.025458803, 0.1019081, -0.10461076, 0.012803842, 0.11408245, -0.20279041, -0.074292034, -0.097969025, -0.0904545, -0.13709183, -0.052977175, 0.09633225, -0.092901215, -0.118377335, -0.036666814, 0.007645925, -0.043967955, -0.082695395, 0.0812581, 0.0143030565, 0.036085125, 0.11541773, 0.11531758, 0.08403125, -0.082284644, 0.029097091, 0.0713032, -0.10943379, 0.12525879, -0.057219215, -0.044759545, 0.072775476, 0.13071422, 0.026517695, -0.08677046, 0.074282005, 0.08608182, 0.030896943, -0.07989465, 0.12535901, 0.016325707, 0.07147237, -0.14173777, -0.119925536, 0.022616774, 0.06952864, 0.018350983, -0.07721116, 0.033308245, 0.077498384, 0.07144648, -0.097426504, -0.082975544, -0.02386115, -0.09962851, -0.07615768, -0.010556184, -0.051335473, 0.050021794, -0.030318152, -0.07349608, -0.10660197, 0.12117011},
