#ifndef W_H
#define W_H

#define in_n 300
#define l1_n 64
#define l2_n 40
#define l3_n 20
#define l4_n 10

#define out_n 9

float w1[in_n][l1_n] = {{0.14882532, 0.024237877, 0.05053232, 0.059902653, -0.1296496, 0.025099615, 0.0086610075, -0.10026549, -0.011422104, 0.022303112, -0.085720204, -0.10453725, -0.09189581, 0.04453437, -0.03129271, -0.071153075, 0.029779784, 0.040664464, -0.16935878, -0.06974059, -0.027844114, 0.013999867, -0.0958507, 0.05381624, 0.100334436, -0.036634468, 0.09938619, -0.017164985, -0.0054986207, -0.1387582, -0.13079093, -0.12440037, -0.01966391, 0.070507966, -0.045087498, 0.0026516952, 0.16341577, 0.12614876, 0.030795734, 0.028088922, -0.08997737, -0.11799119, 0.044020753, -0.048465356, 0.14247619, -0.10108733, 0.06766425, -0.14971538, -0.07679395, -0.13882536, 0.10658557, -0.11818629, 0.0439907, 0.05230597, -0.033555746, 0.057506245, -0.009711215, -0.13348007, -0.10579011, 0.006960235, 0.07896876, -0.13582851, -0.08605118, 0.07246662},
{0.054439794, 0.051262893, 0.06684741, 0.082408, -0.006446681, 0.016053932, 0.051193934, -0.011324757, 0.03050927, -0.13604648, 0.05101458, -0.018534025, -0.048585426, -0.1433964, 0.090574615, 0.022302961, 0.0968484, 0.009287498, 0.08024899, 0.043411437, -0.0036601035, 0.006868108, -0.07943077, -0.097505584, -0.032973085, 0.082700826, 0.05800981, -0.09126804, -0.0364882, -0.052620813, -0.035355967, 0.0926891, -0.049387172, 0.02534771, -0.06813584, 0.081385635, 0.016710725, 0.025577974, 0.08761346, 0.063911825, 0.10453467, -0.03206387, -0.0028324903, -0.018121395, 0.06901261, 0.023726868, 0.022383997, 0.00022139752, 0.09614999, -0.015733778, 0.110997014, -0.09370225, -0.10310641, -0.102211826, 0.022504043, -0.025178097, -0.0027655119, 0.064905725, -0.03311661, -0.015433004, -0.061861154, 0.088025995, -0.07866348, 0.09516132},
{0.06865953, -0.07702081, -0.025161931, 0.008763696, 0.10953993, 0.030788105, 0.18246233, -0.12568572, -0.030371578, -0.103709124, -0.07612266, 0.12859273, -0.06295857, 0.024060873, -0.0070443554, 0.017614348, 0.016179187, -0.08860734, 0.04920578, 0.006529609, 0.118931614, 0.030590674, -0.026239045, 0.058111932, -0.07900367, -0.08998846, 0.067926556, -0.047739685, -0.13339873, -0.14821227, -0.04664236, -0.04193116, -0.13832246, 0.08253551, 0.12719108, 0.1326818, -0.03362943, -0.09385947, -0.08962183, 0.09598518, -0.041727062, -0.0027305465, 0.10194639, -0.13166416, 0.16291092, 0.02331625, 0.03876449, 0.05990646, 0.09241742, 0.049947813, 0.006887059, 0.16468257, 0.12859702, -0.037407964, -0.13846003, 0.13187851, 0.025175417, 0.026418438, 0.043496933, -0.06606047, -0.017681751, -0.11729562, 0.08710458, -0.059187856},
{0.04410283, -0.12927428, -0.043671507, -0.020657929, -0.005653228, -0.0556342, -0.12276716, -0.018529965, -0.07776238, 0.040237665, -0.06082975, -0.051703185, 0.07125333, -0.007377507, 0.057151977, 0.040327005, 0.12645154, 0.02262151, 0.12678386, 0.10147858, 0.017234707, -0.2070617, 0.042141784, 0.06650797, 0.063222066, 0.059029117, -0.03681976, -0.14010723, -0.031525783, 0.02046738, 0.13065667, -0.022554362, -0.0074126567, -0.18233041, 0.050151467, 0.022755262, 0.025694309, -0.026710879, -0.024450656, -0.01568139, -0.048245437, 0.016681451, -0.050338373, -0.030792488, 0.14761892, -0.014667795, 0.03386959, -0.106274, 0.168917, -0.12505578, 0.13450609, -0.022465091, -0.04329739, -0.018383304, 0.021431046, 0.029830908, -0.010886843, -0.06453153, -0.042956322, 0.06054848, 0.02460059, -0.025690293, 0.094845906, -0.13364002},
{-0.02339784, 0.050285324, 0.08812811, 0.020102704, 0.11738505, 0.023037003, -0.06904791, 0.108736284, 0.021421632, 0.08261313, -0.023163047, -0.07425716, 0.01655884, -0.11076027, 0.06564528, 0.023046536, -0.073246755, -0.046852794, -0.10124849, 0.016883254, -0.04163985, -0.09316906, -0.005403601, 0.093372464, -0.06371238, 0.03620187, -0.01856592, 0.10904019, 0.102950834, -0.07291077, 0.08213839, 0.036941484, -0.072607376, 0.026861235, 0.0456428, 0.10276447, -0.010507558, -0.11101732, 0.029637849, -0.039833374, -0.08083728, -0.10614168, 0.016682148, -0.049148787, -0.07347025, 0.08424159, 0.038461946, -0.0653619, -0.095508516, -0.049449638, 0.08899756, 0.11484294, -0.0028533526, 0.090061076, 0.14982685, 0.08250989, 0.007808305, 0.078793906, 0.0058699516, -0.054258432, -0.07547816, -0.025963044, 0.11998742, 0.09321087},
{-0.057407357, 0.049576852, 0.079375245, -0.0707231, -0.13367508, -0.040957242, 0.043304283, -0.15950172, -0.046037424, -0.022248628, 0.09015394, 0.043863613, 0.11954308, -0.119528525, 0.09438325, -0.013552428, -0.13073729, 0.04743793, -0.038911134, 0.026560895, -0.011122251, 0.06340159, 0.1158664, -0.0536328, 0.008544415, 0.03930257, -0.097428, -0.0029501289, -0.08871635, 0.075094216, 0.0017740951, 0.060528122, -0.13059741, -0.09781522, -0.010833366, -0.031078177, -0.04293552, -0.11364156, -0.08877426, 0.019223614, -0.025145277, -0.0025065208, 0.0016898601, 0.100478984, 0.15307914, 0.067566924, 0.0814208, 0.047410127, -0.03818162, -0.04947011, -0.106970035, -0.01422989, -0.02431521, 0.02126442, 0.019454604, 0.11705166, -0.15664643, -0.13120769, 0.03735941, -0.052034147, -0.08870483, 0.16919427, 0.02293656, 0.04549996},
{0.033585954, -0.078078635, -0.059501704, -0.0690819, -0.08211538, 0.1462179, -0.027821984, 0.04233087, 0.040539656, -0.13298273, 0.15176857, -0.15016076, 0.022923877, -0.06704615, 0.105985984, -0.08548785, 0.00063624664, 0.018001264, 0.034630578, -0.06958718, -0.10454143, 0.047232624, 0.02639606, -0.03683467, -0.09892545, -0.07087485, 0.15188113, 0.0094760535, -0.078591906, -0.14532143, 0.0393801, 0.07805439, 0.02148332, 0.052521076, 0.13626274, 0.017897494, -0.020724665, -0.0049814726, -0.10259404, 0.086062916, -0.10064738, -0.11706754, -0.08837908, -0.10520237, 0.022610785, 0.042683605, 0.016608467, 0.089119256, -0.036560904, -0.006468762, 0.06511624, 0.025255004, -0.13260686, 0.09290142, -0.1002832, 0.041717917, -0.10257219, -0.1458759, 0.09380226, 0.031903286, -0.014614413, 0.09181656, -0.118209004, 0.08184383},
{0.03717675, 0.06646418, 0.069213286, -0.08055947, -0.018940784, -0.12223773, -0.0971701, -0.07171253, 0.015366939, 0.037332904, -0.100127704, 0.020355228, 0.0774121, -0.12584534, 0.13597651, -0.11313674, -0.054109566, 0.040313087, -0.09201519, 0.061641414, -0.017712608, 0.010252901, -0.08492454, -0.014186387, -0.10711362, -0.013521145, 0.058102977, 0.031198356, -0.01567521, 0.051870234, 0.08707778, -0.10053037, -0.05267357, 0.06826023, -0.006661821, -0.016507005, -0.12409282, -0.00081171567, -0.003849464, 0.0044704615, 0.071690336, -0.034581058, 0.042444322, -0.07718113, 0.08867255, 0.09622052, 0.15684755, 0.11035459, 0.059073918, 0.1279259, -0.0055586128, -0.021249559, 0.117361024, 0.017488059, -0.08294389, -0.03601567, 0.064015016, -0.09709398, -0.050902195, 0.07305656, 0.063122936, -0.069263734, 0.023713648, -0.0693141},
{-0.07780576, 0.09998371, -0.011435, -0.09879764, 0.020324688, -0.028574187, 0.00033838386, -0.025798492, 0.03893256, 0.031131689, -0.13058949, -0.0685495, 0.13342501, 0.030038778, 0.00062797184, 0.032162376, 0.089457735, -0.12173377, -0.060556587, 0.10455238, -0.108591706, -0.023545427, 0.016576389, -0.13727719, -0.017507242, 0.13626145, -0.05772561, 0.10679296, 0.10223673, -0.021366594, -0.061902132, -0.054383148, -0.051067304, 0.10013218, 0.02085733, -0.05721173, 0.11191895, -0.033963885, -0.07467042, -0.08309356, -0.11709179, 0.09130873, -0.07745979, 0.06485484, 0.053172473, 0.0027775848, 0.1307193, 0.11417861, -0.07208706, 0.064347446, 0.00621703, 0.13558878, -0.021774238, 0.06508941, 0.08140103, 0.11108998, -0.005945987, 0.095661074, -0.0902218, -0.14877328, -0.035754226, -0.09919081, 0.13975735, -0.1492429},
{0.06774778, -0.15315853, -0.07164597, 0.09876834, 0.08241712, -0.05232173, 0.04525725, 0.045921993, -0.063183844, 0.12541212, 0.08936325, -0.032369394, 0.117972486, -0.084857605, 0.08126348, -0.1335216, -0.0030826884, 0.042476986, -0.08077425, -0.070477106, 0.13079007, -0.11851341, -0.0787467, 0.009067621, -0.0073273145, 0.09967189, -0.045430277, 0.09515745, 0.04096924, -0.11957248, 0.07553605, 0.013056265, -0.13175726, -0.09182521, -0.13941042, 0.08135621, 0.022526516, -0.015254324, -0.08381324, -0.1389565, -0.13097112, 0.09411217, 0.15022285, 0.04165539, -0.044895314, 0.09316089, 0.19618379, 0.024106072, 0.1523508, 0.012200815, 0.008845262, 0.08353556, -0.064450026, -0.05058953, 0.16949119, 0.012461254, -0.1322429, -0.07703204, -0.036599334, -0.094210945, 0.046680924, 0.08161175, 0.040958997, -0.14477718},
{-0.13147873, -0.07136487, -0.016809247, 0.012616855, 0.08723773, -0.042058572, -0.08968503, 0.06323687, 0.06429336, 0.07941012, 0.074388176, -0.05722889, 0.06621527, -0.04919473, -0.07328447, 0.047248665, -0.10887478, -0.09183727, 0.105000086, 0.09052966, 0.015716098, 0.07989742, -0.029164225, 0.11104139, -0.08504584, -0.005278464, 0.11500811, 0.0944001, 0.08558263, -0.003599616, -0.03588892, -0.07061547, 0.0021287722, -0.06443178, 0.095192544, 0.065107554, 0.03494716, -0.13161895, 0.031865034, 0.078636296, -0.025051543, -0.020496674, -0.017499788, 0.08676414, 0.09913552, 0.119282044, 0.07150321, -0.033776622, 0.085331835, -0.041208707, -0.02598153, 0.04164274, 0.15523599, -0.039689377, -0.023391394, 0.047009706, -0.04115264, 0.12856935, 0.05977119, 0.059205838, 0.121379524, 0.024419883, 0.02023482, -0.071101286},
{-0.12360768, -0.14569053, 0.041318327, -0.0052771135, -0.11094614, 0.03401416, 0.011808857, -0.03117469, -0.052205857, 0.09066524, -0.11496024, 0.0016503616, 0.08345362, -0.03405878, 0.17300306, -0.04705271, -0.11196127, -0.12661836, 0.110304974, -0.028651802, 0.05321916, 0.04280101, 0.101932645, -0.11296317, -0.056327533, 0.078862116, -0.062601395, 0.12241306, -0.08036988, 0.015693277, 0.043693736, 0.046606872, -0.12889925, -0.1373755, 0.04514856, 0.07458085, -0.059374962, -0.07575291, -0.0478605, -0.0015351368, 0.05420031, -0.026682511, 0.021636853, 0.06494367, 0.16436039, -0.11454273, 0.13495935, -0.12728435, -0.04771928, -0.06929104, -0.089160696, 0.08183181, -0.0749195, 0.064578824, 0.109520435, -0.12722033, -0.021070404, 0.052533273, -0.13725625, -0.083603844, -0.060626697, 0.19636823, -0.0014127144, -0.072764404},
{0.008598764, 0.055038124, 0.09125896, 0.09542706, -0.010503488, -0.011042106, 0.008903376, -0.030676175, 0.10596369, -0.016686385, 0.12907831, 0.03541462, 0.095870845, 0.05432275, -0.05906195, -0.036471907, -0.106867395, -0.01716006, -0.088071465, 0.056823216, 0.07868746, -0.11867013, -0.04406493, 0.055202257, -0.02459528, -0.08662729, -0.020309983, 0.03222583, 0.016803788, -0.108913586, 0.09993459, -0.055894386, -0.064228244, 0.07127416, 0.13205609, -0.01784406, 0.1345706, 0.0288812, -0.0481529, -0.08405819, -0.07718623, -0.10299952, -0.026473349, -0.083180495, 0.15695624, 0.047254354, -0.10936159, -0.035106704, -0.04949299, -0.13600172, -0.10809363, 0.043387745, -0.004506298, -0.11545487, -0.0046840166, 0.031401854, -0.118945874, -0.051336467, -0.059812177, -0.007441742, -0.02784977, 0.010514792, 0.107003815, 0.03210491},
{-0.015381687, 0.042492256, 0.015525985, 0.03180742, -0.03488906, 0.049144782, -0.038045842, 0.014687411, -0.095981106, 0.06677129, 0.12001834, -0.0065672295, 0.1020167, 0.032674205, 0.12076332, 0.026118087, 0.0041372147, -0.03742443, -0.019902285, 0.09264503, -0.009885438, -0.07043476, 0.029399749, -0.013912881, -0.05091581, 0.043929454, -0.12686071, 0.10364606, -0.0121850055, -0.10122986, 0.0044775, 0.005903473, -0.031062974, -0.015261944, -0.13996284, 0.0678309, -0.13913468, 0.057981007, 0.10004273, 0.04587169, -0.013661752, 0.0042245747, 0.0930172, -0.11385169, -0.070711315, 0.014370584, -0.05239196, -0.03905971, 0.038281504, -0.057272222, -0.013841408, 0.029581621, -0.042144462, -0.057036433, 0.030945439, -0.06445597, 0.038216915, 0.06330413, 0.100576036, 0.007982043, 0.06344595, 0.042109206, 0.16739246, 0.03961711},
{-0.1535466, 0.087432966, 0.039300643, -0.029271344, 0.023258127, 0.11226646, 0.05910046, 0.046299897, 0.06537166, 0.05227462, 0.0990057, 0.112529255, 0.013139129, 0.056149255, -0.060735, -0.1009843, 0.11206723, -0.12922743, 0.11028106, -0.018446848, -0.11536236, 0.05703705, -0.06952449, -0.05095214, 0.09742717, -0.038472183, -0.08244084, -0.03232867, -0.037333194, 0.061104447, -0.020995004, -0.0223676, -0.058764376, 0.0797286, 0.14572623, -0.013145137, -0.0005835143, 0.05557376, -0.0010169925, 0.12462181, -0.05742925, 0.06774702, 0.064781025, -0.030635478, -0.050811682, -0.08527477, 0.16052769, -0.09859924, 0.046246927, -0.060497195, -0.02409205, -0.023430707, -0.037510976, 0.025457649, 0.016454611, -0.0779667, 0.06217151, -0.00012404588, -0.09373769, -0.034571785, 0.098699294, 0.10158756, 0.019820372, -0.112180896},
{0.09885976, -0.17876308, -0.037968952, 0.004119587, -0.061080113, 0.010354178, -0.06828937, -0.11009403, -0.036467165, 0.11416949, 0.10348848, -0.021003822, 0.037515253, -0.06418339, 0.1290929, -0.08027508, 0.008647221, -0.04738953, -0.10361517, 0.16372775, -0.016144063, -0.047252897, -0.06872791, 0.021903846, 0.058046147, -0.10185244, 0.14803533, -0.055195574, 0.016886307, -0.12453631, -0.022366071, -0.06765802, -0.022961566, -0.13500308, 0.105531745, 0.091942124, 0.032960594, 0.03309555, 0.051544413, 0.1067066, 0.027158152, 0.044514805, 0.05095002, 0.06863045, 0.00027026964, 0.06280767, -0.06134142, 0.041141998, 0.14233407, -0.079364814, 0.006745266, -0.015062705, -0.008053041, 0.04719263, 0.12332681, -0.07629071, -0.01628956, 0.04333016, 0.0821301, 0.07481487, 0.10131784, 0.116186716, 0.09900598, -0.14442894},
{-0.013680907, -0.058126293, 0.10502371, -0.017342981, 0.07571175, 0.07001912, -0.028867148, -0.02686564, -0.09576759, -0.080673605, -0.015209472, 0.10093972, -0.0057694097, -0.118447214, 0.01137567, 0.08709947, -0.012937396, -0.010717549, -0.009042679, -0.02937339, 0.08557893, -0.068968944, -0.083041206, 0.08634671, -0.019704, 0.09204936, 0.0610831, 0.012023668, -0.0848069, 0.043256886, -0.11955418, 0.061780125, 0.03416202, -0.19498564, 0.01677516, -0.05146401, 0.054390647, 0.05920746, -0.09507982, -0.09299469, 0.109678045, 0.08250223, -0.05310382, 0.13227764, 0.06249095, -0.060949076, 0.07081448, -0.014431118, 0.06775155, -0.16072373, 0.068881154, -0.13285914, 0.087976985, -0.08446501, -0.05705649, -0.09768392, -0.011106514, 0.15580389, -0.115838386, 0.01346143, 0.008921965, -0.13620779, 0.09542437, 0.16114882},
{-0.08413405, 0.065940335, 0.12495222, -0.05434589, -0.10426752, -0.07991944, 0.06169935, -0.06364795, 0.114589326, 0.0019651146, -0.007279102, 0.11410453, -0.07157699, -0.045927484, -0.0030533725, 0.026826203, -0.01042268, -0.05253679, -0.08548944, 0.030833926, -0.07168698, -0.08769843, 0.00958604, -0.04267185, -0.0006080806, 0.054460373, -0.03369577, 0.054338522, 0.092718944, -0.12915382, 0.11270896, -0.124491915, -0.00998512, -0.051107395, -0.02986322, 0.1507979, -0.119508624, -0.1385816, -0.032953914, -0.049381573, -0.13737515, 0.0117900325, -0.06067851, 0.12553225, 0.15279907, -0.016607253, -0.030285953, -0.02063055, 0.10966019, -0.0019677733, 0.080591, 0.12871152, 0.07760932, -0.09676311, 0.12780552, -0.041105963, -0.11064548, -0.036129076, 0.040430855, 0.066424154, 0.136207, 0.1883881, -0.029177902, 0.06982562},
{0.09015314, -0.102006495, -0.064049326, -0.030103447, 0.015366987, 0.16381063, -0.0901187, 0.0053186826, -0.00048383864, -0.0662, 0.002300164, -0.058232266, 0.14513794, 0.0793444, 0.060657825, -0.07645069, 0.06621894, 0.09424595, 0.0048440476, -0.048909537, -0.1482742, 0.028945262, -0.10165405, -0.07475337, -0.027918102, 0.06156544, 0.17017215, 0.008189002, -0.019263206, -0.075639434, -0.07945544, 0.095312856, 0.07070163, -0.02683095, 0.12526263, -0.048835747, 0.10816581, 0.11200808, -0.014760312, -0.023018442, -0.038660076, 0.082450084, -0.054626435, -0.11135879, 0.09536281, -0.013481178, -0.11866983, -0.10347058, 0.107511714, -0.030327829, 0.06084864, -0.11081903, 0.02138727, -0.15321779, -0.036046695, 0.06995996, 0.0019282672, -0.10828311, 0.023455113, 0.059629265, 0.10600592, 0.00967017, -0.023263121, 0.029447138},
{-0.02453884, 0.11833969, 0.11273873, -0.076475404, -0.033553425, 0.07013941, -0.077435076, 0.08927848, -0.11320163, 0.034010347, 0.08304085, 0.122172855, 0.109953, -0.0010512786, 0.08098342, 0.051641505, -0.04710027, -0.06113009, -0.004765596, 0.11729318, 0.03576545, -0.06315779, -0.056659132, 0.07508541, 0.06003726, 0.07991726, 0.06869515, -0.084504694, -0.047937576, 0.044266965, -0.029447865, -0.033686407, 0.04460937, -0.102618836, -0.13524142, 0.024553275, 0.038044337, 0.042030584, 0.05781506, -0.053927455, -0.024093227, -0.029034095, 0.0031954863, -0.08555092, -0.023703847, 0.016634159, 0.104710974, 0.01045054, 0.0962295, -0.002857223, 0.09272874, -0.0410182, -0.11318684, -0.083233215, 0.099007644, -0.12451178, 0.014339322, 0.14958024, 0.16705042, -0.120917484, -0.01144346, 0.09105992, 0.116883114, -0.02168493},
{-0.08076184, 0.12291717, 0.060679648, -0.01862495, 0.13710052, 0.013537463, -0.08411459, 0.03540732, -0.0952581, 0.10375602, -0.002279386, 0.0020271651, 0.014627955, 0.10025489, -0.04001087, -0.03310754, -0.0047602137, -0.031856466, 0.11014681, 0.116636135, -0.051012646, 0.10118577, -0.07642813, -0.11669612, 0.08866307, -0.005873249, -0.10663119, -0.02142546, 0.043314785, -0.09105099, 0.114305444, -0.06989905, -0.07942112, 0.052679613, 0.14495343, -0.07788331, -0.12644984, 0.004721616, 0.08842514, -0.07972982, -0.081521824, -0.044343468, -0.08788435, 0.017689353, 0.122022055, 0.023801453, 0.04133308, 0.0029542376, -0.012557558, -0.005408656, -0.07650018, 0.007866477, 0.052487936, 0.08151923, -0.09745075, 0.006007328, -0.081276156, 0.003925379, -0.12950711, -0.11018118, -0.040203486, -0.07402055, 0.028404694, -0.08649874},
{-0.11953734, 0.07268789, 0.08408422, -0.0006970324, 0.06354874, 0.078529365, 0.027630147, 0.0032936675, 0.024023013, 0.08383361, -0.041962218, 0.040163457, 0.032230183, 0.10269925, 0.0032466566, 0.08512745, -0.007963221, -0.02981741, -0.025120238, 0.019345919, 0.0768988, -0.15725383, 0.09117851, 0.017807594, 0.15479879, -0.07796632, -0.054565333, -0.104962274, 0.10947307, -0.09038405, 0.041129507, -0.048642725, -0.058161408, -0.16289324, 0.08593925, 0.042424064, 0.07755546, -0.023778832, -0.035554517, -0.06018114, 0.04816014, -0.0403546, 0.09769386, 0.07824855, -0.06361121, -0.080474645, 0.12877397, -0.07671589, 0.113044105, -0.06694687, -0.088704705, -0.10690116, 0.11713797, -0.09410892, -0.054402072, 0.0035974563, -0.15107185, -0.025235672, -0.13734072, -0.11102482, -0.114337005, 0.029186845, 0.03421214, 0.10429209},
{0.08932757, 0.039268237, 0.033775426, 0.038117852, -0.05365315, 0.10363355, -0.101207644, 0.08223434, 0.0039816615, 0.07528832, -0.06618688, 0.056558225, -0.033779785, 0.029260434, -0.09400822, -0.15394036, -0.059468545, -0.05376896, 0.099346094, 0.10347469, 0.048671234, -0.037892208, 0.07560351, -0.03261811, 0.1433879, -0.053437304, 0.12651956, 0.15168023, -0.115325555, -0.08627056, -0.0817096, 0.1431527, -0.054601233, -0.10721538, -0.023596033, -0.090125404, -0.08794727, 0.1039152, -0.019954791, -0.0027194223, 0.028253263, -0.066037275, -0.046034772, 0.0690378, -0.09087892, 0.017883716, 0.10353383, -0.09837423, 0.107228845, -0.10446997, 0.090691134, 0.049252953, 0.13338263, -0.040504273, 0.12310876, 0.07056962, 0.041428845, 0.10194335, -0.11931761, 0.02695381, -0.04555154, 0.04202972, 0.009963659, -0.03307068},
{-0.08319077, -0.13743208, 0.011778224, 0.015331569, -0.043447033, 0.087111965, 0.05468865, -0.08202057, 0.105295375, 0.09335777, 0.039440893, -0.0049386616, 0.00010834065, -0.14347951, -0.06302998, 0.058902856, 0.08101619, -0.08170223, 0.11171907, 0.03800787, -0.03566145, 0.074991554, 0.03270233, -0.11340617, 0.13776223, 0.029717289, -0.079274334, -0.06987291, -0.12697235, 0.04213631, 0.08131182, -0.005246919, -0.018780082, 0.080182746, -0.15297155, -0.104757704, -0.076421544, -0.09552023, 0.09322881, -0.009865498, -0.06223055, 0.044809587, -0.05130617, -0.08039649, 0.07256337, -0.08362527, 0.04865488, -0.10166991, -0.03117917, -0.10057465, 0.14007139, 0.106685035, 0.12036401, -0.13255453, 0.09279231, -0.0150271775, 0.041251242, -0.08220627, 0.0107493615, 0.029831609, 0.08768495, 0.14361922, 0.06834272, -0.043803126},
{0.0865638, 0.02335331, 0.048418526, -0.048474286, 0.05334933, 0.03279862, -0.07801269, -0.08365755, 0.046018194, 0.077874444, -0.028905684, 0.021332128, -0.10216173, 0.088295855, 0.052864794, 0.058768157, -0.108931676, 0.07219981, -0.08985038, -0.016590526, 0.045976095, 0.08382499, 0.11157467, -0.07767403, -0.001302919, 0.068068616, 0.09687105, -0.0055263434, -0.12498866, -0.13149355, 0.1107525, -0.05132396, -0.046159405, -0.0067143394, 0.11121018, 0.012151678, 0.010050287, 0.09582711, 0.11290855, -0.05320235, -0.12450519, -0.027396262, -0.073984236, 0.068280794, 0.16124779, -0.016337737, 0.06369532, -0.1200269, 0.036744945, 0.017389776, -0.09423722, -0.015364869, 0.11486653, -0.06354185, 0.0031404747, -0.1326097, 0.10286338, 0.028798688, -0.0527635, -0.13329256, 0.03873788, -0.10555668, -0.027194425, 0.028380891},
{-0.0070476444, 0.13192031, -0.057400577, 0.09477729, 0.006507077, -0.04897988, 0.049099408, 0.033530053, -0.024697676, 0.02166529, -0.01088084, -0.017248781, -0.0683384, -0.12529254, -0.043952476, -0.07584447, 0.048679862, -0.061504766, 0.08469318, 0.12178266, -0.0440161, 0.04401327, 0.08063934, -0.073774576, -0.109798856, -0.025978846, -0.019221235, 0.05323173, -0.11138745, -0.061870918, -0.059955385, 0.12603799, -0.0962613, 0.007549531, -0.12732828, 0.055394094, 0.047924586, 0.0055379225, -0.115235955, -0.105187446, 0.13065694, -0.027612353, -0.059783783, 0.014085513, 0.012450053, -0.076711684, -0.036955655, -0.07627473, 0.07158681, -0.013850067, 0.06447109, -0.037013274, 0.0061805905, 0.116600014, -0.049898904, 0.028451687, 0.03969835, -0.05761543, 0.15703037, -0.003895835, 0.118176505, 0.064634554, 0.02429011, 0.07865567},
{-0.123245806, 0.061051853, 0.04972866, 0.010153113, -0.07499926, -0.06272881, 0.0064718453, -0.02284502, -0.04004478, 0.013085005, -0.12562418, -0.09914611, 0.009123907, -0.074157804, 0.025758931, 0.04546936, -0.07736085, -0.10549485, 0.06877832, -0.030016903, 0.017874023, 0.027531521, 0.031128734, -0.10914267, 0.14871761, 0.009730049, 0.105563134, 0.09997026, 0.02799912, 0.0878875, 0.043341156, -0.07042906, 0.0884732, 0.07099119, 0.022647163, -0.058872435, -0.03900628, 0.016327461, -0.0230785, 0.027162356, -0.05256789, 0.08292307, 0.12755567, -0.113456234, 0.09558721, 0.073123194, 0.06622418, 0.023380063, 0.015972288, 0.065375194, 0.0077967728, 0.036133874, -0.07335316, 0.04828348, 0.020088559, -0.033525936, 0.0003384588, -0.06517154, -0.06204694, 0.024854971, -0.06625301, 0.057213634, -0.019711936, 0.06560518},
{0.10079542, 0.07435159, 0.04452885, 0.07896303, -0.14006402, -0.016890287, 0.06737078, -0.092345454, 0.02338365, 0.040222377, -0.13825433, 0.11746228, 0.19108653, -0.099654175, 0.08448161, 0.030883258, 0.034075275, -0.053896263, 0.026140941, 0.06531931, 0.116008304, -0.096658476, 0.019554598, -0.06620845, -0.03365405, -0.08217474, 0.07868845, 0.038578074, -0.039152965, -0.043020844, 0.0077761644, -0.12287647, -0.057694536, -0.19175674, -0.10094337, -0.00039784107, -0.06563571, -0.03985445, 0.10897856, -0.035650652, -0.042700086, -0.03201598, 0.048939154, 0.08254896, 0.05550495, -0.060958568, 0.10522636, -0.05776274, 0.10123351, -0.0117783975, 0.06252832, 0.03233168, 0.13355915, -0.07126637, -0.06612563, 0.08761675, 0.10241283, -0.04791894, -0.10678596, -0.09240453, 0.0064450665, -0.058070634, 0.14528315, -0.10161079},
{-0.043352865, 0.0898952, 0.039265025, -0.09258651, -0.0034711296, 0.03641615, 0.00655152, 0.055800676, -0.023275962, -0.03279764, -0.10852399, 0.047020227, -0.14024659, -0.01882739, 0.007889605, 0.09612475, 0.08047729, 0.07154655, -0.1123127, -0.10293253, 0.103531, 0.16965088, 0.0029574928, 0.057414792, -0.081584305, 0.14902696, -0.110907204, 0.04168511, 0.11903887, 0.09377365, 0.02539288, 0.058409683, 0.05640378, -0.022119172, 0.15941708, 0.06270134, -0.027712846, -0.1087281, -0.0076440903, 0.074778326, -0.059167944, -0.13782623, -0.065681435, -0.07153865, 0.0025180858, -0.0787459, -0.00056582363, -0.042276226, -0.053828023, -0.14618163, -0.1439976, -0.11969898, -0.05218142, -0.090189, -0.092999145, -0.07850796, 0.019697856, -0.03265496, -0.10524624, 0.028918067, 0.04661856, -0.018255517, 0.02018652, -0.063173346},
{0.08068221, -0.07357431, -0.08687298, 0.06323314, 0.095693, -0.09010807, -0.0044202753, 0.019911759, 0.13066824, 0.08304027, 0.03903828, -0.028230578, -0.0452119, 0.0166412, 0.08710992, 0.034966663, 0.073977694, 0.08182447, -0.067209855, 0.015240511, 0.048232052, -0.1242329, -0.009411781, 0.102944314, -0.054848053, -0.15134293, -0.111260794, 0.13461192, -0.0038640709, 0.033347003, 0.019536251, 0.043273184, -0.14133582, -0.15618896, -0.041435104, 0.009980354, 0.08116322, 0.03941804, -0.106093116, 0.027538875, 0.06081615, 0.008304826, 0.10565973, 0.020049488, -0.022851849, -0.09636146, 0.09803244, 0.059267193, -0.021087494, -0.042560373, -0.0035516652, 0.09203592, 0.11856695, -0.031800315, 0.041703984, -0.12398, 0.13301216, -0.096882805, -0.07524243, -0.006217346, 0.12793952, -0.069552846, 0.16378063, -0.07956984},
{-0.08911248, 0.008681864, -0.04778185, -0.06874116, -0.06581186, 0.0075154984, -0.10201034, -0.14894527, 0.039649334, 0.009650464, 0.017412517, -0.1124009, -0.025974609, 0.14071718, -0.12407155, -0.037737142, -0.11899406, -0.059405986, -0.040958103, 0.100574896, -0.11115729, -0.026654217, -0.043218996, 0.0595878, 0.0668671, 0.10495248, -0.0071455, -0.020895872, 0.050723128, 0.080725566, 0.14364529, -0.022761086, 0.09680447, -0.0661799, 0.07474466, 0.08115298, 0.08513602, -0.0035888401, 0.015258833, -0.008184604, -0.02760846, -0.14009175, -0.12674722, 0.094827026, 0.03307611, -0.051930252, -0.13637164, -0.10297725, 0.059740447, -0.06543873, 0.08473855, 0.025244134, 0.11436878, -0.08898114, 0.09618489, 0.062270172, -0.08945771, 0.02019855, 0.03251191, 0.014440263, 0.050107885, 0.083915666, -0.12436574, -0.031844936},
{-0.0982413, -0.07319196, -0.076962754, 0.06488008, -0.057439875, -0.028151887, 0.12437827, 0.032392256, 0.04930366, -0.047248024, -0.072517514, 0.03741189, -0.016658345, -0.024093762, 0.113684855, 0.05433204, 0.057168074, -0.027303588, 0.07857407, 0.073084325, -0.017126901, 0.050932333, -0.0061860937, -0.008179304, 0.09665232, 0.009367183, -0.044434752, 0.13310736, 0.08867969, 0.024434287, -0.017661063, 0.05235097, -0.053849023, 0.007985995, -0.053101033, -0.0041000694, 0.025347754, 0.04815648, 0.03051078, -0.042223718, 0.12777628, 0.12363892, 0.12786245, -0.10681704, -0.03192904, 0.08537384, 0.073399805, 0.13773727, 0.06800175, -0.04823099, 0.029420253, 0.11538055, 0.070170686, 0.09571088, 0.031410515, 0.13839199, 0.10503346, 0.008126545, -0.059876468, -0.115535334, -0.12132951, -0.017617473, 0.054524276, 0.04331205},
{0.042962708, 0.10846648, 0.032718047, 0.05589074, -0.045248035, 0.06574908, 0.09091539, 0.07100187, 0.051527005, -0.07619565, 0.033044435, 0.03697136, 0.086991705, -0.089280285, 0.025484711, -0.09284463, 0.048956506, 0.074990205, -0.033193998, 0.025016656, -0.06529936, 0.09268335, -0.041601174, -0.083296515, 0.11179806, 0.11189586, 0.11590815, -0.075591944, 0.087234594, -0.006467855, 0.029836176, -0.110750146, -0.12059932, -0.053264827, -0.018582905, -0.037873425, -0.1012812, -0.014091613, 0.11160834, 0.13096283, 0.03169634, -0.03680356, 0.029237611, 0.031392597, 0.007443069, -0.08098448, -0.048109353, 0.057061967, -0.073526725, 0.079382025, 0.02608523, 0.017297637, -0.052252043, 0.10880601, -0.01366105, 0.118458554, 0.044104952, 0.1028179, 0.08728975, -0.022846578, 0.040578786, 0.024920095, 0.017568493, -0.025423722},
{-0.02551556, 0.068499774, 0.060903244, -0.02718777, 0.020748556, 0.06280805, 0.041341115, -0.13134122, -0.025876986, 0.0022446483, 0.070288844, -0.07513035, -0.0726364, 0.030326797, -0.06352885, -0.09995028, -0.13305594, 0.04754535, -0.07800893, -0.026615476, -0.12065644, 0.05810204, 0.13938378, -0.051209264, 0.02548845, -0.030827401, 0.049290627, -0.11520947, -0.08049561, 0.052227102, -0.11836246, -0.08391324, -0.022278262, 0.0061917105, -0.0779812, -0.12628828, -0.079134315, -0.16887707, 0.047802646, 0.048416723, 0.059243083, 0.15306008, 0.1223852, 0.08488519, 0.05549319, -0.12344534, -0.003158335, 0.080149904, -0.003519724, -0.03112439, -0.047398113, 0.045881305, 0.11781452, 0.059975807, -0.062366243, 0.058507636, -0.11504907, 0.04999457, -0.080558, 0.054065358, -0.0071280515, 0.11281, 0.12909661, 0.041091427},
{-0.025525576, -0.11507643, 0.01925193, -0.004157317, 0.09896768, 0.059395168, 0.02841779, 0.10919799, -0.08027966, 0.015700378, 0.07609973, 0.07523638, 0.07411311, 0.11767377, -0.011779501, -0.0544099, -0.027324641, 0.0859197, -0.04057489, -0.03939461, 0.013932168, 0.08648627, 0.0680778, 0.13826004, 0.08764217, 0.0373704, 0.01559065, 0.030567667, 0.061517593, -0.06585584, -0.05806002, -0.00061656773, 0.063822284, -0.118085496, -0.07097224, 0.038366593, 0.1143579, -0.021705382, -0.11338127, 0.046674497, -0.0034776505, -0.06659475, 0.04654264, 0.05313314, 0.0054862704, 0.16514194, -0.01823807, -0.114417315, 0.11324414, -0.024913164, 0.022352893, 0.009291208, 0.075929984, -0.10173651, 0.041799888, 0.03496879, -0.08048029, 0.050965853, -0.024439504, -0.09083813, 0.069163375, -0.0939291, -0.08854671, -0.059860963},
{0.039701603, 0.04971131, 0.03346331, -0.09885315, -0.018549716, -0.06545965, 0.17832309, 0.012204796, 0.061764993, 0.0339816, 0.086694784, -0.096478, -0.054073535, -0.10542242, 0.047556624, 0.031706214, -0.11115521, -0.0778126, -0.11501886, 0.06603048, -0.09390325, 0.06884346, 0.12896237, -0.09518288, 0.03787571, 0.03484005, -0.057447653, 0.118289605, -0.13097441, -0.12161731, 0.010017025, -0.029600697, -0.11611133, -0.055359, -0.057539016, 0.071947716, 0.10755258, -0.041622046, 0.00028829215, 0.11803762, -0.09481809, 0.12827152, -0.035370875, -0.04904449, -0.024799882, 0.07048238, 0.083680004, -0.0067357025, 0.14858542, 0.050781004, 0.12702508, 0.07266464, 0.14442323, 0.047432378, 0.113118485, -0.007866605, -0.12099861, 0.09325684, -0.0048901844, 0.10854959, -0.10517761, 0.013662856, 0.01768188, -0.068349525},
{-0.06340771, -0.09663896, -0.045364507, -0.10159836, -0.054351248, -0.032600664, 0.06064023, 0.007615838, -0.065316215, -0.07194605, -0.071357876, -0.12882583, 0.09656895, 0.06415683, 0.007911368, -0.035075065, -0.11339012, -0.10131662, -0.1288932, 0.039582144, 0.055291954, -0.0063232505, 0.101471886, -0.008618575, -0.08454145, -0.08366731, 0.117063515, -0.08349668, 0.055666022, 0.015530771, -0.042338, -0.061067052, -0.03113288, -0.13039453, -0.028441047, -0.043712758, -0.07226735, -0.06818987, -0.0694479, 0.13568045, 0.026323985, 0.05578418, 0.10425153, 0.04176333, 0.11366338, -0.07644891, -0.086668715, -0.08150669, -0.079173826, -0.03811706, -0.027487347, -0.033851806, -0.06123111, -0.11480249, -0.028909927, -0.011105023, 0.11549003, 0.0364913, -0.031829227, 0.09060738, -0.028119316, -0.108603716, 0.100427635, 0.030466925},
{-0.025801579, 0.02082105, -0.04190548, -0.041289385, -0.06364319, 0.012560983, -0.06057042, 0.045179393, -0.051264815, 0.14076692, 0.004538854, -0.03491767, -0.02886568, -0.059311174, -0.018921094, 0.012598065, -0.008994267, 0.081610404, 0.06910648, 0.13173118, -0.055508956, -0.06995067, 0.016710974, -0.015154329, -0.065347485, -0.113513626, -0.10128422, -0.09894, 0.0365212, 0.0024348467, 0.025355035, 0.097881556, -0.08022537, -0.11200603, 0.0346331, -0.006265191, -0.0012409389, 0.08653488, 0.0030085272, 0.11777381, 0.11734167, 0.015750883, -0.059256457, -0.09058059, 0.005254148, -0.09500056, 0.12714656, 0.021088785, 0.06051252, 0.056311484, 0.00043465605, -0.06460514, 0.077639945, 0.053627692, 0.015795177, -0.043964677, -0.05042752, 0.060708616, 0.15435025, -0.11243659, -0.10375996, 0.09461542, 0.061173048, -0.07474475},
{-0.09371034, 0.06650659, -0.11049811, 0.03577752, 0.010413937, 0.017823635, -0.0787893, 0.019932095, 0.13178755, -0.1149508, -0.055290073, -0.09975105, 0.017181845, -0.097080424, -0.11498626, 0.055858456, 0.087710604, -0.07890971, 0.08393372, 0.05094621, -0.077024035, 0.08076264, -0.08213109, -0.0037622608, 0.14349164, -0.023413436, -0.063207075, 0.12854262, 0.010603274, -0.10857012, -0.086616345, 0.0035200284, 0.04414417, 0.07866246, -0.06545774, 0.07328262, 0.08471781, 0.08414466, 0.03856455, -0.0759021, -0.10129548, -0.0042928597, 0.01758291, 0.0241575, -0.0768819, -0.02818847, -0.021590447, 0.059652146, -0.047225323, 0.06422854, 0.03792586, 0.011983813, 0.01742307, -0.091684595, -0.09965391, 0.053712867, -0.056844212, 0.010312674, 0.076452166, -0.04043961, 0.0035168508, 0.0421464, 0.022245346, -0.064780354},
{-0.0978835, -0.17491026, -0.04124079, 0.048677623, -0.11459207, 0.0867624, -0.0012365958, -0.12758482, 0.06399829, -0.07761427, 0.024026938, 0.0020818545, 0.15414801, -0.102161825, 0.14411582, 0.07853129, -0.032051977, -0.13639499, -0.09303547, -0.03827047, 0.11543687, -0.05884706, 0.09772757, 0.06588692, 0.031398483, 0.06630525, 0.03071316, -0.02542114, -0.03166512, 0.015735459, 0.0055307276, -0.047822125, 0.053560216, 0.019094585, 0.03981911, 0.10595322, 0.019788727, 0.029415336, -0.047442004, -0.07575155, -0.032808144, 0.078761265, 0.0028402004, -0.03760765, -0.06540779, 0.09636421, 0.07329428, 0.070207685, 0.050103586, 0.007991416, 0.06242715, -0.02532846, -0.06443633, 0.08423476, -0.14278021, 0.04449908, 0.00113386, -0.13445996, -0.07248736, -0.13608123, 0.057699494, 0.14279991, 0.009814082, -0.006105405},
{0.0813234, 0.110248566, 0.015219302, -0.020558212, -0.121160045, 0.1546473, -0.01538871, -0.074854374, -0.045221433, -0.050554316, -0.14934602, -0.12233199, -0.10926614, -0.060881544, 0.09081143, 0.06950426, -0.017066844, 0.0021974645, -0.016042843, 0.13186966, -0.019553576, 0.021889113, 0.12888438, 0.13204223, -0.039675355, 0.019853482, 0.011396888, 0.13243283, -0.011089819, -0.100296244, -0.042370755, 0.09276636, -0.07177385, -0.15500584, 0.1282989, 0.07937485, 0.07929542, -0.008577949, 0.08132177, 0.116242014, -0.0216129, -0.039408468, -0.06977254, 0.084299296, -0.14117116, 0.12589489, 0.019613408, 0.023086198, 0.093401566, -0.015624225, 0.022841644, -0.13055182, 0.042480618, -0.05551875, -0.09367007, 0.0445636, 0.106371716, 0.074578285, -0.048174676, -0.052944884, 0.014537195, -0.063986756, 0.13623048, 0.062174268},
{0.049341194, -0.15748708, 0.06137666, 0.10612355, 0.02019689, 0.07349824, 0.093883164, -0.0053497865, -0.054387897, 0.12567087, 0.008594827, -0.10887043, -0.052618105, 0.07097482, 0.18203646, -0.111669905, -0.11701132, -0.14716098, -0.10257127, 0.10374857, 0.09819457, 0.039587904, 0.020409767, 0.069601156, -0.13813135, 0.01475764, -0.043956168, 0.022056503, -0.05242142, -0.09112508, -0.024049852, 0.12678137, -0.04812283, -0.035595186, -0.021403786, -0.067599, 0.045372106, -0.05465899, -0.08952458, 0.00963347, -0.08577176, 0.061596468, -0.07565578, 0.07278656, 0.11181228, -0.13204907, 0.0245402, -0.016193235, 0.010308538, 0.033085506, 0.12272455, 0.109427564, -0.013215044, 0.12399875, 0.11360884, -0.11410796, 0.11639757, 0.10378296, -0.04129063, 0.0008607019, 0.100580946, -0.051941276, 0.1230616, -0.05285415},
{-0.09767845, -0.057312872, 0.009018071, -0.03669309, -0.11457463, -0.03296679, 0.14535464, -0.095306225, -0.025306545, -0.019418558, 0.11229886, -0.006226289, -0.053188957, -0.01631165, 0.044384032, 0.06089669, -0.028714268, 0.038371213, -0.010350807, 0.1289646, 0.091647044, -0.062794544, 0.07768756, -0.10071375, -0.113762, 0.06688506, 0.12555571, -0.10801065, 0.0201143, -0.015702045, -0.103310056, 0.071993284, 0.11001248, -0.0028898385, 0.047187675, 0.103158146, -0.07235978, -0.09148391, -0.055092003, -0.043529563, -0.013976212, 0.0054195044, -0.053629797, 0.047625825, -0.0005739741, -0.080110386, 0.08542929, -0.13213058, 0.07769568, -0.03483412, 0.10089289, -0.13085374, -0.059408188, 0.019473167, 0.011628261, 0.089896165, -0.10000637, 0.039123602, 0.04417019, -0.018052775, 0.048147324, -0.08307115, -0.118153535, -0.0067677377},
{0.060163964, -0.04339027, 0.086326815, -0.13772124, 0.10994773, 0.0974317, 0.06420072, 0.06955716, 0.034953337, 0.056005895, 0.09554435, 0.075606726, -0.00378831, 0.09435498, -0.028668078, -0.09903764, 0.076125436, -0.0044578314, 0.083220765, -0.02249667, -0.091378845, -0.0038719864, 0.006015843, 0.09212427, 0.07599923, -0.017052976, -0.011578129, 0.045004234, 0.07930902, 0.11073118, 0.055845276, -0.07603476, 0.03990665, -0.0738736, -0.0014378625, 0.07130495, -0.10229407, 0.065804854, -0.12973848, 0.09566137, -0.019197216, -0.058516517, -0.016840678, -0.061700393, 0.024506455, 0.09509999, 0.14007069, -0.018336203, 0.043797575, 0.061195344, 0.024924776, 0.0046586026, -0.0014795, 0.0645603, 0.054313034, 0.04794213, 0.06538018, -0.073012754, 0.15048629, 0.075965375, -0.09579224, -0.11926918, 0.09739058, 0.08683518},
{0.0531536, 0.00016925816, 0.035494078, -0.06758907, 0.026295135, -0.078374095, 0.020087836, -0.055284932, 0.14921458, -0.024228426, -0.07126289, 0.029745221, -0.01602696, 0.06404393, 0.12449141, 0.02009635, 0.12374101, -0.08191782, 0.07478512, 0.1096889, 0.11711555, 0.080402225, 0.030252323, 0.12561618, 0.14515892, -0.08358556, -0.08866254, 0.10226671, -0.027495516, -0.11750513, 0.11983988, -0.04412675, 0.015511079, 0.008152905, -0.058686566, 0.11031769, -0.123629816, 0.007243568, -0.09265953, -0.022983825, 0.03964895, 0.0468781, -0.050799347, 0.105451085, -0.012587784, -0.02496789, 0.09178945, 0.06671941, -0.02661756, 0.11850725, 0.1589867, -0.040545214, 0.090356715, 0.10881076, -0.07174535, -0.042457744, 0.02817988, -0.0694854, 0.017076595, -0.0952951, 0.1251644, -0.04811912, -0.02191529, -0.022174297},
{-0.005064453, -0.07721456, 0.021652283, -0.14310226, 0.038957674, 0.057582058, -0.11008094, 0.039640367, 0.036845066, 0.0077233203, -0.09004552, 0.05639508, 0.03598056, -0.048676644, 0.047041416, -0.10015426, 0.07030736, -0.092979595, -0.1004277, -0.011678604, 0.031993758, -0.12220184, 0.073504664, -0.058475953, -0.038832568, 0.05903023, -0.096545435, -0.0109596895, 0.103909165, -0.11844187, -0.0043265605, -0.13403176, -0.02281541, -0.032377344, 0.02746395, 0.041003406, 0.054174427, 0.010305799, 0.122961424, -0.0471737, 0.02409226, 0.07286993, -0.04356825, -0.017929561, -0.049586557, 0.12154393, -0.010053683, -0.02904245, -0.10264832, 0.069375746, -0.15264043, 0.12219158, 0.09445085, -0.090235144, -0.0028462172, -0.024367686, 0.050571736, -0.11502939, 0.03817441, 0.10497994, -0.036892273, -0.060699254, 0.03197915, -0.100668855},
{-0.03727423, -0.11436102, 0.13940056, -0.05652656, 0.116387725, 0.12694018, -0.10754779, -0.042319514, 0.009239004, 0.12825742, -0.013433679, 0.10983683, -0.13370775, 0.12587485, 0.08826698, -0.05358784, 0.05377279, -0.006350369, 0.087884806, 0.002017619, 0.0504794, -0.0005702074, 0.048396163, -0.082871474, 0.021786232, 0.097729385, -0.05013222, 0.01586987, -0.09008633, -0.04196457, -0.08382196, -0.0064085503, 0.047989715, -0.096995756, -0.03594851, 0.094834805, 0.031512264, -0.14700356, 0.045404196, 0.07659123, 0.11369746, -0.035297614, -0.062285755, -0.074837215, 0.07845524, 0.054771896, 0.04119836, -0.004433544, 0.12688209, -0.108502135, -0.09202657, -0.112384304, 0.001029026, -0.014818093, 0.04462746, -0.03418591, 0.026246417, 0.16213754, -0.15185834, 0.039824754, -0.019247102, 0.005163263, 0.07571604, 0.05809423},
{-0.020861411, 0.08204314, -0.086815044, 0.017146634, -0.030402863, 0.012576693, 0.053628422, -0.05358905, -0.08695311, 0.076757275, 0.09979688, -0.059415042, 0.08905235, 0.085447945, 0.033612438, -0.089829534, -0.05316197, -0.14647791, 0.08694543, 0.1473249, -0.14066823, 0.014527002, 0.083624065, 0.04178093, -0.04389638, -0.016585262, -0.08264093, -0.027469158, 0.034779936, 0.034170948, -0.11777891, 0.0419347, -0.037916284, -0.06809398, 0.036063444, 0.105545655, 0.0472631, 0.036490865, 0.068487264, 0.113843344, 0.07171008, 0.093494765, 0.0091076335, -0.09130662, -0.112117454, -0.08536336, -0.02465984, 0.013644377, 0.08339137, -0.004175138, 0.026355563, 0.11353465, -0.024603218, -0.01381379, 0.13972883, 0.1307996, 0.0028517973, -0.011915046, -0.11038577, 0.00900932, 0.11017164, -0.055380702, 0.029823542, -0.1038367},
{0.0073336787, -0.020827612, -0.08511005, -0.09051168, -0.04357372, -0.058869395, 0.05828057, -0.061113987, -0.09748457, -0.05189249, 0.065069586, -0.16480082, -0.06765542, 0.13001807, -0.11112063, 0.072985314, 0.00683105, -0.051404852, -0.062181283, 0.0118570905, 0.028266102, -0.043816783, -0.029709049, -0.03726573, 0.0011537732, -0.1406246, -0.045708712, 0.087970674, -0.037569918, -0.07511427, -0.059031907, -0.13018906, -0.11568069, 0.07810199, -0.07308134, -0.108884834, -0.096278846, -0.011668655, 0.042256404, 0.19100708, -0.04473865, -0.11061906, 0.02216726, -0.10818979, 0.041567598, 0.069223635, -0.022372082, -0.026934452, -0.029941233, -0.004215798, 0.114343986, -0.14060333, 0.07638393, -0.04638171, 0.060748037, -0.040979072, -0.060861282, -0.10684075, -0.11177853, -0.010891568, -0.05393393, 0.09158523, 0.084609196, 0.13816161},
{0.08993004, 0.006729412, -0.0075649163, 0.09959014, 0.06387081, 0.113646954, -0.108892985, -0.031685114, -0.113319896, -0.0027276843, -0.14786421, 0.06238754, -0.05178437, 0.071325846, 0.029741319, 0.024279036, 0.16150023, -0.04216351, -0.097981595, 0.11212734, 0.06613157, 0.02093089, -0.016458064, -0.1325176, -0.03631756, -0.10332506, 0.018706031, -0.013499961, -0.029975291, -0.056486942, -0.0024988903, -0.031215383, 0.039040163, 0.03108258, 0.048128694, 0.0013868614, 0.047765065, 0.10039543, -0.13601044, -0.11792173, 0.047035325, -0.07850673, 0.07154194, 0.03137608, 0.058414627, -0.054177098, 0.111381784, 0.010726069, 0.14283356, -0.004277678, -0.0407932, -0.041408066, -0.009048525, 0.084609464, -0.09695349, 0.06471087, 0.009083702, 0.0313391, 0.030741714, 0.072570145, -0.037387613, -0.118490055, 0.11726863, 0.13832533},
{-0.091513924, 0.0012251146, -0.12949221, 0.058221374, -0.11568946, 0.12727346, -0.07845026, 0.036064647, -0.05614711, -0.1047093, -0.10525881, -0.009612193, -0.11084759, 0.14302999, 0.0101530515, -0.0571265, -0.07261611, 0.08380325, -0.09495335, -0.109936275, 0.06845986, 0.09579209, -0.1501413, -0.002811463, -0.062142953, 0.04246132, -0.018621283, -0.118225165, -0.10488789, -0.110520594, -0.01434556, -0.016708205, 0.1035101, 0.14564715, 0.08877988, -0.049815897, -0.08422454, -0.1062779, -0.07983573, -0.016116988, -0.13450208, -0.061627954, 0.013045968, 0.07033026, -0.07378313, -0.12680855, 0.12149346, -0.0259683, 0.0068347207, 0.054259215, 0.0072358246, 0.1064744, 0.15700725, -0.005884572, 0.05624946, 0.03981998, 0.14249031, -0.01897644, -0.006645437, -0.11241087, 0.114843935, 0.0227674, 0.057223376, -0.13183546},
{-0.072268315, 0.041299716, 0.009977351, -0.020085787, -0.07492765, -0.040021516, 0.029638194, 0.08408269, -0.025040984, 0.046463463, 0.073510595, 0.12817512, -0.015412657, 0.020011177, -0.053473044, -0.009007256, 0.06346774, -0.020156827, 0.06578324, 0.0027415527, -0.10976425, -0.12307556, -0.018214254, -0.026944036, 0.13231206, 0.053632263, 0.09219513, -0.04259172, -0.021317227, 0.07241061, 0.034951378, 0.07375455, -0.034979694, -0.03048811, -0.012028118, -0.06182628, 0.121875264, 0.004302132, -0.09374022, -0.041552395, -0.025262527, 0.12618096, 0.020573119, 0.12142512, 0.1482121, -0.07226502, 0.018725244, 0.045205735, -0.00014036115, 0.06269645, 0.07806081, 0.13285416, 0.10761857, -0.10446618, 0.045869697, -0.07983359, 0.11561867, -0.035534054, 0.016594755, 0.07818762, -0.091358475, 0.06993853, -0.050402645, 0.08260287},
{-0.08966859, -0.052754547, -0.078331985, 0.05914763, 0.06782923, -0.066315256, -0.11943559, 0.051021215, -0.08018132, 0.11511506, 0.048414346, 0.07269194, -0.01652268, -0.0940657, 0.097561315, 0.09313746, -0.016553722, -0.05117341, -0.1062355, -0.06670651, -0.10231935, 0.032986797, 0.09608906, 0.053142365, 0.11598043, 0.17713125, 0.085278854, 0.06559307, -0.08825716, -0.0015565156, -0.13457333, 0.09112645, -0.107784845, -0.05058888, -0.0943523, -0.061305154, -0.09290377, -0.18328924, 0.071732745, -0.10579769, 0.008373954, 0.0025525808, 0.116810106, 0.04482674, 0.10700203, 0.021628933, 0.09727737, 0.010735804, 0.003163813, -0.0068278923, -0.13306847, 0.032742847, 0.10383824, 0.03251089, -0.12260003, -0.10819425, 0.13349934, -0.016416362, -0.10859081, 0.012308605, -0.007686022, -0.0125547, 0.033553146, 0.08224105},
{0.04931771, 0.00798537, 0.027420403, 0.0019833806, -0.104931846, 0.012186356, 0.021069642, 0.094072066, -0.10072462, -0.105794504, -0.038796395, 0.083273485, 0.03567811, -0.07163407, 0.17041177, -0.114966325, 0.10176042, 0.0076853833, -0.0853627, 0.039465737, 0.07253424, -0.063682266, -0.083263956, 0.0800665, -0.12764068, -0.13761912, -0.015648717, -0.0070413738, 0.051640324, -0.07159998, -0.12782273, -0.112341054, -0.09559158, -0.10568398, 0.100968875, 0.01890289, -0.0015927526, -0.0104150325, -0.009945877, -0.08354675, -0.016769968, 0.048550066, -0.049141657, 0.105240494, -0.03659568, -0.13774064, 0.15033099, -0.02463465, 0.059262544, 0.021810034, -0.033371814, -0.039113473, 0.016425593, -0.02639539, -0.10385776, 0.07525061, 0.07567843, -0.085573815, -0.0020487176, -0.0033817042, 0.08550854, 0.018794402, -0.010560428, -0.013576052},
{-0.15469715, 0.054756004, 0.0955978, -0.10536014, -0.025506116, 0.16131008, -0.07078938, 0.1279448, 0.13687804, 0.013776864, 0.103162006, -0.015919635, -0.026192745, 0.06819178, 0.051853772, 0.037881844, -0.04012567, 0.09874368, 0.022688322, 0.06978331, -0.034880444, -0.049834214, -0.052738097, -0.14459585, -0.049477838, -0.069787845, 0.030073708, -0.13669536, -0.08644668, 0.005267358, 0.02338992, 0.036507893, -0.009373362, -0.1410192, 0.110415824, -0.090858504, -0.05504635, 0.04887951, 0.03537285, 0.08168148, -0.05318225, 0.008805118, -0.07418946, 0.10743975, 0.07664494, -0.11555007, 0.008020397, -0.014314046, -0.013913639, -0.117651135, 0.12309126, 0.050851386, 0.03638316, -0.07058368, 0.13664232, -0.015386019, -0.057922944, 0.044867408, 0.015255352, -0.035089184, 0.13707674, -0.036605127, 0.039094184, -0.066361725},
{0.04651414, 0.012863344, 0.061815687, 0.00906635, 0.12614542, -0.062334057, -0.04108145, -0.011363527, -0.031934623, 0.03346113, -0.061977874, -0.09890814, 0.05395812, -0.002804562, 0.10707062, 0.023601076, -0.06615637, 0.06042141, 0.0012001647, 0.085569695, 0.06637138, -0.027775826, 0.1430904, -0.12254819, 0.09849811, -0.087385684, -0.076661296, -0.03564106, -0.1265081, -0.0012283326, 0.038930364, -0.02386608, -0.059671924, 0.12794656, 0.052868225, 0.12210028, 0.043305818, -0.029630123, -0.0056174584, 0.026323747, 0.09968889, 0.11341849, 0.009655454, -0.04198428, 0.103444874, -0.041921772, 0.04108622, 0.02757277, 0.10828577, -0.00015899148, -0.059102196, -0.039835624, 0.07075544, 0.081884325, -0.104624204, -0.097258605, 0.06592991, -0.0025354142, 0.119603224, 0.047920655, 0.07971781, 0.048540786, 0.14753431, -0.06466692},
{-0.005091912, 0.08657508, 0.10836953, 0.0994371, -0.06529969, -0.10607682, -0.046128552, -0.054164227, -0.06996444, -0.01594774, 0.042157624, -0.07655481, 0.011269611, -0.0031271698, 0.094933905, 0.02120708, 0.008284339, 0.05361761, 0.013714005, -0.09760849, 0.025198668, -0.0091013685, -0.026028622, 0.08251083, 0.14169197, 0.09660619, -0.022491487, -0.055787005, 0.023868881, -0.13493942, 0.037036452, -0.11062566, -0.06386056, 0.15420677, 0.015561535, -0.08543294, 0.052786052, -0.03247987, 0.05383699, -0.02995659, -0.082062066, -0.022729823, -0.0063793007, 0.03278292, -0.03411873, -0.025971845, 0.13912202, -0.048376348, 0.025215985, 0.15981726, 0.11712693, 0.037766214, -0.04208056, -0.096219964, -0.12070439, 0.0290136, 0.02162265, -0.024523009, 0.022962397, -0.05041699, 0.11576563, -0.0775943, 0.13353086, -0.04124935},
{-0.1256192, -0.12486123, 0.19073029, 0.01245793, -0.027363248, -0.08722429, -0.05018774, -0.045984726, 0.016299713, 0.03397933, 0.042575844, 0.04759009, 0.059198216, 0.02632155, 0.12585534, -0.10032093, 0.032476235, -0.07448091, -0.10075861, -0.041275155, -0.14824899, 0.05912046, 0.11007558, -0.14785162, 0.12887987, -0.06803651, -0.08013599, -0.056030046, -0.036421042, -0.13436702, 0.053227656, -0.03293629, 0.06177626, -0.09283759, -0.055298164, -0.07321916, -0.09723529, -0.011609887, 0.066380024, -0.0711289, -0.006823208, -0.087341696, -0.053365894, -0.015719622, 0.1639025, -0.07815334, 0.03215555, 8.516216e-05, -0.052384242, 0.13362241, -0.0018217304, -0.079376146, -0.06063165, -0.097144894, 0.08624768, 0.03757435, -0.014329195, 0.09269772, -0.09480708, -0.043022633, -0.060208734, 0.15978894, -0.06888501, 0.064338356},
{-0.1202533, -0.10237669, -0.059531435, -0.10911977, -0.02707649, 0.011454322, -0.047103334, -0.09046454, -0.02250341, 0.08379226, -0.04972824, -0.065457724, -0.12042051, -0.092783675, -0.079362355, -0.094548054, -0.07614351, -0.080800846, 0.027768822, 0.03042308, -0.140413, 0.114534795, 0.12204995, -0.0040677735, -0.06995702, 0.12678902, 0.10694794, 0.123207994, -0.02954628, -0.10714299, -0.025804438, 0.12225462, -0.026590466, 0.037331548, 0.03341227, 0.077537484, 0.060240008, -0.16318977, 0.022786025, -0.07610485, -0.023991557, -0.09754713, -0.002899385, 0.0051552504, 0.019657835, 0.07473401, 0.15041031, -0.08268144, -0.071792156, -0.06098406, -0.024972748, -0.073040895, 0.012722747, -0.08431151, 0.106172465, 0.050469775, -0.047124255, 0.06969111, 0.06313066, -0.011594487, 0.12558115, 0.06108283, -0.040860705, 0.016806912},
{-0.08399872, -0.053334847, -0.0641313, 0.05815421, -0.050626393, 0.08577545, 0.08807987, -0.037845585, 0.13110436, 0.10785684, 0.013345293, 0.03255029, -0.110847495, 0.006477074, 0.012960168, -0.052640907, -0.1056268, -0.03425696, -0.090825535, -0.036803216, 0.06703124, 0.0104387775, -0.01867346, 0.074925855, -0.11809553, 0.08821977, 0.04215944, 0.017301967, -0.03358807, -0.09676555, 0.01908264, -0.10143749, 0.09119879, -0.03418753, -0.12971343, -0.0650816, 0.007977714, -0.080490105, -0.1311603, -0.052343085, -0.04390083, 0.18280825, -0.041790467, 0.09970795, 0.011243384, -0.07927637, -0.0066921893, -0.048819076, -0.057217564, -0.11633479, 0.1257224, -0.016430857, 0.09080907, 0.16503175, -0.08420239, 0.010590704, 0.058859915, -0.06576062, 0.08314656, 0.06779023, 0.03377714, -0.06266328, 0.11302801, -0.04245215},
{0.051012997, -0.0806097, 0.13693464, 0.023699839, 0.11317608, 0.057183843, -0.0567997, 0.0043861372, 0.07933317, -0.11052783, 0.06074547, -0.069124416, -0.0063353158, -0.015429942, -0.039300524, -0.0718034, -0.005420359, 0.06560452, 0.003966431, 0.049557973, -0.042944554, -0.07020919, -0.010057558, -0.09930338, 0.09682716, -0.061839025, 0.11829017, -0.04183627, 0.026565801, 0.071221784, 0.09817423, -0.12978563, -0.057983354, 0.047170833, -0.05378814, -0.0020942753, -0.09048052, -0.087096564, -0.11087047, -0.056825645, -0.06218977, 0.13215868, -0.009193729, 0.0845829, -0.038971145, -0.03616314, 0.11610601, -0.090611495, 0.17578481, -0.15535277, -0.085450925, -0.056575093, -0.123632155, 0.029155554, 0.05289477, 0.04596504, 0.12332424, -0.092414916, -0.118019044, 0.042009827, 0.002826382, 0.019496398, -0.008080917, 0.11269995},
{0.047434807, 0.13202038, 0.056932613, -0.017964542, 0.080101795, 0.038610347, -0.028706508, -0.05845766, -0.12863019, -0.008500335, 0.01971676, -0.029890496, 0.056937616, -0.065644085, -0.08365447, -0.04605176, 0.019793157, -0.0124794375, -0.06926602, -0.03588038, -0.10078121, 0.008765979, -0.006655719, -0.1076812, -0.104199186, 0.059012003, -0.11899255, 0.08811063, -0.062375624, 0.048810214, 0.062455583, -0.008199976, -0.109513104, 0.0140828425, -0.12812725, 0.012148398, -0.002539676, -0.03854724, 0.08419825, -0.06810086, -0.037409794, -0.0669139, 0.13030802, -0.101799086, 0.097178325, -0.053071234, 0.11072845, 0.0023107943, -0.05682585, -0.037757277, 0.04504157, 0.07419045, 0.020288164, 0.12122795, 0.087579966, -0.011755133, 0.065695316, -0.045311194, -0.004247974, 0.054283254, -0.09216532, 0.04624559, 0.060929704, -0.05204358},
{-0.12799679, -0.0069451947, 0.0324249, -0.049931116, -0.018205471, -0.040145338, -0.01916546, 0.030852553, 0.08288019, 0.06034148, -0.025262585, -0.042245656, 0.07505894, 0.13448487, 0.08969705, -0.04408669, 0.007804598, 0.08533667, -0.02373915, 0.118079446, -0.04754507, 0.00725842, -0.07802735, -0.0309696, -0.028815012, 0.005731405, -0.07895393, 0.028909825, -0.015674265, -0.105326414, -0.058664665, -0.0859037, -0.11744701, 0.1006871, 0.07391288, -0.11072253, 0.008186588, 0.08181745, -0.013567365, 0.050076723, 0.06325614, 0.051966976, 0.013439107, -0.043320157, -0.08318321, 0.0479651, 0.13008823, -0.06626809, 0.1213188, 0.0355807, 0.14704537, 0.021343555, 0.16074388, -0.0053011617, -0.048702016, -0.025100002, -0.055458136, -0.017255733, -0.025029033, 0.07810225, -0.0313816, 0.017393734, 0.14995441, 0.07525503},
{0.0642382, 0.100389846, -0.0062131756, 0.009002654, 0.042379208, -0.024898719, -0.04925353, -0.01616693, 0.0731485, -0.016339201, 0.016825808, 0.002184277, 0.0004583964, 0.03266579, 0.12752609, 0.06855406, -0.106867075, 0.0035227744, 0.025931412, -0.09670965, 0.01620771, -0.086649, -0.11527508, -0.061983764, -0.045825887, 0.09229679, -0.035460588, 0.09671701, 0.018242516, -0.11697512, 0.002762533, -0.13347815, -0.12669435, 0.009678817, 0.022910299, 0.022677451, -0.035186708, -0.16162348, 0.07215139, -0.029981526, 0.060146302, 0.103098914, 0.09928567, 0.07085044, -0.023984808, 0.113251515, 0.11853097, 0.047303453, 0.09444139, 0.090442255, 0.12282921, 0.006864116, 0.124946475, 0.11583232, 0.02091006, 0.008647558, 0.03055705, -0.11366323, -0.07065239, 0.06767522, 0.0151393805, 0.09442005, 0.016855353, -0.049951475},
{-0.08781297, 0.006783281, 0.009943102, -0.11268757, -0.059706796, 0.0069190874, 0.019958971, 0.06354052, -0.005667991, 0.0043207537, -0.07582314, -0.029355412, -0.035045575, 0.0053702244, 0.055536572, -0.09967482, -0.048347294, 0.019413566, 0.07099004, -0.011942771, -0.122557186, 0.11256167, 0.027571663, 0.09428425, -0.054920733, 0.15730458, -0.0935081, 0.03612888, -0.030878402, 0.075310886, -0.075792484, -0.05308275, -0.015504394, -0.019949058, 0.10263712, -0.017917411, -0.073311254, -0.027053874, 0.12644814, -0.11013426, 0.07914728, 0.017382381, 0.053914554, -0.0704736, 0.10738669, -0.003954691, -0.07634863, 0.017493466, 0.1188444, -0.09409079, -0.059935197, -0.06819912, 0.0038944606, -0.07412264, 0.118551396, 0.022968853, 0.07173945, -0.012332045, 0.03434852, -0.07691393, 0.07524858, -0.107695825, -0.06754096, 0.08149181},
{-0.071007565, 0.08976821, 0.013762821, 0.09539949, 0.10248507, 0.08454329, -0.008100727, 0.025014432, -0.03421611, 0.096605405, 0.1403875, 0.056053627, 0.017667856, 0.12817052, -0.019031154, 0.04754834, 0.0030953458, 0.022134399, -0.03141707, -0.08800694, -0.024426267, 0.011717504, 0.06251314, 0.04185417, 0.08143929, 0.067668654, 0.029389553, 0.03619794, -0.0068690307, -0.07290581, 0.07198996, -0.1159749, -0.055926982, -0.032554038, -0.0444954, 0.14157175, -0.053539287, -0.104326434, 0.029157424, 0.092637345, -0.10328186, 0.029038073, 0.101658866, -0.0856644, -0.007032907, 0.037296407, 0.005520889, 0.04958947, 0.12611929, -0.09785756, -0.033312894, -0.06258273, -0.066698305, 0.15508507, 0.09508248, 0.06249311, 0.027944842, -0.008239802, -0.002545479, 0.079894364, 0.11324291, 0.07898972, -0.047972135, -0.11758309},
{-0.037434686, -0.14715767, -0.0409211, -0.06526794, 0.072007306, 0.17379121, 0.119942196, 0.15307692, 0.11760605, 0.017143466, 0.015078275, -0.062838525, -0.057587367, -0.009413731, -0.04338131, 0.06806234, -0.0633316, -0.01738542, 0.07822391, -0.05028669, 0.07635722, -0.1098905, -0.0076186233, 0.09608947, -0.12198042, 0.03869284, -0.050141335, 0.02615455, -0.13115172, -0.09935635, -0.115049966, 0.026927002, -0.011790114, -0.039971083, -0.014968125, -0.10070137, -0.038063835, 0.12837029, -0.061211053, 0.0015022918, 0.041556537, -0.039586205, 0.048209243, 0.047010083, 0.04177472, 0.060205758, -0.03976247, -0.101927415, 0.098851934, -0.15034385, 0.030925788, -0.08287289, -0.054739837, -0.060273048, -0.025378397, -0.088518575, 0.10418347, -0.051368643, -0.08656679, 0.0908244, -0.11783482, -0.02538989, 0.11090624, 0.03305349},
{-0.03892646, 0.11277334, -0.0061629023, -0.0031122281, 0.05268512, -0.14532608, 0.0983332, -0.07614445, -0.054804277, 0.0021491675, -0.10186843, -0.11104112, 0.117537, 0.07041076, -0.06673935, 0.018255657, 0.025532011, 0.03609358, -0.024625862, 0.05474298, -0.08838749, 0.006368135, 0.013346655, -0.018243255, -0.12915011, -0.008340008, -0.060076036, 0.12909669, 0.038596682, -0.07051101, 0.001429663, 0.11030426, -0.018605256, 0.0483443, -0.007311835, -0.06320533, 0.06668415, 0.10642382, 0.092646964, -0.08651835, -0.0688983, 0.031574316, -0.026329037, 0.099749975, 0.124896325, -0.030977136, -0.055684224, -0.09532129, -0.101540424, 0.03379155, -0.05187567, 0.057239387, 0.060581945, -0.06861493, -0.038490485, 0.06554412, -0.1047682, 0.049024526, 0.08142539, 0.029195908, 0.10342394, 0.1273263, -0.066263415, 0.07519777},
{0.014938844, -0.05648361, 0.007600697, -0.06273157, 0.043548718, 0.067389436, -0.12248339, 0.0008141673, -0.008648056, -0.026610732, -0.0150481025, 0.045868833, 0.07178914, 0.15314424, -0.015399369, -0.07721638, -0.08860198, -0.0639493, 0.10970704, -0.043262098, 0.0282336, 0.13572115, 0.069246724, -0.03784802, 0.12278038, -0.08799027, -0.041914146, -0.06997379, -0.09027182, 0.0847475, -0.12196151, 0.08960643, 0.010803162, 0.07810129, -0.047360275, -0.086744614, -0.0016084082, 0.08075998, 0.05481698, -0.015661139, -0.11546317, -0.025523467, 0.07714116, -0.11356444, -0.11535308, 0.06191528, 0.062611796, 0.16912876, 0.12119379, -0.013614558, -0.0010230105, 0.14540143, 0.0693751, -0.07595372, -0.08349215, -0.033116743, 0.104673535, 0.057135116, 0.11712946, -0.12939121, 0.081417084, -1.51492995e-05, 0.012505694, 0.09879174},
{0.02223566, -0.06721486, 0.040354066, 0.061558716, -0.08783728, 0.06604445, 0.092148565, 0.1355251, 0.007212907, -0.009128161, 0.035501994, -0.115862675, -0.12530835, 0.018697444, 0.052767117, 0.09915925, -0.066521354, -0.013144327, 0.076611, 0.065184966, -0.08571637, -0.087781444, -0.06941185, -0.06891931, -0.07206459, 0.08293192, 0.025200168, 0.091248184, 0.08259914, 0.025355378, -0.10226745, 0.02337996, -0.08452562, 0.08886724, -0.12432564, -0.018404998, 0.095608525, 0.016204074, 0.05738533, 0.06668992, -0.089036286, 0.09242987, 0.09355052, 0.09878211, 0.12721762, 0.10384266, 0.008968175, -0.11291279, 0.0839006, 0.0504275, 0.025789388, -0.05661146, -0.09562131, 0.003457166, 0.015269939, 0.12922224, -0.04147147, 0.01273376, -0.09734322, 0.06002132, -0.08106852, 0.052050117, -0.070682615, -0.054377686},
{0.050915137, -0.12971488, 0.073447555, -0.099065855, 0.124303624, -0.111891195, 0.065259255, 0.02647832, 0.046955246, -0.1069523, 0.06561649, -0.056869946, -0.12131466, 0.0059188274, 0.096417546, 0.099732645, -0.094607644, -0.071312025, -0.0072813137, -0.11225098, 0.009804355, 0.057399668, -0.03898916, -0.042208653, 0.14817615, 0.1268943, 0.02103129, 0.0035951815, 0.09102933, -0.0087748, 0.11723101, 0.043272648, -0.12846391, -0.07964546, 0.018715145, -0.022140278, 0.05491645, -0.003832893, -0.06068434, 0.1278183, 0.0978553, -0.025600348, -0.001856001, 0.114535764, -0.09515218, -0.029007664, 0.0956128, 0.012946543, -0.014642745, -0.10613381, -0.097721316, 0.08071037, -0.10061458, -0.0080635045, -0.026224673, 0.03110543, -0.06711414, 0.15612021, 0.05166413, 0.07900129, 0.038255356, 0.09602671, 0.052456412, -0.12044952},
{-0.011818197, 0.027381595, -0.026564253, -0.07938565, 0.114884, -0.14145006, 0.15475178, 0.066465415, -0.01893548, -0.048407834, 0.009647802, 0.05871164, -0.14173931, 0.07722576, 0.019784164, -0.021639772, -0.0582361, -0.13643384, -0.018473301, 0.14099802, -0.011718055, 0.02342739, 0.13627803, -0.14444397, -0.042670492, -0.05484243, -0.14601927, 0.13357866, -0.01886207, -0.119171955, 0.14654417, -0.041083384, -0.105103254, -0.11572875, -0.07157954, 0.119423665, 0.042395044, -0.027542809, 0.04946077, -0.14015476, -0.013360521, 0.16480671, 0.0011352679, 0.15227148, 0.08080468, 0.07909861, 0.12651716, 0.030053103, 0.027122188, 0.006094844, 0.05503539, -0.062571146, 0.027752934, -0.09971981, -0.08432469, 0.023451455, 0.0938563, -0.06951476, -0.07573757, 0.003110021, -0.05986361, -0.0867468, -0.097970575, -0.06499426},
{-0.017607814, -0.015154238, -0.08020771, 0.0890092, -0.09971618, 0.13478428, 0.020568663, 0.1050522, -0.024826933, 0.08609358, -0.031319316, -0.118840255, 0.06500811, 0.060688388, 0.015072023, -0.059144642, -0.07349298, -0.10583292, -0.106826626, 0.023956006, -0.10565165, 0.11024425, -0.048320405, 0.08007178, 0.08661363, -0.0533948, -0.0015759441, -0.04246268, -0.08651338, -0.0062232823, 0.08301427, 0.0968874, -0.09747331, -0.04911007, -0.059612926, -0.016294006, -0.07038357, -0.0641725, -0.0034315907, 0.0134474505, 0.01078551, -8.662482e-05, -0.111900195, 0.041921403, 0.15460165, -0.016217798, 0.085774, -0.009448422, -0.029997062, -0.020691803, -0.06003994, -0.14187707, 0.07949463, -0.032513507, 0.0788321, 0.08584466, -0.032288726, -0.017496418, 0.018907325, -0.08682371, -0.12748419, 0.08594138, -0.09629826, 0.02361551},
{0.11118819, -0.11784045, 0.11794712, -0.08097117, -0.108902894, -0.10167675, -0.062766105, 0.0017552205, -0.03433568, 0.011130056, -0.014396964, -0.006343615, -0.042327557, -0.1048763, 0.11177578, 0.08652819, 0.14946654, 0.02500929, 0.06288764, 0.10714795, -0.011524333, -0.08021917, 0.007397091, 0.101101704, 0.10463106, 0.056838647, 0.07426464, 0.034683987, 0.00016317976, 0.13632968, 0.1340313, -0.068302326, -0.026926124, -0.068099484, 0.09290447, 0.11644412, 0.06319024, -0.08464708, 0.011095039, -0.08878952, 0.0051716375, 0.011519952, -0.11268656, -0.111682005, -0.06687487, 0.08897088, 0.106784135, 0.058563948, -0.1441532, -0.124940515, 0.07412639, -0.039435383, 0.018756993, -0.10552419, -0.04930908, 0.11816833, -0.10448332, 0.11782662, -0.056003217, 0.019518744, -0.0051115043, 0.14225683, -0.015115434, 0.030936528},
{-0.024203805, 0.091565385, -0.1508759, -0.02379539, -0.05394901, 0.028910052, 0.02179261, 0.089412786, 0.14075707, -0.11925888, -0.0074067395, -0.14835294, -0.09940757, 0.11338745, -0.048141547, 0.028334368, -0.010468194, -0.09865596, 0.09234201, 0.08318672, -0.084898174, 0.1629786, 0.07188647, -0.046115916, 0.09878109, -0.07793011, -0.047704346, 0.06497592, 0.056256607, -0.04691691, 0.13929099, 0.0005015318, -0.043774158, -0.032614544, 0.15090671, -0.061352674, 0.13448593, 0.08853846, -0.09603666, 0.05451709, -0.16746047, 0.023799814, -0.0063794977, 0.09425137, 0.05196558, -0.1322514, -0.08259734, -0.015676124, 0.07464845, -0.0025804823, -0.04355616, -0.034562603, 0.14864318, -0.019492729, -0.17136061, -0.006557883, -0.12536718, 0.07051764, 0.07662042, -0.169287, 0.112427905, -0.11252032, 0.13177218, -0.024409791},
{-0.037115663, -0.020058427, 0.0787232, 0.02811719, 0.045953218, 0.031387504, 0.07323313, 0.050722618, 0.10089541, 0.09046226, -0.033865098, 0.103768684, -0.057795014, 0.028692057, 0.1314204, 0.014488541, 0.041159865, 0.10222279, -0.05648617, 0.032984864, 0.037036378, -0.007340778, 0.06304694, 0.0016998206, -0.046342563, -0.11586346, 0.018631669, 0.0016831389, -0.06881761, 0.09672094, -0.15703051, 0.080123514, -0.041938413, 0.051327117, -0.055668738, -0.0044407505, -0.087562375, 0.0039627827, 0.046716128, -0.064012624, 0.09644058, 0.14255297, -0.06606611, -0.006346334, 0.07147869, -0.0968088, -0.02930934, 0.07378148, 0.09408602, -0.047567133, 0.02023088, 0.08963819, 0.09521263, 0.10274958, 0.07907159, 0.028059231, -0.08396707, -0.1212637, 0.0799919, -0.116049215, -0.0476186, 0.13206518, 0.017066635, -0.048036907},
{0.036000434, -0.13921353, -0.071858056, 0.099575385, 0.12614036, -0.07912721, -0.06461469, -0.07867495, 0.03967787, 0.080997445, -0.15163107, 0.053701513, 0.0053282385, -0.008958193, 0.05596438, 0.08164296, -0.089616045, 0.07772942, 0.08196462, -0.105657116, -0.007496808, 0.03358698, 0.14859879, -0.06044628, 0.11401421, 0.032574657, -0.038754616, 0.0046222354, -0.010460221, 0.027630618, 0.036375165, 0.100048475, -0.12445916, 0.091264576, 0.03401521, -0.16003263, -0.07569717, -0.08979898, -0.05230451, -0.08631247, -0.09351697, -0.026897073, 0.07873657, 0.10511685, 0.0896063, -0.030440012, 0.008280474, -0.05899878, 0.0011859577, -0.026119934, 0.040657137, -0.09954982, -0.07592262, -0.06719953, 0.13462155, 0.10677468, -0.11803366, 0.010871825, -0.120883815, 0.0318135, -0.03613176, 0.003926627, 0.10178001, -0.121579975},
{-0.09793596, 0.11434568, 0.05365618, -0.06005302, -0.05429212, 0.010424525, -0.048391588, 0.10047388, 0.023337983, -0.044896636, 0.022409134, 0.10041735, 0.04831288, -0.03307154, -0.013693629, -0.12635382, -0.07755666, -0.11592006, -0.039359704, 0.08259291, 0.09722895, 0.017551832, 0.10983595, 0.068790995, -0.06861158, -0.042143308, 0.010096273, -0.0674391, -0.042851865, 0.04729724, -0.0644093, -0.024055077, -0.04342301, -0.09863947, -0.12892988, -0.016197335, -0.010391245, -0.08762482, -0.030490877, -0.14193983, 0.08581806, -0.020922843, 0.108437456, 0.08174094, -0.028701257, -0.10711419, -0.021917956, -0.02049409, -0.040395793, -0.07673774, -0.1341115, -0.064256504, 0.009355159, 0.037199367, -0.088164434, 0.03223584, 0.03716986, 0.04422064, -0.012980513, -0.09975622, 0.055966094, -0.06696196, -0.114605285, -0.08908934},
{0.06635666, -0.03121936, 0.097408175, -0.017359013, 0.062106356, 0.04210866, 0.13587564, 0.12792641, 0.11083288, -0.061061192, 0.1043455, -0.04735646, 0.09711044, -0.06156634, 0.031016164, 0.059912425, -0.12221727, 0.0053848997, -0.03354867, 0.16491671, -0.036984585, -0.101240605, 0.045396004, -0.045932475, 0.09168636, -0.050890632, -0.032166295, -0.08912211, -0.063755356, 0.03422164, 0.09638341, 0.103206806, -0.08114739, -0.08018657, 0.039792467, 0.0141246645, -0.06758439, -0.048504375, 0.060724646, -0.030214416, 0.10573295, 0.09479902, 0.09191965, 0.014540439, 0.13186294, 0.049967013, 0.07193431, 0.08570526, 0.009741159, -0.06313377, -0.0874486, 0.035516266, -0.051541623, 0.057236407, 0.032466188, -0.084495656, -0.00010365162, 0.07781704, -0.1458754, 0.05701986, 0.11243504, 0.07870523, 0.055431955, 0.064088605},
{0.0449744, -0.048005108, 0.119374976, 0.12177912, -0.021093372, -0.12186661, -0.022169592, 0.06157664, -0.05412947, 0.010109227, -0.106676616, 0.027932644, 0.009596729, 0.04808652, 0.11812327, 0.05652685, 0.14261563, 0.014578975, -0.027903778, 0.07628256, 0.07885293, -0.042834185, 0.08309844, -0.05449409, -0.12516248, -0.011277702, 0.12517366, 0.036618687, -0.13525093, 0.016435657, 0.11866532, -0.09456196, 0.1143431, -0.085110255, -0.036511347, -0.040973812, -0.042397454, -0.07863584, 0.0040017837, -0.039515413, -0.117834054, 0.045832723, -0.10225626, 0.04869723, 0.06971202, 0.08556818, 0.17686938, -0.068861395, -0.0033436741, -0.056494407, -0.12953916, 0.0574047, 0.11491345, -0.112508334, 0.07734987, 0.098948, 0.022213185, -0.019111354, -0.08155931, 0.026765838, 0.09531481, 0.05468604, 0.052018356, -0.080098905},
{-0.003430579, -0.043829154, -0.013270369, -0.07770384, -0.0429695, 0.03854263, -0.047053106, 0.0034152255, 0.04330807, 0.08523102, -0.12383157, -0.1192806, 0.14127028, -0.00037625496, 0.041421298, -0.15612406, -0.088032, 0.11044803, -0.005521237, -0.035560735, -0.020972963, 0.09255785, -0.041178312, 0.026299246, 0.024591232, 0.010432831, -0.08264585, -0.10874356, -0.076118775, -0.11390951, -0.09278553, 0.11916216, -0.1310619, 0.022618208, -0.034341816, 0.13601407, -0.09039807, 0.05212713, -0.0008415667, -0.043819442, -0.1675627, -0.045890566, -0.0100433435, 0.009655044, -0.051101126, -0.11047323, 0.0017484992, -0.055515558, 0.03477303, 0.060934052, -0.050821014, -0.078119405, 0.03547108, 0.036671277, -0.10626724, -0.053021785, 0.07457519, -0.10751216, 0.086545534, -0.022970296, -0.03225172, 0.020800235, -0.02829453, 0.016679183},
{-0.033652846, -0.08263969, 0.13836211, -0.069502726, 0.11957279, 0.07816193, 0.053084686, 0.15550978, 0.12097926, -0.07561486, 0.053886417, 0.00021763185, 0.0034665295, 0.09354432, -0.08534151, 0.11578622, 0.028830877, 0.114632845, 0.05311951, 0.018133001, -0.008642612, -0.05256332, 0.07293313, -0.12517864, 0.033804297, -0.07881028, -0.029558126, 0.043263096, -0.034560256, -0.14027439, 0.041483197, 0.024290115, -0.1642344, 0.033828165, -0.095636964, -0.0714693, -0.027267773, 0.062218804, -0.12699665, -0.010860321, 0.08929985, -0.057190455, 0.12753439, 0.02721915, -0.08068333, 0.11087377, 0.10155584, -0.01521298, 0.014889815, 0.07392147, 0.053532906, -0.0066741705, 0.032601297, 0.035896525, 0.060104605, -0.0794468, -0.09253039, 0.060545713, 0.05811197, -0.010004533, 0.0543699, -0.04559621, 0.017676659, -0.10002569},
{-0.12007535, 0.053683974, -0.02770869, -0.10582686, -0.101640694, -0.08350408, 0.13366994, -0.13182019, -0.099530235, -0.09085896, 0.04217551, 0.031308774, -0.034214064, -0.12109622, 0.005805066, 0.021622937, 0.053405892, 0.113119274, 0.14239018, -0.12860808, -0.072999366, 0.036419563, 0.09930657, -0.09506425, 0.13586138, -0.022766195, 0.041679464, 0.06276872, -0.041654646, 0.08613245, -0.062057488, 0.016773885, -0.12771039, 0.037231762, 0.17143968, -0.10206514, -0.053734165, -0.09048068, 0.031038748, 0.050185714, 0.115886435, -0.05099554, -0.05423666, -0.04080425, 0.062883586, 0.121604994, -0.016309762, -0.11306267, -0.053616922, -0.08974309, 0.0044940664, -0.022815103, 0.011886275, -0.10170524, -0.044327505, -0.034109697, 0.01075277, -0.05614527, 0.10444144, 0.06614089, 0.051373832, 0.07839595, -0.01740511, 0.021206079},
{0.012419579, -0.065684065, 0.07404414, 0.112059064, 0.019531308, -0.043978646, 0.121899575, -0.0021608407, 0.07140439, -0.022543127, 0.04089387, -0.05301308, 0.016502637, 0.07423071, -0.029940454, 0.092634626, 0.09255272, 0.050852127, -0.06763816, 0.06678524, 0.049735017, 0.03422388, 0.116580136, 0.005543072, -0.016615756, 0.039974533, -0.09018813, 0.011172551, 0.017998347, -0.00791476, 0.13140064, 0.104138486, -0.16727664, -0.027030205, -0.11914122, 0.051903147, 0.07956721, -0.019732408, 0.056616057, -0.10893563, -0.052563675, -0.081997566, -0.06922926, 0.0053193197, 0.034256298, -0.020418804, -0.016218578, 0.08631925, 0.025872976, -0.06277239, -0.03853246, -0.07781698, -0.0005673366, 0.07004688, 0.0464724, 0.086182125, 0.07141574, 0.13139379, -0.04703144, -0.08701197, -0.050301664, -0.0969362, 0.10870101, 0.042990036},
{0.08735671, 0.0427056, 0.112075604, -0.056195255, -0.111413985, 0.010051412, 0.13787182, 0.110225275, 0.03300076, -0.14531732, 0.1677006, -0.13730411, -0.041512396, 0.08643961, -0.05862226, -0.15297505, -0.075256206, 0.08690105, 0.04278833, -0.019785164, -0.11661643, -0.10923687, 0.09069939, 0.081571065, -0.10045317, -0.09577907, -0.07121177, -0.07440791, 0.0034257465, -0.05586831, 0.06565552, -0.04522197, 0.038972344, -0.12784106, 0.12685446, 0.08599595, -0.111623, 0.06283002, 0.089455076, -0.10211259, 0.07808054, -0.062026966, -0.035635695, 0.1404232, 0.10043799, 0.045868073, 0.08246472, 0.08039093, 0.020447003, 0.0013586197, 0.026803102, -0.09864896, -0.033906583, -0.003610104, -0.013765392, -0.07527592, 0.025413265, 0.04009624, 0.06457031, 0.10446143, 0.018149868, -0.016702516, 0.022516636, 0.13683689},
{0.047000915, -0.026980162, -0.054142494, -0.0849861, 0.052503977, -0.020201521, 0.013347676, 0.0970085, -0.05768965, -0.0597807, -0.14864925, 0.044972327, 0.12754746, 0.08775722, -0.0012185111, -0.0035184852, 0.1556187, -0.06735778, 0.006104488, 0.102543384, -0.016901365, 0.055846494, -0.097376935, 0.1005892, -0.03792583, -0.11174965, -0.038929928, 0.12588131, 0.025770657, 0.014646065, -0.10642801, -0.058489766, -0.012403913, 0.04816024, 0.055185787, 0.0031273405, 0.094337046, 0.069568366, -0.017743401, 0.13027789, 0.0069936602, -0.0155852735, -0.08444574, 0.052146334, 0.008924355, 0.11015476, 0.00020595611, -0.12458589, -0.101900026, 0.026642645, -0.09159177, -0.053537328, 0.040834364, -0.015290769, 0.053751696, -0.019298414, -0.08849844, 0.12565786, -0.020591488, -0.0040104534, -0.06261551, 0.15894198, 0.020480106, 0.082357705},
{-0.08563168, -0.09244228, -0.14841922, -0.06000108, 0.06273934, -0.0065366733, -0.13281034, -0.112721905, -0.12056873, -0.02508837, -0.16204776, 0.0073407963, -0.022294477, -0.101619706, 0.06801432, -0.13072814, -0.087806575, 0.06629084, 0.13068137, -0.044506684, -0.06778723, -0.014348472, 0.011620804, 0.1034094, 0.02392747, 0.079789534, 0.05508787, -0.1203101, -0.08608981, -0.032532457, 0.030310415, 0.023851559, -0.08677455, -0.012221035, -0.0015954954, -0.08758025, 0.05112847, 0.0032160715, -0.01013394, 0.03784709, -0.1023743, 0.09257718, 0.15061587, 0.0048792707, -0.041700035, -0.099833235, -0.019986756, -0.01199413, 0.011903156, 0.12560616, -0.12576126, -0.006028637, 0.08352895, -0.050079644, -0.14025705, -0.060479928, -0.060964037, -0.02879023, -0.041962985, -0.11087012, -0.049480606, 0.0674768, 0.14338958, 0.0012906059},
{0.08880135, -0.13210456, 0.012406389, -0.044800803, 0.056068696, -0.056720458, 0.04883154, 0.08534796, 0.110255465, 0.011976065, -0.13421224, 0.09244591, -0.08105273, -0.1041414, 0.06608403, 0.010751784, -0.03995091, -0.041520245, 0.1386543, 0.03560927, 0.009489096, 0.08243237, -0.03309114, -0.072163604, -0.100958996, 0.014919753, 0.00041269863, -0.08087511, 0.0042811804, -0.08351407, -0.031559363, 0.010086476, 0.028503746, 0.039784335, 0.13104023, -0.029940844, 0.11465322, -0.14084595, 0.02224901, 0.11755705, -0.009269177, 0.02697986, 0.046457194, -0.097810864, 0.08704717, 0.058970217, 0.09923988, 0.103673205, 0.00020032423, -0.07834056, 0.056863785, 0.0646202, -0.12421205, -0.0891665, 0.044140935, -0.0102865575, -0.05590241, -0.11191717, 0.019071944, 0.014162556, -0.13715914, 0.07989942, -0.13032798, -0.019853998},
{-0.16247407, -0.024780778, -0.11793302, -0.003968366, 0.0479462, 0.04702426, -0.027242752, -0.0039132335, 0.100801624, 0.07417972, 0.027821096, -0.07280631, -0.07636932, -0.096317425, -0.025024444, 0.1529561, 0.027039923, 0.13179332, -0.07940202, 0.094668284, 0.13497737, -0.034284163, 0.07515056, 0.07207172, -0.030460002, -0.10638348, -0.12549214, 0.102227874, -0.11634269, -0.02992851, -0.094140045, 0.078524835, -0.0027773883, -0.067943744, 0.12041212, -0.019154197, -0.083917394, -0.11604644, -0.03404988, 0.16234073, 0.09041858, -0.07630102, -0.093406975, -0.0070881424, 0.018881803, 0.09390069, 0.07889445, -0.087669015, -0.060162257, -0.054426022, -0.004844696, 0.058731772, -0.05959112, -0.050183814, 0.13295329, 0.05181872, 0.05565024, 0.10984035, 0.019592766, 0.04787971, 0.10109405, -0.09809033, -0.10233901, -0.07641673},
{0.051637866, 0.0162562, -0.072717644, -0.04868977, 0.012539427, 0.046672367, 0.12528491, 0.021893332, 0.008128534, -0.044145938, -0.08053915, -0.07319213, 0.057187073, 0.110450454, 0.024748558, -0.010891471, 0.082130395, 0.031653374, -0.09008799, -0.08135288, 0.055255026, -0.0021772254, 0.010648299, 0.045820575, 0.11625712, -0.0102846185, -0.039089687, -0.078002274, -0.06635256, -0.0715839, 0.100468904, 0.015518975, 0.030270526, -0.093440466, 0.020027218, 0.12851617, 0.014846079, -0.050357703, 0.07707636, -0.0021642558, -0.076190695, 0.106407814, 0.07567171, -0.025983397, -0.021323135, 0.09956394, 0.12766893, -0.07630093, -0.0745478, -0.069309466, 0.11067171, -0.044439454, 0.097985625, 0.028420065, -0.02889383, 0.03472034, 0.0039803362, 0.013666418, -0.13335325, -0.076420546, 0.03570678, 0.1169265, 0.0891495, 0.040228385},
{0.11277998, -0.07305403, -0.066792294, -0.047910977, 0.07517993, -0.05248389, 0.07678396, 0.024317365, 0.020725565, 0.008310389, -0.006102997, 0.07133127, -0.05421878, -0.042636286, -0.09248787, 0.05768337, 0.09242142, -0.075305454, 0.0038338206, 0.020649781, 0.068948016, -0.039180227, 0.09518524, -0.012844006, 0.09627597, -0.022901352, -0.01592381, 0.055554185, 0.0235271, -0.09445218, -0.06577341, 0.106654584, -0.0082071265, -0.104577236, 0.0782954, -0.021992562, -0.09195733, 0.011723608, -0.029901814, 0.06450856, -0.13936016, 0.12857166, -0.14611937, -0.03185841, 0.012213372, 0.0576022, 0.052307986, -0.048881494, -0.035471912, -0.07941621, -0.10724127, 0.05568024, 0.018272446, 0.122133754, -0.056374267, -0.03574938, -0.09827049, 0.10430389, -0.09745712, 0.02057052, 0.067349285, 0.10377707, 0.01059357, 0.12405872},
{0.00889791, 0.107076064, 0.023619197, -0.06079432, -0.11186911, 0.05717891, 0.018970791, -0.10805024, -0.15573174, 0.021102546, -0.14562571, -0.1098437, 0.12652884, 0.02218644, -0.039967954, 0.023396287, 0.16097304, -0.1021434, 0.07695969, 0.10033785, -0.029042816, -0.065664336, -0.11993288, -4.526635e-06, -0.055288117, 0.035459667, -0.034294184, 0.1158154, 0.057018433, -0.031687625, -0.012864319, -0.0016049938, -0.050049283, -0.053428877, -0.035467684, -0.12981722, 0.10748619, -0.13075157, 0.007442267, 0.14067003, 0.04222965, -0.065870486, 0.07217168, -0.056318343, 0.03917112, -0.07739151, 0.17130429, 0.06275284, -0.049454052, -0.059355907, -0.04727759, -0.04799905, -0.10313888, -0.1239263, -0.119437955, 0.02263511, -0.1347872, 0.015171436, -0.059691668, 0.061652802, -0.028436435, 0.12505686, -0.0027031214, 0.029811619},
{-0.1404143, 0.08379245, -0.019632623, 0.056195486, -0.09443223, -0.052941743, 0.06665956, 0.046154227, -0.0020073615, 0.03941277, 0.016806532, -0.10435392, -0.025727209, 0.07960952, 0.040281087, -0.13467112, 0.08763046, 0.11698005, -0.06552915, 0.0009252063, 0.010411855, 0.08440111, 0.0461634, 0.01713783, -0.045242038, -0.015882025, 0.06590407, 0.021025384, -0.047882173, 0.026953004, 0.07871894, -0.08418808, 0.008169565, 0.07965374, 0.1071386, 0.06386877, 0.027759392, 0.055669032, -0.035778098, 0.07654285, -0.14891544, 0.01068038, -0.07829169, -0.12252221, 0.014824199, 0.09759536, -0.027749388, 0.15519005, -0.06932603, 0.067480944, 0.036527723, -0.019634865, 0.06813156, 0.05959327, -0.11919936, 0.054920044, -0.06512943, -0.067348376, -0.10123525, -0.010211813, -0.015291717, 0.02905339, 0.09075686, 0.09731521},
{0.04290237, -0.05108117, 0.17040537, 0.09112979, 0.13478865, 0.00046040773, -0.09869692, 0.047670517, -0.08761757, -0.05131702, -0.121415384, 0.120757855, -0.079885244, -0.120444, 0.034612194, 0.0005149223, -0.10503679, -0.09078024, -0.13406424, 0.11024114, -0.09239818, -0.0032385488, 0.04807257, -0.12162459, -0.07685985, -0.045410205, 0.077770494, 0.06388327, 0.0693047, -0.046776913, -0.1414251, 0.07589032, -0.09562217, 0.06553737, 0.031994212, 0.036780193, -0.0038832398, -0.12477126, 0.07985112, -0.025248598, 0.005726869, 0.0032329098, 0.13593434, -0.104362644, 0.026437545, -0.11005681, 0.035891116, 0.039885532, -0.022157647, -0.08704751, -0.043612003, 0.116423056, -0.07384844, -0.039642226, -0.07137711, -0.0151155805, -0.069598176, -0.06898402, 0.064891875, -0.10522302, -0.14125957, 0.087410726, -0.026382433, -0.08277959},
{-0.07005752, -0.08762779, -0.006844588, -0.14631331, 0.037481092, -0.029835014, 0.09168662, -0.019490968, -0.10392605, -0.050876234, -0.094039775, 0.09905864, 0.021459395, -0.010601137, -0.06658281, -0.0079727415, 0.038009968, -0.02182735, 0.068746276, 0.05137683, 0.12956645, -0.056433916, 0.066992484, -0.08943321, -0.04472648, 0.05731467, -0.02391266, -0.0736499, -0.063710526, -0.076437265, -0.0065971203, 0.06524087, 0.023928149, 0.038046315, -0.00039291193, 0.045022298, -0.07697033, 0.041050393, -0.09067632, 0.06664076, -0.066248335, 0.04868114, -0.0117827775, 0.002793943, 0.008648122, 0.044186868, 0.00263649, 0.11197657, -0.060736854, -0.12292716, 0.0064874087, 0.0713909, -0.0039625415, 0.1485677, 0.11027351, -0.0077462783, -0.09965597, 0.16727985, -0.004547682, -0.10417792, 0.055502214, -0.17683049, 0.039468464, -0.06512982},
{-0.077874474, -0.09928052, -0.06877196, -0.02742328, -0.069363706, -0.116262935, 0.057359762, -0.044472802, -0.082357846, 0.06417833, 0.023695402, 0.039787218, 0.080957696, 0.108484186, -0.11513576, -0.09865015, -0.06972046, 0.068370834, 0.065512314, -0.0031229414, 0.062039655, 0.0026953558, 0.033047255, -0.06616791, 0.098965295, 0.014021667, 0.014695734, 0.015082066, 0.068605445, -0.06956694, -0.053572107, 0.013920611, -0.13331251, 0.08442459, 0.09877818, -0.097363256, 0.02110923, -0.07540719, -0.03980159, -0.12344293, 0.08496267, 0.093378305, -0.13255465, 0.12700526, 0.06374185, 0.121998355, 0.1347633, -0.11688279, 0.07379522, 0.003997631, -0.10674134, 0.0731322, -0.025173066, 0.0045481897, 0.043073207, 0.034101747, 0.010829827, -0.07120733, 0.0707765, -0.09354845, 0.09455735, 0.13007769, -0.051999476, -0.04879247},
{0.06779474, -0.055251706, 0.09083857, 0.1459897, 0.1339034, -0.01802733, 0.15753824, -0.017485186, 0.09668133, -0.048666593, -0.042747084, 0.019810978, 0.092931084, -0.059981946, -0.05283293, -0.07048111, -0.09115672, -0.025350897, -0.028725937, 0.10016206, -0.03298234, -0.14556248, 0.084152825, 0.079675384, 0.10467888, -0.056514632, 0.029513555, -0.086664945, -0.078213766, 0.05012157, 0.00270258, 0.119633764, 0.05971451, 0.061419938, 0.11582117, -0.08311238, -0.06356626, 0.08655936, 0.015190051, 0.15821688, 0.029113954, 0.032530524, 0.0023365824, -0.041280128, 0.023142656, 0.012448578, 0.09279997, -0.106012955, -0.12196121, -0.025741903, -0.044566344, -0.13078299, -0.0660477, -0.11406671, 0.08462933, 0.0027256557, 0.08462957, -0.10874778, -0.099517055, -0.12571716, -0.088254705, 0.03447972, -0.031656846, 0.15908939},
{0.057956204, -0.028549789, -0.078096144, -0.029742006, -0.005804206, 0.15394859, 0.024967005, -0.0015072561, -0.1626551, -0.045474093, -0.13482885, 0.13832298, 0.15242912, -0.08892957, -0.00983477, -0.0071711494, -0.013632186, 0.06406596, -0.11481325, 0.124417685, 0.022460163, -0.09897452, -0.11513888, 0.0723142, 0.079359144, -0.029053653, 0.05824828, 0.047732577, -0.053317122, 0.12792504, -0.012565832, -0.057265796, 0.096030734, -0.019319834, 0.08033264, -0.020688005, -0.11719207, 0.0485855, 0.052738998, 0.014397633, 0.080308236, -0.05096525, 0.08197078, 0.10372621, -0.04822222, 0.01636023, -0.06837518, 0.1299469, -0.07041295, 0.053451993, 0.09491758, -0.14580144, 0.029069081, -0.04016191, 0.07949076, -0.07630761, -0.033375744, 0.108687155, -0.025289947, -0.06266806, -0.031451806, 0.0037770316, 0.13364539, -0.123025335},
{-0.038465213, 0.09237432, -0.13102388, 0.056419235, 0.026604004, -0.11464519, -0.11504292, 0.051032875, -0.048736762, -0.039086882, 0.015259985, 0.07829339, 0.10935449, 0.101937726, -0.11735858, -0.020352282, 0.09157933, -0.0070708143, -0.067370065, 0.00061274413, -0.10254718, 0.09757506, -0.05101204, 0.04282057, 0.08500621, -0.04642066, 0.083829835, 0.026349105, -0.075332485, -0.041397337, 0.00944485, 0.10320185, 0.029171852, -0.08531747, 0.08346773, 0.07798613, -0.064741224, 0.11685852, 0.044796217, 0.12544405, -0.14463997, 0.013353077, 0.070716515, -0.061105262, 0.09214498, -0.09872007, -0.030531216, 0.14067252, -0.014400751, 0.076473475, 0.06977143, -0.15065706, 0.16553193, -0.0037905672, 0.014009022, -0.07556697, 0.050740678, 0.09195593, 0.04229833, 0.04867007, -0.072994165, 0.069840774, 0.1708049, 0.05883383},
{0.027321273, 0.040943753, -0.06102099, 0.087850824, 0.034997676, -0.0021338165, 0.09110646, 0.05411013, -0.02267151, -0.006688186, 0.07451923, -0.022773352, -0.057516262, -0.055952575, -0.07239184, -0.12922849, -0.089121185, -0.09685087, -0.025015632, 0.01661056, 0.030487563, -0.08440078, -0.084523454, -0.118336946, -0.117885314, -0.08920331, -0.04836159, -0.1277942, 0.081691004, 0.0045579015, 0.070707776, -0.031421665, -0.10279565, -0.014633683, -0.020865358, 0.020726925, 0.018398214, -0.09830519, -0.055036724, -0.10206539, 0.040573142, 0.15465258, 0.060793187, -0.10934476, 0.11075343, -0.1449789, 0.06912969, -0.07476814, -0.03781011, 0.1443404, 0.085712455, -0.10231851, -0.029903723, 0.10854474, -0.122350626, -0.080939844, -0.05540279, -0.08390455, 0.015012249, -0.15371767, -0.15645869, 0.05365881, -0.03049927, -0.077128686},
{-0.09305156, -0.098177224, -0.08004223, -0.052177206, -0.10907586, 0.1182884, -0.06236061, 0.042981718, -0.1338512, 0.099787794, -0.046208065, 0.12886922, -0.0485983, -0.027824832, -0.0776087, -0.052529767, -0.048212606, -0.024231125, 0.114899755, 0.066413, 0.019284613, 0.10411833, 0.13892873, 0.08356051, 0.022897279, -0.07161776, 0.0050730235, 0.0069574434, 0.10945246, -0.03362966, 0.047121897, -0.11213383, -0.049651135, -0.07284622, 0.14907743, 0.07342882, -0.0518905, -0.04270577, 0.022763325, -0.083030626, 0.03139942, 0.07811008, 0.062705554, -0.015858188, 0.030059218, -0.009849163, 0.079650365, -0.11141126, -0.099690296, -0.08262328, -0.02782621, -0.17921448, -0.052767307, 0.066721685, -0.106369026, -0.01958634, -0.1320252, -0.016154606, 0.09072797, -0.009432952, -0.11551415, -0.11728615, 0.08640017, -0.009478149},
{0.11382504, -0.04792648, -0.013485109, -0.026857246, -0.11574716, 0.0152398385, 0.1381197, -0.11125422, 0.0057527632, -0.05005501, 0.032016944, -0.09630916, 0.110815614, -0.042284694, 0.08547225, 0.027324593, -0.11993897, -0.009583835, 0.08570824, -0.08510493, 0.08150194, 0.013529521, -0.0053208866, -0.13206655, -0.09035844, -0.072861776, -0.077393234, -0.08621198, -0.13185196, -0.0539527, -0.03596328, -0.028975438, -0.006660067, 0.013206458, 0.0015893822, -0.1097953, -0.014276032, -0.1422371, 0.034867372, 0.07099704, -0.1263325, 0.13259882, -0.086372234, 0.106506415, -0.1338659, -0.10755679, -0.034351967, 0.011644457, 0.0124250855, 0.12586239, 0.11531497, -0.020752257, -0.045150526, 0.030033808, -0.11201289, 0.124883436, 0.1621538, -0.009056418, 0.08529655, 0.090024434, -0.078711964, 0.15736324, -0.11738965, 0.04578791},
{-0.105113044, -0.061339494, 0.051854797, 0.02441383, -0.03801398, 0.080328315, 0.1523089, -0.081500106, 0.07069013, 0.08185754, -0.031720273, 0.056195498, 0.00825782, -0.10970251, 0.123443596, 0.10199485, 0.024955744, 0.059214424, 0.1122573, 0.06037874, 0.010049438, 0.055462856, 0.023858685, 0.037997082, -0.013440155, 0.097835876, 0.11473197, 0.08880764, -0.060346678, 0.05739913, 0.15484102, 0.1120827, 0.056167252, -0.08028705, -0.03397634, -0.109089196, 0.1135528, 0.1400827, -0.117325224, -0.02784699, -0.1434115, 0.099688, 0.013348321, -0.032328174, 0.038817037, 0.01855673, 0.046437863, -0.0014845941, -0.007986449, -0.058908086, 0.07233127, 0.034236476, -0.09006841, 0.0067739505, 0.1752425, 0.046711586, -0.07611074, -0.007879062, -0.11132687, 0.033875626, 0.05615775, 0.114809334, -0.09359446, 0.04702327},
{0.025010651, 0.006705638, 0.01645748, -0.043574873, -0.04952192, 0.09959941, -0.05412907, 0.103923835, -0.058448117, 0.038650814, -0.15394151, 0.045734715, 0.034831718, 0.07880875, 0.081582196, 0.022181451, -0.060166948, -0.065130115, -0.025028666, -0.057520453, 0.03139777, 0.012011052, -0.10760687, 0.04533021, 0.034407925, 0.023274865, 0.049479518, 0.023680568, -0.12832375, 0.10335002, -0.15358631, -0.1347653, 0.03095253, 0.11201601, 0.042912487, -0.07687243, -0.0818876, -0.103857085, -0.1474983, 0.089935794, 0.04677287, 0.023787402, 0.003988668, 0.0546897, -0.027100602, -0.09001782, -0.08859499, -0.07536345, 0.028142186, -0.093351275, -0.112329155, -0.10003893, -0.064535685, -0.07861498, -0.09136479, 0.015376225, -0.014140915, -0.029407727, -0.01586501, -0.09117145, 0.10070806, -0.09577602, -0.023573384, 0.09296894},
{-0.0221423, -0.0021410035, 0.04396007, -0.107179254, -0.08866129, -0.029546246, -0.119372725, -0.033038013, -0.029721143, -0.06683641, -0.0056162206, 0.08170958, 0.09254006, 0.11666819, 0.042140547, -0.011542385, 0.01868467, -0.011382604, 0.07707508, -0.099749885, -0.004113187, 0.017438231, 0.11756112, 0.0010205278, -0.09374348, -0.018909935, 0.07435434, 0.0010011899, -0.05431081, 0.04799603, 0.14492282, 0.03641385, -0.03599152, -0.08196678, 0.07936654, -0.09374567, -0.017987156, -0.06485392, -0.009502491, -0.10126005, 0.041372865, 0.005169332, -0.047580343, -0.09345143, 0.09811705, -0.05332579, 0.13492149, -0.010245261, 0.043086186, -0.123367116, -0.101889305, 0.042476684, 0.10361193, 0.07509363, -0.11074747, 0.014443884, 0.0090771355, -0.04314135, 0.03936321, -0.08024032, 0.03285689, -0.061860483, -0.035526715, -0.05815025},
{0.08005722, -0.15783976, 0.0065328614, 0.047438942, 0.14922687, -0.022027556, -0.100442246, 0.026210647, 0.08070785, -0.0879536, -0.18654218, 0.0742257, 0.036552187, -0.041134886, -0.052930817, -0.1582833, -0.012764342, -0.07517475, -0.16020587, -0.06048813, 0.034457665, -0.07923991, -0.0357136, -0.11773079, -0.040649377, -0.057663165, 0.026089603, 0.021496186, 0.088644676, 0.048873346, 0.020758167, 0.00062158564, 0.016308118, 0.14571144, 0.0933921, 0.045170978, -0.044187892, 0.074416004, -0.10418402, 0.02096031, -0.03111275, 0.031062527, 0.0826738, 0.035212453, 0.044248227, -0.12973607, -0.09801559, -0.045153722, 0.010286003, 0.09604683, 0.04744149, 0.09734841, -0.014879398, -0.070736095, -0.015911542, 0.061537262, -0.03953286, 0.079648435, 0.17387018, 0.08594137, -0.086601116, -0.15677191, 0.03540654, 0.039860234},
{-0.10503247, -0.14798889, -0.00011906712, 0.022712698, -0.06631657, 0.15178697, 0.05190467, 0.13330758, -0.00076056155, -0.11177755, -0.021481523, 0.06933242, 0.06036057, 0.027988387, 0.04583016, -0.009758934, 0.12556037, -0.0066954033, -0.025280507, 0.09296531, -0.024964573, 0.057293944, 0.009840354, 0.027079502, -0.066546835, 0.0901992, -0.0031289638, 0.07328646, 0.035142493, -0.016734237, 0.071057916, 0.054117564, 0.10399297, 0.0031994402, -0.01517806, 0.09011642, -0.16108474, -0.16026664, -0.12210544, -0.03906643, -0.022215722, -0.10182118, -0.05339875, 0.027881514, -0.046720136, 0.073823564, 0.048957326, -0.13474795, -0.06441809, -0.06618971, -0.121567376, -0.16482261, -0.046718914, 0.1426148, 0.04572471, -0.049226746, 0.075250015, 0.04238173, -0.066627294, -0.04566855, -0.009587477, -0.045649186, -0.053242475, 0.0007020708},
{-0.0498911, 0.12746307, -0.082435705, -0.10866839, 0.07720935, -0.047056142, 0.13491715, 0.034851786, -0.15990794, 0.05927366, -0.10539561, -0.008877758, -0.049378686, 0.090811074, 0.1065644, 0.05394073, -0.014491129, 0.021917028, 0.063807935, -0.08191132, -0.094858006, -0.0010098395, 0.018643595, -0.06011032, 0.03641089, 0.09619563, 0.008378079, 0.08841482, -0.02561782, 0.14567395, -0.032198098, 0.04393615, -0.019637985, 0.12950677, -0.0035249065, 0.0754061, -0.03213405, 0.009509683, 0.074914485, -0.09065807, 0.044334892, 0.015617563, 0.11816356, -0.040075086, -0.12034266, -0.040236026, 0.07712139, -0.024062412, -0.08408118, 0.043899655, 0.09575789, 0.019456519, -0.13939327, -0.09066835, -0.016732972, -0.05793331, -0.058255877, 0.069349304, -0.112518154, 0.10706274, -0.0637666, 0.107130595, -0.011006622, 0.06657672},
{0.055027984, -0.053978454, 0.08189629, 0.15248458, -0.011380909, -0.06693648, 0.14291355, 0.011340919, 0.04623246, 0.0587633, 0.07070182, -0.076946095, -0.061206244, 0.007356687, 0.086126044, -0.016327292, 0.09544586, -0.076800436, 0.05345107, -0.08878772, -0.09610666, 0.0022850255, -0.010100516, -0.13340554, -0.023713473, -0.042414933, 0.025297023, -0.0020455578, -0.0460923, 0.05752954, 0.029328752, -0.11107151, -0.023829957, -0.07166773, 0.05326099, 0.025383577, -0.06388189, 0.03980656, -0.05382272, 0.14050424, -0.15040676, 0.09928385, 0.06255134, 0.018298352, 0.15122074, 0.10174825, -0.08527205, 0.047744162, -0.10792932, 0.040629987, 0.10197056, -0.08270164, -0.017164746, -0.036288984, -0.07616268, 0.05671435, 0.14541773, 0.0026351635, -0.0859196, -0.0095276795, 0.09703162, 0.030484404, -0.0186646, 0.07549752},
{-0.061510824, -0.021530095, -0.010922278, -0.04826294, -0.076967455, -0.10487577, -0.017527523, -0.013137554, -0.11216276, 0.10196088, 0.07953891, 0.07324438, 0.10707818, -0.110166535, -0.08121888, -0.12318753, 0.02802306, -0.087465, 0.02144955, -0.037279714, 0.03466785, 0.13742858, 0.09891072, 0.0536621, 0.05640483, 0.07954657, 0.11628518, -0.11312354, 0.095080115, -0.060164787, -0.08939302, 0.08017213, -0.01125982, -0.048323344, 0.0076323505, 0.11404069, 0.009143048, 0.058802325, -0.10972949, -0.030289367, 0.029183803, -0.016992679, 0.12328662, -0.0086904215, -0.008274212, -0.092827156, -0.06622087, 0.078946196, 0.124113366, -0.07339669, -0.040837616, -0.030777361, 0.0670099, -0.061906815, -0.009500403, 0.04394765, -0.018683825, 0.10356897, -0.031176716, -0.037626956, 0.027491005, -0.12562414, 0.13184331, -0.03244107},
{-0.08070124, -0.049818505, -0.08356949, -0.087700106, -0.011126356, 0.04347483, 0.058786564, -0.05436883, 0.028953869, -0.053967915, 0.07915117, -0.09993996, 0.13740492, 0.10944803, -0.006448585, -0.056205124, -0.04957267, 0.04619079, 0.09391006, -0.09985219, 0.03491829, 0.074550375, 0.06233605, 0.03256748, 0.104835294, 0.13419169, 0.0022987947, 0.00927007, 0.064489506, -0.084544145, 0.12893733, 0.137437, 0.10829913, -0.06227601, 0.010022373, 0.00964655, -0.0829843, 0.063695475, -0.06776517, 0.114909016, -0.090050064, 0.07097415, -0.09588562, 0.09549862, 0.08463381, -0.011496202, 0.10824141, 0.14684525, -0.109744795, -0.05442925, -0.087790415, -0.06778425, 0.056062013, -0.044139788, 0.014190119, 0.07225326, 0.012185407, -0.055620447, -0.14427435, -0.0957984, 0.13984112, 0.10130706, -0.0022911353, 0.05739365},
{-0.02470765, -0.017428374, -0.003944921, -0.061064765, 0.045555744, 0.099115126, 0.14049067, 0.09245996, 0.026811756, -0.13736254, -0.14140235, 0.08313275, -0.1642991, -0.14015932, 0.16892555, -0.07274259, -0.048069272, 0.05092348, -0.14894679, 0.05599918, 0.063999325, 0.029429583, 0.057171617, -0.07776755, -0.0945414, -0.06338772, -0.001831521, 0.007418957, 0.13268158, 0.0791077, 0.10884085, -0.12709409, 0.009970277, 0.13545299, -0.034182638, 0.13446574, -0.041645907, 0.10375171, -0.16154817, 0.1053033, 0.094073586, -0.07545335, 0.059841823, -0.047254246, -0.07964013, -0.09397801, 0.113356166, -0.085130624, 0.1211411, -0.045174338, 0.11222196, -0.00725424, -0.010704336, 0.087512694, 0.063934796, -0.09776916, 0.050954875, -0.09199946, -0.019485708, -0.0363523, 0.09161829, 0.015494911, 0.032561127, 0.08967637},
{0.05433225, -0.0628727, -0.07884708, -0.12479428, -0.11233843, -0.05112877, -0.08248852, -0.011992424, -0.09814086, -0.03615979, 0.052607153, 0.123906374, -0.10957406, 0.071779504, 0.09183593, -0.059012495, 0.108509034, -0.079198934, -0.016978463, -0.05748912, -0.027513769, 0.08464671, 0.15425499, -0.06406905, -0.003429046, -0.122100666, 0.07597784, 0.034488834, -0.0709958, 0.040962096, 0.09434054, -0.07807256, 0.08945364, -0.045113448, 0.0799756, 0.03321652, 0.007265394, 0.07627336, -0.023375649, 0.045759536, -0.10707541, -0.044192743, -0.1110895, -0.08787956, 0.00393652, -0.007590836, 0.11079406, -0.062053986, -0.18774027, -0.11852623, 0.005843337, 0.027324928, -0.071030386, -0.12407843, 0.057072252, -0.06800153, -0.0217625, -0.0604798, -0.080191866, 0.008827646, -0.021757932, -0.059623346, 0.02192458, 0.05818875},
{0.06567764, -0.101234935, -0.019490998, -0.058910746, 0.01671913, 0.016175661, 0.054798763, -0.0904525, 0.044857897, 0.111217596, 0.0028530504, 0.010649977, 0.07067416, -0.063260354, -0.058701377, 0.047221657, -0.018687718, 0.09082186, 0.0023378243, -0.11222042, 0.028841216, -0.010635711, -0.14312616, -0.08471515, -0.044674616, -0.052766886, -0.07466639, 0.10159372, -0.120944805, 0.030929051, 0.0062932195, 0.03009694, -0.09103794, -0.07097146, 0.062794894, 0.051934402, -0.07364739, 0.020302946, -0.12189053, 0.11813644, -0.12516816, 0.002648016, -0.05729344, -0.112655155, -0.07816219, 0.08488709, 0.14112465, -0.10922926, 0.09396085, 0.1073149, 0.111569285, -0.09082212, 0.066288926, 0.040892262, 0.06315543, 0.021592312, 0.01544009, 0.007702598, 0.08215457, 0.071112275, -0.0038021673, 0.14812073, 0.072347835, -0.05445069},
{-0.062307455, -0.04409114, 0.068955675, 0.1078876, -0.060612563, -0.016161148, 0.021482226, 0.06451974, 0.12050677, 0.051316388, 0.045068156, -0.12924317, 0.052519634, 0.046310358, -0.040698264, -0.1483108, 0.015127936, -0.005485858, 0.07392846, -0.028898388, -0.04401221, 0.05742703, -0.07916627, -0.09960192, 0.15633366, -0.00195339, -0.051482685, -0.045366626, -0.116894804, -0.13768724, 0.01923931, -0.13020884, -0.038471635, -0.013566088, 0.1016762, -0.08843498, 0.10822009, -0.10062032, -0.084859796, 0.11488302, -0.09629544, 0.027146602, -0.022781625, -0.13444658, -0.0036313212, 0.05344289, 0.11635295, -0.04139272, 0.048832037, -0.046681236, 0.07243251, 0.10478386, -0.07744295, 0.033925947, 0.12601517, 0.009201127, 0.14143802, 0.069691256, 0.019367963, -0.06360395, -0.1255368, 0.030184213, -0.0639288, -0.021975575},
{-0.0105794845, -0.082680605, 0.07277913, 0.10055637, 0.065268695, 0.022105735, 0.073076, -0.124980204, 0.028709475, 0.0922505, -0.022291211, 0.0018836106, 0.12956318, 0.0077605615, 0.005897188, 0.06644633, 0.15656966, 0.03528617, -0.07910017, -0.02812322, 0.09795835, -0.014201331, -0.053696692, 0.09022968, 0.04684495, 0.035969295, 0.016264427, -0.11981972, 0.0005391869, 0.06491433, -0.05259565, 0.10925062, 0.037740108, -0.021587443, -0.016384376, 0.13242626, -0.030931523, -0.08837921, -0.025417807, -0.047691412, 0.062813714, 0.004198906, -0.08474424, -0.07887672, -0.0137821995, 0.07703502, -0.004927367, 0.03676803, 0.10930428, 0.085735746, -0.07227668, -0.10006912, 0.10349552, 0.014482938, 0.031124888, 0.013056686, -0.11827917, -0.098650314, 0.14150986, 0.024275731, -0.021909105, 0.07751842, -0.0338236, -0.044514623},
{-0.04365854, 0.03920413, -0.12369375, -0.13020465, 0.07876663, -0.09875844, 0.062008943, -0.10354516, -0.14728984, 0.08431309, -0.061225787, -0.0992377, 0.054492977, 0.13197628, -0.044651035, 0.021628808, -0.06651037, 0.11502899, 0.02938311, -0.06639184, 0.08878509, -0.0039257663, 0.05631232, -0.07739828, 0.0865052, -0.09945719, 0.07439829, 0.028341673, -0.098571725, 0.094753146, 0.06790561, -0.023097187, 0.03664674, 0.11663693, 0.032356814, 0.07681976, 0.095528685, -0.071731985, 0.065516, 0.034565125, -0.0850455, -0.11870749, 0.12871853, -0.007164359, 0.03916234, 0.10509119, 0.08184476, -0.01975749, 0.055662055, -0.07541846, 0.103504695, -0.058830023, -0.04190211, -0.12127572, -0.021391377, 0.07918771, -0.0746401, 0.14002731, 0.061469745, 0.10500577, -0.060892068, 0.080062486, -0.068920895, 0.079646364},
{0.031739257, -0.07548902, 0.041216902, 0.10738433, -0.0014440988, 0.012122308, 0.084916696, -0.106093116, 0.02399436, 0.04675952, -0.084125586, -0.024324795, -0.04959548, -0.030155314, 0.018907167, -0.10391319, 0.02197461, -0.03902182, 0.045038953, -0.08841978, 0.053738426, 0.1226445, 0.099701315, 0.0865444, -0.022117456, -0.01970889, -0.034067936, 0.019320505, 0.11855254, 0.086673915, 0.11616288, 0.11376132, -0.11819221, 0.12029316, 0.100769244, 0.018822433, 0.10270434, 0.020031225, 0.014021501, -0.11548637, -0.031174326, 0.067191906, 0.03915506, -0.09742142, 0.04804572, 0.050064404, 0.017297594, -0.12426966, 0.010172394, 0.00032262807, 0.0039114105, 0.0735883, -0.015299288, 0.07182181, -0.02848609, 0.11671017, 0.0060138716, -0.08512658, 0.03037722, -0.09327245, -0.038484327, 0.017787877, 0.0988991, 0.051146183},
{0.12059691, -0.07624706, -0.11340054, -0.039388586, -0.08528285, -0.012133941, 0.051724825, -0.105841495, -0.021963349, 0.10588059, -0.092200935, -0.06977579, -0.0016757611, -0.14409338, 0.11403383, -0.067812294, -0.06633051, 0.13398913, -0.06981803, -0.06162316, 0.123155385, -0.0069958526, 0.08033879, 0.044688165, 0.036208667, 0.05118017, -0.030229015, -0.056260955, 0.003921118, 0.017526325, 0.10536719, -0.14972475, -0.06449222, 0.13481164, 0.15377577, 0.0037227278, -0.020809952, 0.101608835, 0.101477504, 0.085891195, 0.046232685, 0.08384443, -0.104427636, -0.13711771, -0.048920885, -0.046985622, -0.07461429, -0.087868705, -0.06666454, -0.032388628, 0.046685733, -0.07795892, 0.084108874, -0.023268893, -0.08059828, 0.006006683, -0.042057358, 0.07478381, -0.049966093, -0.12818529, -0.066372484, -0.035580583, -0.011631062, -0.0066249263},
{0.057705708, 0.065696746, -0.10093165, 0.0015054527, 0.039804857, 0.0596454, 0.10264451, 0.0927939, -0.10679948, 0.008058678, 0.040010367, -0.046939496, -0.024184024, -0.08110377, 0.009511153, 0.068272315, 0.037351213, -0.024886487, 0.088227764, 0.068717524, -0.091476865, -0.031134617, -0.057131544, -0.06257194, -0.06746522, -0.12690182, -0.058978796, 0.0144616, 0.0033534314, 0.015796574, -0.0021191507, -0.049776733, 0.026628837, 0.10337548, -0.11386928, -0.042577334, 0.006102451, -0.0976018, -0.056988023, -0.03475775, -0.00178534, 0.13919264, -0.060406733, 0.09857303, 0.010917562, -0.08660194, 0.052482676, -0.01868161, 0.014949659, -0.025300037, -0.09682084, -0.01995767, -0.06760129, -0.12461967, -0.07474224, 0.13081376, 0.064788125, -0.020331362, -0.02037876, -0.055356473, 0.09893311, 0.109295696, 0.016483897, -0.0143489875},
